-3.961410745978355408e-02
-2.409011684358119965e-02
-4.321372509002685547e-02
-4.115412384271621704e-02
-4.542429372668266296e-02
-4.308427497744560242e-02
-3.765481710433959961e-02
-1.310808956623077393e-02
3.930444642901420593e-02
2.608433924615383148e-02
2.892399020493030548e-02
-2.795724757015705109e-02
-2.033336088061332703e-02
-4.281569644808769226e-02
-2.556408569216728210e-02
2.976088970899581909e-02
3.112880885601043701e-02
-1.547769084572792053e-02
1.989615522325038910e-02
-1.553217135369777679e-02
1.384888123720884323e-02
2.044572867453098297e-02
2.297602780163288116e-02
2.325722202658653259e-02
-1.008597947657108307e-02
-4.354076832532882690e-02
3.541367128491401672e-02
2.757428027689456940e-02
-1.952237449586391449e-02
3.543507680296897888e-02
3.556541725993156433e-02
1.326174661517143250e-02
-2.275551855564117432e-02
4.262891411781311035e-02
4.103287309408187866e-02
1.197231467813253403e-02
1.835852488875389099e-02
3.711294382810592651e-02
2.873501181602478027e-02
2.194297686219215393e-02
4.276976361870765686e-02
2.058739401400089264e-02
2.704541571438312531e-02
-1.893762871623039246e-02
-4.470260813832283020e-02
2.281624637544155121e-02
-1.712131500244140625e-02
-4.526074230670928955e-02
1.089974865317344666e-02
2.332616224884986877e-02
-3.164001926779747009e-02
-4.518014192581176758e-02
-1.746051385998725891e-02
2.576835639774799347e-02
-4.204846918582916260e-02
3.157427161931991577e-02
-1.263122353702783585e-02
4.209092631936073303e-02
-2.614801377058029175e-02
-4.419132694602012634e-02
-1.581482961773872375e-02
-2.462837472558021545e-02
1.083479821681976318e-02
-1.156058441847562790e-02
1.919452287256717682e-02
-1.806086115539073944e-02
-2.574718743562698364e-02
4.068848490715026855e-02
3.870471566915512085e-02
2.653550542891025543e-02
-1.831113733351230621e-02
-1.457590237259864807e-02
2.046115137636661530e-02
4.329941049218177795e-02
-3.632965311408042908e-02
-2.288781479001045227e-02
2.675113081932067871e-02
1.242637075483798981e-02
3.858833387494087219e-02
2.083679288625717163e-02
4.624676331877708435e-02
-9.457124397158622742e-03
-1.122786663472652435e-02
3.312903270125389099e-02
-1.403692644089460373e-02
-9.504678659141063690e-03
2.015250734984874725e-02
3.657687827944755554e-02
2.910392358899116516e-02
-2.453792467713356018e-02
1.693964190781116486e-02
-3.046329878270626068e-02
2.811648137867450714e-02
4.313541203737258911e-02
-4.709694907069206238e-02
-3.802032396197319031e-02
3.164213895797729492e-02
-1.147689763456583023e-02
-2.469267882406711578e-02
-1.464830152690410614e-02
1.842488534748554230e-02
3.066280111670494080e-02
-1.247085630893707275e-02
4.587904736399650574e-02
2.485040016472339630e-02
-2.098640613257884979e-02
-1.307963579893112183e-02
2.064268104732036591e-02
4.629399999976158142e-02
-2.592239715158939362e-02
-2.962379343807697296e-02
1.957093179225921631e-02
-1.262459438294172287e-02
4.318229109048843384e-02
1.808649115264415741e-02
1.617116294801235199e-02
3.762147575616836548e-02
-3.585068881511688232e-02
1.579942926764488220e-02
-4.539217799901962280e-02
-2.952050790190696716e-02
3.876052051782608032e-02
2.013710327446460724e-02
-1.432185340672731400e-02
3.271960094571113586e-02
2.026921696960926056e-02
1.001717988401651382e-02
2.835272811353206635e-02
4.106548428535461426e-02
3.205382451415061951e-02
1.363411918282508850e-02
-3.114376962184906006e-02
-2.915936335921287537e-02
2.882863581180572510e-02
-1.965150609612464905e-02
1.637741178274154663e-02
1.861604116857051849e-02
1.737199164927005768e-02
4.564959928393363953e-02
-1.671843603253364563e-02
3.010868653655052185e-02
2.687104605138301849e-02
-4.175712168216705322e-02
-1.258685626089572906e-02
1.572535745799541473e-02
-9.730721823871135712e-03
2.493716217577457428e-02
2.389703504741191864e-02
-4.335117712616920471e-02
4.662291333079338074e-02
-4.690196365118026733e-02
-3.235308080911636353e-02
-2.571542188525199890e-02
-3.274787217378616333e-02
-3.952939808368682861e-02
-1.657584123313426971e-02
-3.039461188018321991e-02
9.589174762368202209e-03
-3.773302212357521057e-02
2.811265923082828522e-02
3.257908299565315247e-02
-3.862377628684043884e-02
1.199164427816867828e-02
1.496842876076698303e-02
4.478718712925910950e-02
-1.450026035308837891e-02
-1.873118989169597626e-02
-3.968093916773796082e-02
-1.298591867089271545e-02
3.297767788171768188e-02
1.735710166394710541e-02
-2.513840235769748688e-02
3.478205576539039612e-02
-2.955341152846813202e-02
4.096719250082969666e-02
-3.104942478239536285e-02
-2.051969431340694427e-02
-6.806445308029651642e-03
4.603384435176849365e-02
3.603461757302284241e-02
-3.660430386662483215e-02
-3.406321629881858826e-02
-1.990856975317001343e-02
-4.509956389665603638e-02
-1.009211596101522446e-02
-1.846184954047203064e-02
3.720488771796226501e-02
-2.123091183602809906e-02
4.125650972127914429e-02
-1.231418736279010773e-02
-1.331569720059633255e-02
-2.618336491286754608e-02
-1.232490129768848419e-02
2.003659121692180634e-02
-3.835484758019447327e-02
-1.826930791139602661e-02
-3.805696219205856323e-02
-2.903403528034687042e-02
-1.152740884572267532e-02
-1.170215848833322525e-02
3.575428947806358337e-02
2.053425833582878113e-02
3.271773830056190491e-02
-1.363873016089200974e-02
2.908657304942607880e-02
2.436642721295356750e-02
1.673034019768238068e-02
3.089830279350280762e-02
1.914527267217636108e-02
4.104484617710113525e-02
-1.750298216938972473e-02
-1.843283139169216156e-02
-1.081264764070510864e-02
3.016917593777179718e-02
3.604437038302421570e-02
-4.218804091215133667e-02
-4.107917100191116333e-02
-3.514206409454345703e-02
-3.607882931828498840e-02
3.648461773991584778e-02
-1.246390026062726974e-02
-3.790723532438278198e-02
2.511896193027496338e-02
-3.598218411207199097e-02
-2.011982724070549011e-02
-1.332326512783765793e-02
-1.661323755979537964e-02
-1.096391491591930389e-02
-1.596070639789104462e-02
4.208645969629287720e-02
-3.132476657629013062e-02
-3.751478344202041626e-02
2.752268314361572266e-02
2.155717648565769196e-02
4.390635713934898376e-02
-3.572916612029075623e-02
3.446589037775993347e-02
1.832575909793376923e-02
-3.881108388304710388e-02
4.317618906497955322e-02
-3.038445673882961273e-02
-4.488506540656089783e-02
-2.312071993947029114e-02
-2.424557879567146301e-02
2.636906877160072327e-02
-2.026748284697532654e-02
1.726608909666538239e-02
-1.592617109417915344e-02
2.513572014868259430e-02
-3.095666877925395966e-02
1.527049671858549118e-02
-2.394399419426918030e-02
3.831483796238899231e-02
3.931860625743865967e-02
3.493405878543853760e-02
3.883741796016693115e-02
-3.032732382416725159e-02
-4.174567386507987976e-02
1.835918612778186798e-02
-1.853157207369804382e-02
-1.063028816133737564e-02
2.173851244151592255e-02
3.038719110190868378e-02
-4.505313560366630554e-02
2.847594767808914185e-02
1.252304576337337494e-02
-1.972958445549011230e-02
-3.046590276062488556e-02
-3.274663537740707397e-02
-3.278055414557456970e-02
1.206013839691877365e-02
1.199388038367033005e-02
3.679193183779716492e-02
1.311042346060276031e-02
-1.223763916641473770e-02
-1.202739775180816650e-02
-1.562264841049909592e-02
-2.278267405927181244e-02
3.884625434875488281e-02
-2.034087851643562317e-02
-1.449051778763532639e-02
-4.564721882343292236e-02
1.213792711496353149e-02
-1.948068849742412567e-02
1.982643082737922668e-02
3.693587332963943481e-02
2.257944643497467041e-02
3.340298309922218323e-02
2.815820090472698212e-02
3.977188840508460999e-02
2.044575847685337067e-02
4.054286330938339233e-02
-2.226573228836059570e-02
-2.066919207572937012e-02
3.306836262345314026e-02
-2.984218113124370575e-02
-4.011417552828788757e-02
3.489469364285469055e-02
3.707538545131683350e-02
3.177100419998168945e-02
-2.934391424059867859e-02
3.006881475448608398e-02
-2.486162073910236359e-02
3.579889982938766479e-02
4.549170657992362976e-02
1.200954429805278778e-02
4.557071253657341003e-02
2.823925577104091644e-02
-3.167853504419326782e-02
3.594694286584854126e-02
-1.476793456822633743e-02
-3.020023740828037262e-02
1.531709637492895126e-02
4.113828763365745544e-02
-3.670343384146690369e-02
-1.816297695040702820e-02
-2.589341625571250916e-02
-4.134129360318183899e-02
-1.238742191344499588e-02
1.011619064956903458e-02
-1.437428966164588928e-02
4.192561283707618713e-02
-3.457521274685859680e-02
-4.376526176929473877e-02
1.038046739995479584e-02
4.250248521566390991e-02
3.963474184274673462e-02
1.742223091423511505e-02
4.467110708355903625e-02
-2.907562628388404846e-02
3.237088769674301147e-02
-3.888656571507453918e-02
-2.248769812285900116e-02
1.509347371757030487e-02
1.551077608019113541e-02
-2.625892870128154755e-02
3.356094658374786377e-02
-2.091825567185878754e-02
3.717561811208724976e-02
-2.239497378468513489e-02
1.935002766549587250e-02
2.970950677990913391e-02
4.190133139491081238e-02
4.538011550903320312e-02
-3.070740401744842529e-02
1.589406281709671021e-02
3.715659677982330322e-02
-3.286603465676307678e-02
4.555057734251022339e-02
-1.895205490291118622e-02
-1.052968949079513550e-02
3.672420606017112732e-02
-1.636991463601589203e-02
-2.302525006234645844e-02
3.673657029867172241e-02
1.696471497416496277e-02
-2.460643835365772247e-02
-4.183055832982063293e-02
1.559319905936717987e-02
3.421875461935997009e-02
2.886209450662136078e-02
2.641230449080467224e-02
-2.182344719767570496e-02
-1.032036077231168747e-02
-2.363757230341434479e-02
1.981166936457157135e-02
4.052361473441123962e-02
-3.183966875076293945e-02
4.137974977493286133e-02
2.635895647108554840e-02
-1.670262403786182404e-02
-1.196527853608131409e-02
1.777079701423645020e-02
4.452467709779739380e-02
1.086001843214035034e-02
-3.524171188473701477e-02
4.213950037956237793e-02
9.152166545391082764e-03
2.584576420485973358e-02
-1.525767985731363297e-02
-2.346453629434108734e-02
-3.372244164347648621e-02
-2.375942841172218323e-02
-1.482749171555042267e-02
1.698734983801841736e-02
2.344415709376335144e-02
-1.606898568570613861e-02
1.480284892022609711e-02
2.979873120784759521e-02
-2.932723052799701691e-02
1.462123729288578033e-02
-3.321068733930587769e-02
3.337210044264793396e-02
3.304200991988182068e-02
-3.677735105156898499e-02
-4.473312571644783020e-02
4.604548588395118713e-02
1.187557727098464966e-02
-2.980943210422992706e-02
-2.505420520901679993e-02
2.136078663170337677e-02
-1.729609444737434387e-02
-2.221386320888996124e-02
2.019528672099113464e-02
3.007989190518856049e-02
2.682969905436038971e-02
-2.284217812120914459e-02
-4.013023152947425842e-02
1.225324813276529312e-02
-1.347601413726806641e-02
8.205136284232139587e-03
1.829697564244270325e-02
-2.660735137760639191e-02
-1.978240907192230225e-02
2.282798849046230316e-02
-3.453035280108451843e-02
4.184756428003311157e-02
-2.743323706090450287e-02
-9.911811910569667816e-03
1.635900326073169708e-02
4.349157214164733887e-02
1.543454267084598541e-02
3.126264736056327820e-02
-1.006252039223909378e-02
-3.096093796193599701e-02
2.249938249588012695e-02
4.383620992302894592e-02
-2.471538633108139038e-02
2.378384210169315338e-02
2.542116679251194000e-02
2.339747734367847443e-02
1.748359203338623047e-02
-2.418032474815845490e-02
-1.943037658929824829e-02
1.151839923113584518e-02
1.124807167798280716e-02
1.036967243999242783e-02
-2.408861741423606873e-02
3.424284607172012329e-02
2.254964783787727356e-02
-4.088643193244934082e-02
1.597534865140914917e-02
-2.482274919748306274e-02
-1.288570277392864227e-02
4.468765109777450562e-02
-4.253498837351799011e-02
4.352021962404251099e-02
-3.776840865612030029e-02
-1.646299660205841064e-02
-2.329539135098457336e-02
-1.301552820950746536e-02
2.857667021453380585e-02
-2.820188179612159729e-02
3.942573443055152893e-02
1.449396740645170212e-02
-3.017306514084339142e-02
1.923256553709506989e-02
1.345965731889009476e-02
-4.073201864957809448e-02
-1.235942263156175613e-02
2.979347668588161469e-02
2.579548209905624390e-02
3.058261238038539886e-02
3.944290056824684143e-02
3.693116083741188049e-02
3.325867280364036560e-02
-4.174919798970222473e-02
-2.918845415115356445e-02
2.814955264329910278e-02
-1.232556905597448349e-02
2.070638723671436310e-02
-3.586400300264358521e-02
-4.267993196845054626e-02
2.417312376201152802e-02
-3.036986663937568665e-02
-2.249333262443542480e-02
1.048804540187120438e-02
3.798243403434753418e-02
2.396253682672977448e-02
4.562944546341896057e-02
-3.549624234437942505e-02
-1.243044342845678329e-02
3.700672090053558350e-02
-1.481676660478115082e-02
3.379226103425025940e-02
3.503986448049545288e-02
3.392398357391357422e-02
3.403118625283241272e-02
-3.648957610130310059e-02
-1.495311036705970764e-02
4.145124927163124084e-02
3.033815883100032806e-02
-3.489733114838600159e-02
4.557539522647857666e-02
4.247796162962913513e-02
-3.369039297103881836e-02
-2.053688466548919678e-02
-3.689580038189888000e-02
2.897109836339950562e-02
-3.475775197148323059e-02
3.094681166112422943e-02
-2.241908945143222809e-02
-3.413337469100952148e-02
-1.733361929655075073e-02
1.128305122256278992e-02
3.433503955602645874e-02
-1.134132873266935349e-02
-4.210832715034484863e-02
-4.081817716360092163e-02
-1.431435160338878632e-02
2.480153925716876984e-02
-3.393005952239036560e-02
2.033308148384094238e-02
-4.518678039312362671e-02
-3.902051225304603577e-02
-1.444463524967432022e-02
-4.180403053760528564e-02
-3.164075687527656555e-02
-3.149565681815147400e-02
-1.940316893160343170e-02
-2.226356044411659241e-02
1.923562586307525635e-02
-1.553929876536130905e-02
-3.265418484807014465e-02
-4.475484043359756470e-02
4.232460632920265198e-02
2.316784486174583435e-02
-2.470769919455051422e-02
-4.042106494307518005e-02
-3.979632258415222168e-02
4.328698292374610901e-02
4.169414192438125610e-02
-3.952926397323608398e-02
2.499076724052429199e-02
-3.185034543275833130e-02
2.731966041028499603e-02
2.218862622976303101e-02
2.917374297976493835e-02
-2.296368032693862915e-02
-1.207210868597030640e-02
3.552014380693435669e-02
-1.540827192366123199e-02
-4.307660833001136780e-02
2.952927164733409882e-02
-2.200783230364322662e-02
1.705123856663703918e-02
-1.296567544341087341e-02
1.741806045174598694e-02
3.112211078405380249e-02
4.107213765382766724e-02
2.533078193664550781e-02
3.892645612359046936e-02
4.033454507589340210e-02
3.593834117054939270e-02
2.713458798825740814e-02
3.896583244204521179e-02
1.143258158117532730e-02
2.658378519117832184e-02
-4.106970131397247314e-02
-3.618440404534339905e-02
3.129782527685165405e-02
4.324268177151679993e-02
4.015481099486351013e-02
-1.777698285877704620e-02
1.513304747641086578e-02
-4.094784706830978394e-02
1.952865533530712128e-02
2.635757438838481903e-02
3.412992879748344421e-02
4.176767915487289429e-02
-4.637048766016960144e-02
-3.331873938441276550e-02
-1.678617671132087708e-02
3.358564525842666626e-02
1.460143085569143295e-02
-4.586879163980484009e-02
-1.346515771001577377e-02
-4.106642678380012512e-02
1.862896420061588287e-02
-3.062982112169265747e-02
-4.552110284566879272e-02
2.253993414342403412e-02
-3.640978038311004639e-02
4.314464703202247620e-02
-1.858978718519210815e-02
1.538437418639659882e-02
-4.560080543160438538e-02
-3.758411481976509094e-02
-2.270594052970409393e-02
-1.505648810416460037e-02
-2.545564249157905579e-02
3.328375890851020813e-02
-2.757848612964153290e-02
1.667269133031368256e-02
-1.922123134136199951e-02
-2.782051637768745422e-02
-2.582845091819763184e-02
-1.605452038347721100e-02
-4.509951546788215637e-02
4.374527931213378906e-02
-4.295535385608673096e-02
4.171849787235260010e-02
-3.450799360871315002e-02
-3.841094300150871277e-02
-2.604397758841514587e-02
-3.020470403134822845e-02
-1.641890965402126312e-02
3.267085924744606018e-02
-4.472580924630165100e-02
-2.573215402662754059e-02
2.848103456199169159e-02
-3.691494837403297424e-02
4.142824187874794006e-02
2.411048673093318939e-02
-3.485601022839546204e-02
1.273366902023553848e-02
4.052803665399551392e-02
-1.429963856935501099e-02
-2.729067206382751465e-02
-2.952487394213676453e-02
-3.215201199054718018e-02
-1.547677163034677505e-02
3.671335428953170776e-02
4.190770164132118225e-02
-2.018970623612403870e-02
-1.284931972622871399e-02
1.188809983432292938e-02
-2.497933246195316315e-02
1.316699944436550140e-02
-4.074426367878913879e-02
-1.891888305544853210e-02
-2.682997658848762512e-02
-3.075384348630905151e-02
1.968783512711524963e-02
1.226589363068342209e-02
3.394289314746856689e-02
4.633235186338424683e-02
-3.779339417815208435e-02
1.395497657358646393e-02
-3.660915791988372803e-02
-2.889584004878997803e-02
-3.325580060482025146e-02
-1.766843907535076141e-02
1.364962849766016006e-02
1.226525753736495972e-02
2.815858088433742523e-02
-2.940997481346130371e-02
-1.389153208583593369e-02
3.801845386624336243e-02
-3.527643904089927673e-02
-2.082364261150360107e-02
3.858897462487220764e-02
-2.032745815813541412e-02
1.466079335659742355e-02
-1.017160248011350632e-02
2.914804220199584961e-02
-2.423498034477233887e-02
-2.000275999307632446e-02
-3.635099902749061584e-02
3.563414141535758972e-02
-1.785384491086006165e-02
-4.611527547240257263e-02
-1.633092947304248810e-02
-2.114473655819892883e-02
1.342502702027559280e-02
-3.082353994250297546e-02
2.680225484073162079e-02
1.421500649303197861e-02
-1.405568979680538177e-02
-1.149518974125385284e-02
-2.260747179388999939e-02
2.041370049118995667e-02
2.327527292072772980e-02
-2.962786704301834106e-02
-2.163600549101829529e-02
-3.200948983430862427e-02
-2.212465554475784302e-02
-1.494679134339094162e-02
2.745001576840877533e-02
-2.395306155085563660e-02
1.989413425326347351e-02
2.413662523031234741e-02
-1.684433035552501678e-02
3.124814294278621674e-02
1.455810479819774628e-02
1.883557252585887909e-02
1.691932603716850281e-02
1.353543810546398163e-02
2.758529409766197205e-02
1.429538056254386902e-02
-4.220737889409065247e-02
-4.586493968963623047e-02
1.032014563679695129e-02
4.521935433149337769e-02
-4.149265959858894348e-02
1.103900838643312454e-02
-2.731395140290260315e-02
4.330330342054367065e-02
-1.183906290680170059e-02
1.143052335828542709e-02
1.872302405536174774e-02
2.112548053264617920e-02
-2.554964832961559296e-02
-1.208003051578998566e-02
-1.835476607084274292e-02
-1.421946566551923752e-02
2.108644694089889526e-02
4.237863793969154358e-02
-2.129579894244670868e-02
-3.427937254309654236e-02
-2.986146509647369385e-02
3.359654173254966736e-02
3.390332683920860291e-02
-1.942580565810203552e-02
-2.254441380500793457e-02
1.239656284451484680e-02
1.133376918733119965e-02
-1.161878276616334915e-02
2.778508514165878296e-02
7.006420753896236420e-03
-3.279288485646247864e-02
2.068046852946281433e-02
-3.911553323268890381e-02
-3.080533072352409363e-02
3.462289646267890930e-02
-3.666416183114051819e-02
1.909092254936695099e-02
-1.517196651548147202e-02
-1.569014601409435272e-02
3.649491816759109497e-02
-3.085557371377944946e-02
3.606765344738960266e-02
2.101802267134189606e-02
4.460582137107849121e-02
-2.974052354693412781e-02
1.929996162652969360e-02
-2.757489867508411407e-02
-1.145412027835845947e-02
-1.069647353142499924e-02
-1.879568584263324738e-02
-1.666888035833835602e-02
4.526911303400993347e-02
-1.917364634573459625e-02
-3.349643573164939880e-02
3.545191511511802673e-02
-3.439936041831970215e-02
-3.613766655325889587e-02
-3.882217034697532654e-02
3.038233891129493713e-02
-2.229806222021579742e-02
2.620647102594375610e-02
-3.013377822935581207e-02
4.284052550792694092e-02
2.820482850074768066e-02
-4.059971123933792114e-02
4.473636299371719360e-02
-3.031933866441249847e-02
3.662691637873649597e-02
3.868931159377098083e-02
-2.940269000828266144e-02
-4.652574285864830017e-02
4.434017464518547058e-02
-2.544287964701652527e-02
-1.672718115150928497e-02
-1.736930385231971741e-02
3.069860488176345825e-02
1.203687116503715515e-02
7.965597324073314667e-03
2.663431502878665924e-02
-2.648355625569820404e-02
2.842769771814346313e-02
-2.894165553152561188e-02
3.775361925363540649e-02
-1.736949570477008820e-02
-4.421889409422874451e-02
2.454574406147003174e-02
2.469520643353462219e-02
-3.610563650727272034e-02
2.726136520504951477e-02
3.574313595890998840e-02
-2.367394044995307922e-02
3.349778801202774048e-02
-3.177765011787414551e-02
-3.325089439749717712e-02
4.198627546429634094e-02
4.071615636348724365e-02
1.130412984639406204e-02
1.099388394504785538e-02
4.090577736496925354e-02
-1.535616535693407059e-02
-3.341171517968177795e-02
-2.451368980109691620e-02
-3.158074244856834412e-02
-2.534268796443939209e-02
2.987842820584774017e-02
-1.234329771250486374e-02
-1.051554270088672638e-02
-2.664932608604431152e-02
-3.615824133157730103e-02
1.324820332229137421e-02
-1.834413968026638031e-02
-2.328269928693771362e-02
1.423729117959737778e-02
-3.791867941617965698e-02
4.319515824317932129e-02
-3.100792877376079559e-02
-2.780050784349441528e-02
-3.004914522171020508e-02
1.879903674125671387e-02
1.805905625224113464e-02
4.036471247673034668e-02
-1.396621670573949814e-02
-3.595137596130371094e-02
-3.184571862220764160e-02
4.020757973194122314e-02
-3.795926272869110107e-02
-4.114267230033874512e-02
2.975412458181381226e-02
-1.624440960586071014e-02
3.324732184410095215e-02
-4.009937122464179993e-02
2.150425128638744354e-02
-3.807875141501426697e-02
-2.473346330225467682e-02
3.632528334856033325e-02
3.686932101845741272e-02
-4.321784153580665588e-02
-3.641793876886367798e-02
-4.548011347651481628e-02
1.774497330188751221e-02
-1.319928560405969620e-02
2.014316245913505554e-02
1.330904290080070496e-02
3.654444962739944458e-02
3.748939558863639832e-02
3.601931408047676086e-02
4.354604706168174744e-02
-2.983641065657138824e-02
3.967253118753433228e-02
3.505508229136466980e-02
-3.694466874003410339e-02
1.154744997620582581e-02
3.582957759499549866e-02
2.346773259341716766e-02
-4.415214061737060547e-02
2.388766966760158539e-02
-3.350177779793739319e-02
-3.020222857594490051e-02
1.112780999392271042e-02
-1.787970773875713348e-02
-3.370507061481475830e-02
-1.118186302483081818e-02
3.745407983660697937e-02
-1.615888252854347229e-02
2.907749824225902557e-02
-1.066013332456350327e-02
-3.717758134007453918e-02
4.301043227314949036e-02
-2.953401394188404083e-02
-2.828515321016311646e-02
-1.792440935969352722e-02
2.819670923054218292e-02
-3.191876411437988281e-02
-3.811268135905265808e-02
1.620257087051868439e-02
4.278835654258728027e-02
4.579420760273933411e-02
-1.833445578813552856e-02
3.224691748619079590e-02
1.352220680564641953e-02
1.089680101722478867e-02
3.145861253142356873e-02
-2.566434442996978760e-02
-1.586819067597389221e-02
2.961599268019199371e-02
2.172005176544189453e-02
3.189789503812789917e-02
2.059990540146827698e-02
1.164503023028373718e-02
1.090759877115488052e-02
2.517284080386161804e-02
1.616882905364036560e-02
1.440127752721309662e-02
-2.510457858443260193e-02
-3.260362893342971802e-02
-3.555156290531158447e-02
2.324779145419597626e-02
-3.056685999035835266e-02
3.724843636155128479e-02
3.200192376971244812e-02
-1.109865028411149979e-02
2.208582498133182526e-02
-3.555551171302795410e-02
-9.300189092755317688e-03
1.116907782852649689e-02
2.139782346785068512e-02
1.884590834379196167e-02
-3.902362287044525146e-02
3.994797915220260620e-02
2.425560541450977325e-02
3.931898623704910278e-02
-1.694923266768455505e-02
-2.049692533910274506e-02
1.468045543879270554e-02
1.784290559589862823e-02
4.159317538142204285e-02
4.616273939609527588e-02
-1.314835809171199799e-02
4.580939188599586487e-02
-3.013052977621555328e-02
1.646949350833892822e-02
-3.125605732202529907e-02
-4.122947901487350464e-02
-1.150287594646215439e-02
2.533121034502983093e-02
2.523940615355968475e-02
-4.094300791621208191e-02
-1.885695941746234894e-02
4.501615464687347412e-02
-2.517038583755493164e-02
-3.756948933005332947e-02
1.118300762027502060e-02
-1.163558661937713623e-02
-1.028155814856290817e-02
-1.260973606258630753e-02
2.729331143200397491e-02
1.418465934693813324e-02
-3.956339880824089050e-02
3.292277827858924866e-02
-4.519465565681457520e-02
-2.682493254542350769e-02
1.232194807380437851e-02
4.228320717811584473e-02
3.448551520705223083e-02
3.251037374138832092e-02
-1.161415968090295792e-02
-2.015697583556175232e-02
2.871841192245483398e-02
2.275577373802661896e-02
-2.362860739231109619e-02
-2.007120475172996521e-02
3.203557804226875305e-02
3.646373748779296875e-02
2.935544773936271667e-02
4.028399661183357239e-02
4.177032038569450378e-02
2.087879553437232971e-02
-1.848826371133327484e-02
2.445651590824127197e-02
-1.884553767740726471e-02
4.389294981956481934e-02
-4.051810130476951599e-02
2.660412900149822235e-02
4.220991209149360657e-02
2.129390090703964233e-02
3.334442526102066040e-02
-2.535051666200160980e-02
-1.684616878628730774e-02
-1.100281719118356705e-02
-3.113084658980369568e-02
-3.442804887890815735e-02
-3.203584253787994385e-02
-1.625101268291473389e-02
2.999100275337696075e-02
1.356689725071191788e-02
3.656296432018280029e-02
-3.070418164134025574e-02
3.590945899486541748e-02
2.403442189097404480e-02
2.475430816411972046e-02
-3.191199526190757751e-02
-1.476839743554592133e-02
1.686424762010574341e-02
2.072750218212604523e-02
4.081423953175544739e-02
2.806611545383930206e-02
1.571790128946304321e-02
2.934016287326812744e-02
4.282516986131668091e-02
-1.114903576672077179e-02
-2.908039093017578125e-02
-1.980823278427124023e-02
-4.371039569377899170e-02
2.999430894851684570e-02
-2.848393097519874573e-02
1.489749737083911896e-02
3.313073515892028809e-02
3.395536541938781738e-02
1.730767451226711273e-02
1.251275558024644852e-02
-3.731278330087661743e-02
3.786988183856010437e-02
4.385970905423164368e-02
-1.105576567351818085e-02
-2.521554008126258850e-02
-2.831650897860527039e-02
3.304328024387359619e-02
1.470236107707023621e-02
3.337616473436355591e-02
-1.785086467862129211e-02
3.690046072006225586e-02
-1.416835002601146698e-02
-1.724567078053951263e-02
2.199567295610904694e-02
2.362293750047683716e-02
2.973200939595699310e-02
4.193062707781791687e-02
-1.336754485964775085e-02
1.665399782359600067e-02
-3.042747266590595245e-02
-2.466955035924911499e-02
2.425728365778923035e-02
-3.722605481743812561e-02
-4.512988030910491943e-02
3.081766888499259949e-02
1.645604707300662994e-02
4.380255565047264099e-02
1.142403483390808105e-02
2.822624891996383667e-02
4.399564862251281738e-02
-1.345634460449218750e-02
2.615903317928314209e-02
-2.955071628093719482e-02
-2.773101441562175751e-02
1.307811494916677475e-02
2.645500749349594116e-02
-2.443411201238632202e-02
-3.994497284293174744e-02
3.709264099597930908e-02
2.644166909158229828e-02
1.153289340436458588e-02
1.044080406427383423e-02
1.751261577010154724e-02
-2.839448116719722748e-02
2.429937385022640228e-02
-4.524596035480499268e-02
-3.192263841629028320e-02
2.163719199597835541e-02
-1.189269311726093292e-02
3.655108064413070679e-02
-3.586001321673393250e-02
2.985662966966629028e-02
1.797294057905673981e-02
-3.461922332644462585e-02
1.061887014657258987e-02
1.711767539381980896e-02
1.433942560106515884e-02
-1.931620761752128601e-02
1.045411452651023865e-02
4.704337939620018005e-02
-3.107516095042228699e-02
1.391463633626699448e-02
-3.959926962852478027e-02
3.786352276802062988e-02
4.628063365817070007e-02
1.238238066434860229e-02
-9.734318591654300690e-03
-2.686395123600959778e-02
-9.870899841189384460e-03
-1.197767257690429688e-02
9.785873815417289734e-03
1.885691471397876740e-02
-4.393688589334487915e-02
-4.408830404281616211e-02
-1.058578956872224808e-02
-3.097887523472309113e-02
2.683416008949279785e-02
1.557537075132131577e-02
-1.100411824882030487e-02
-1.769738271832466125e-02
2.622699551284313202e-02
-3.935344517230987549e-02
-3.163743391633033752e-02
-3.383544087409973145e-02
1.678216457366943359e-02
3.015461377799510956e-02
-1.049127802252769470e-02
-2.254044078290462494e-02
2.880278415977954865e-02
-1.193065103143453598e-02
-3.155680000782012939e-02
4.153049364686012268e-02
1.095526758581399918e-02
3.209944814443588257e-02
4.233183711767196655e-02
3.836926072835922241e-02
-2.442957274615764618e-02
4.524873942136764526e-02
2.649504691362380981e-02
-4.491297528147697449e-02
-1.696258224546909332e-02
2.728147245943546295e-02
-3.709132224321365356e-02
1.370424125343561172e-02
-3.225625306367874146e-02
-2.573991939425468445e-02
1.587251201272010803e-02
-2.982911281287670135e-02
3.588441759347915649e-02
-2.770440094172954559e-02
1.979471556842327118e-02
-4.481169953942298889e-02
-4.321798309683799744e-02
3.358884900808334351e-02
-3.497364372014999390e-02
-4.359079524874687195e-02
3.016094677150249481e-02
-1.167872827500104904e-02
1.377074047923088074e-02
3.942978382110595703e-02
-3.794006258249282837e-02
-3.286549076437950134e-02
-1.395743805915117264e-02
2.788621932268142700e-02
-1.950493827462196350e-02
9.997352957725524902e-03
1.086512859910726547e-02
-1.023533567786216736e-02
-3.684247657656669617e-02
1.244439650326967239e-02
3.156751766800880432e-02
4.317224770784378052e-02
2.828178182244300842e-02
-3.083955124020576477e-02
2.924447134137153625e-02
-3.531929105520248413e-02
-2.737880870699882507e-02
4.597144946455955505e-02
-3.225116059184074402e-02
3.502481430768966675e-02
1.224764622747898102e-02
1.808682456612586975e-02
-4.630829021334648132e-02
-1.232042536139488220e-02
2.789295278489589691e-02
-1.188985165208578110e-02
-3.290449827909469604e-02
-3.848148509860038757e-02
-1.912599615752696991e-02
2.573900111019611359e-02
-1.364609599113464355e-02
2.673179842531681061e-02
3.737549483776092529e-02
-2.039733901619911194e-02
-3.035671450197696686e-02
-1.936626993119716644e-02
2.402209490537643433e-02
-3.469981625676155090e-02
-4.242513328790664673e-02
4.032110422849655151e-02
-4.532484337687492371e-02
3.290336951613426208e-02
-2.759801037609577179e-02
-2.355957776308059692e-02
2.990411780774593353e-02
-1.022952049970626831e-02
1.672327704727649689e-02
-4.231010749936103821e-02
-1.131476368755102158e-02
4.379184544086456299e-02
2.303850091993808746e-02
-3.627275303006172180e-02
3.815985098481178284e-02
-1.407101657241582870e-02
1.465269643813371658e-02
-2.067092061042785645e-02
3.703176975250244141e-02
3.634827956557273865e-02
-4.477660357952117920e-02
1.910497806966304779e-02
-1.763036102056503296e-02
2.307937853038311005e-02
3.400910273194313049e-02
4.484758898615837097e-02
-3.343223407864570618e-02
3.479854390025138855e-02
-2.069694921374320984e-02
3.864190354943275452e-02
-1.596068777143955231e-02
1.354938652366399765e-02
-3.270891308784484863e-02
-3.284888342022895813e-02
1.814746856689453125e-02
-1.801498606801033020e-02
-2.785623632371425629e-02
1.309493836015462875e-02
1.537777669727802277e-02
1.745292544364929199e-02
3.713127225637435913e-02
2.866692282259464264e-02
-1.102861389517784119e-02
9.503877721726894379e-03
-1.809365302324295044e-02
2.705993875861167908e-02
-3.228543326258659363e-02
-1.679927855730056763e-02
-3.447934240102767944e-02
-4.135723784565925598e-02
1.440816372632980347e-02
-1.438289787620306015e-02
-3.539684787392616272e-02
3.416788950562477112e-02
-2.246965095400810242e-02
3.180227801203727722e-02
-3.902017697691917419e-02
-3.791540488600730896e-02
-3.826346993446350098e-02
-2.939086593687534332e-02
2.232784219086170197e-02
-1.654593273997306824e-02
4.616249352693557739e-02
4.215975478291511536e-02
-1.126890908926725388e-02
2.119788154959678650e-02
1.224414538592100143e-02
2.202039398252964020e-02
-4.302468150854110718e-02
3.273633494973182678e-02
-2.041002549231052399e-02
2.721644379198551178e-02
2.928951755166053772e-02
-4.150649160146713257e-02
2.613861858844757080e-02
2.581842616200447083e-02
-1.091103442013263702e-02
-2.155686542391777039e-02
-2.942582033574581146e-02
-1.167200133204460144e-02
-2.646293677389621735e-02
-1.757822558283805847e-02
-2.677609026432037354e-02
-1.877927035093307495e-02
-1.491402648389339447e-02
-2.870961651206016541e-02
-3.627016022801399231e-02
3.957642614841461182e-02
4.441605508327484131e-02
2.100399509072303772e-02
1.910982280969619751e-02
-2.494548819959163666e-02
1.341128628700971603e-02
-3.457828983664512634e-02
1.984917744994163513e-02
1.741691492497920990e-02
4.567711055278778076e-02
-2.722799591720104218e-02
-3.737972304224967957e-02
-2.712298743426799774e-02
-1.918993331491947174e-02
-2.822276763617992401e-02
-2.697244845330715179e-02
-1.205930020660161972e-02
1.591345295310020447e-02
-4.323955997824668884e-02
1.990096084773540497e-02
-9.661347605288028717e-03
3.901912644505500793e-02
2.255361154675483704e-02
1.123503968119621277e-02
-2.255669794976711273e-02
-1.679593883454799652e-02
4.175842553377151489e-02
2.829298377037048340e-02
3.813767060637474060e-02
2.929353155195713043e-02
-1.614059135317802429e-02
1.359619013965129852e-02
-1.230811420828104019e-02
8.866420947015285492e-03
2.430824376642704010e-02
3.753475844860076904e-02
-2.071030251681804657e-02
4.572488740086555481e-02
2.490780502557754517e-02
3.588110581040382385e-02
-2.822017110884189606e-02
-2.070470899343490601e-02
3.430367261171340942e-02
4.340326040983200073e-02
3.187670931220054626e-02
-2.818327769637107849e-02
-2.976327203214168549e-02
-3.993256390094757080e-02
3.277974948287010193e-02
1.110304519534111023e-02
-3.124874085187911987e-02
-1.484601199626922607e-02
-1.636542938649654388e-02
2.480355277657508850e-02
-4.343628510832786560e-02
3.032698109745979309e-02
1.124902255833148956e-02
-2.058952115476131439e-02
-2.561896108090877533e-02
-3.985735028982162476e-02
2.870323136448860168e-02
-2.080969326198101044e-02
1.121345814317464828e-02
-4.189208149909973145e-02
1.273884717375040054e-02
2.383237332105636597e-02
-2.769760787487030029e-02
-3.415166959166526794e-02
-3.872951120138168335e-02
-1.251938845962285995e-02
-1.238768547773361206e-02
1.981123350560665131e-02
3.602204844355583191e-02
1.794066466391086578e-02
4.333318397402763367e-02
-1.498666219413280487e-02
-4.356742277741432190e-02
-1.602221280336380005e-02
-2.506062574684619904e-02
1.227060053497552872e-02
-2.395610511302947998e-02
-4.586977884173393250e-02
-3.798924759030342102e-02
-1.638681627810001373e-02
3.683776035904884338e-02
4.099637269973754883e-02
-3.029165044426918030e-02
-4.612224176526069641e-02
1.692993752658367157e-02
2.858054079115390778e-02
2.803388424217700958e-02
2.090187929570674896e-02
-1.913793757557868958e-02
3.497572615742683411e-02
-2.780097350478172302e-02
-2.348491363227367401e-02
-1.474672928452491760e-02
-1.946417801082134247e-02
4.006012156605720520e-02
1.207339670509099960e-02
3.494844585657119751e-02
-3.280747309327125549e-02
-3.046282194554805756e-02
2.086684852838516235e-02
-1.362566463649272919e-02
-1.752731204032897949e-02
3.517872095108032227e-02
3.314530104398727417e-02
2.127404324710369110e-02
-1.149443536996841431e-02
2.327294647693634033e-02
-4.287526756525039673e-02
-4.050278663635253906e-02
-2.191855013370513916e-02
2.492191828787326813e-02
1.165055390447378159e-02
-4.351113736629486084e-02
1.274238340556621552e-02
-4.056707397103309631e-02
-3.272330015897750854e-02
-1.092723384499549866e-02
2.165432460606098175e-02
2.766787260770797729e-02
4.572128504514694214e-02
1.604281552135944366e-02
2.023131959140300751e-02
-3.234628960490226746e-02
1.897645555436611176e-02
-3.918336331844329834e-02
-9.114866144955158234e-03
-3.611247986555099487e-02
-3.882712125778198242e-02
2.238156087696552277e-02
2.717528119683265686e-02
1.829700730741024017e-02
-1.772543601691722870e-02
-1.117695402354001999e-02
2.730094455182552338e-02
3.770423308014869690e-02
1.980098523199558258e-02
-1.669172756373882294e-02
1.072460319846868515e-02
4.007400572299957275e-02
-3.103921748697757721e-02
-3.582862392067909241e-02
4.080829396843910217e-02
-1.361975632607936859e-02
-1.243812218308448792e-02
-2.719967998564243317e-02
2.745994552969932556e-02
-2.869447693228721619e-02
-2.901982702314853668e-02
1.241877209395170212e-02
2.090684324502944946e-02
-2.637498639523983002e-02
2.135810069739818573e-02
-3.354414179921150208e-02
2.377070300281047821e-02
3.909507766366004944e-02
-2.308959141373634338e-02
-1.714951545000076294e-02
-2.508977614343166351e-02
4.158729687333106995e-02
-1.568602770566940308e-02
1.499971561133861542e-02
1.305319368839263916e-02
-2.383892051875591278e-02
3.954973444342613220e-02
1.379238069057464600e-02
1.795401796698570251e-02
-1.125163957476615906e-02
-3.265822306275367737e-02
2.854474261403083801e-02
3.382347151637077332e-02
2.864608727395534515e-02
-1.201999559998512268e-02
-1.682378165423870087e-02
2.192713133990764618e-02
2.965242415666580200e-02
-3.874184563755989075e-02
-3.288688510656356812e-02
1.948049664497375488e-02
-9.584933519363403320e-03
2.073882706463336945e-02
-2.018381096422672272e-02
1.328913681209087372e-02
-3.751250728964805603e-02
-2.508281171321868896e-02
-2.395671233534812927e-02
1.335988100618124008e-02
1.896066963672637939e-02
3.589444607496261597e-02
2.523962408304214478e-02
-1.042147818952798843e-02
-4.301433637738227844e-02
2.161049470305442810e-02
3.680177778005599976e-02
-3.399821231141686440e-03
-1.584370248019695282e-02
-3.517761081457138062e-02
3.533178567886352539e-02
-1.817044615745544434e-02
-3.371699899435043335e-02
4.302062839269638062e-02
3.841134160757064819e-02
-1.092724502086639404e-02
1.613039150834083557e-02
-1.638444326817989349e-02
-1.167527493089437485e-02
-3.437522426247596741e-02
-4.593402519822120667e-02
1.636800915002822876e-02
-3.838673979043960571e-02
-3.443133085966110229e-02
-1.729384623467922211e-02
1.156834233552217484e-02
2.840725146234035492e-02
-3.940934315323829651e-02
-3.953912481665611267e-02
2.137879654765129089e-02
-3.584755212068557739e-02
-2.358909510076045990e-02
-8.656852878630161285e-03
2.822842448949813843e-02
-1.790174655616283417e-02
-1.909960061311721802e-02
4.394652321934700012e-02
-2.820799686014652252e-02
4.047829657793045044e-02
-2.401098422706127167e-02
3.676909953355789185e-02
-3.932495042681694031e-02
-4.297191649675369263e-02
2.572811767458915710e-02
-2.713491208851337433e-02
4.097035899758338928e-02
-4.397207126021385193e-02
1.887069270014762878e-02
1.439201179891824722e-02
1.091937907040119171e-02
1.564119756221771240e-02
1.998711191117763519e-02
1.809826306998729706e-02
-1.718028448522090912e-02
-4.330864548683166504e-02
4.637559503316879272e-02
-1.664917916059494019e-02
-2.799311839044094086e-02
-1.189400162547826767e-02
2.463865466415882111e-02
3.579788655042648315e-02
1.929802075028419495e-02
-2.757390588521957397e-02
1.222485117614269257e-02
2.028415538370609283e-02
-1.895547285676002502e-02
-3.962275013327598572e-02
-3.702804446220397949e-02
2.624160051345825195e-02
-4.345183819532394409e-02
-3.701458126306533813e-02
-2.002316527068614960e-02
-4.505378007888793945e-02
4.391878470778465271e-02
1.144799310714006424e-02
-2.440549619495868683e-02
-1.650795154273509979e-02
-3.963374346494674683e-02
-3.431867808103561401e-02
1.684306748211383820e-02
-1.144000515341758728e-02
-2.284383215010166168e-02
-4.266843572258949280e-02
-4.621366411447525024e-02
4.280791804194450378e-02
1.715651340782642365e-02
-2.789817936718463898e-02
1.510544214397668839e-02
-2.092560566961765289e-02
-1.116696558892726898e-02
-3.737809881567955017e-02
2.538963779807090759e-02
-3.669214993715286255e-02
2.068685740232467651e-02
-1.876103691756725311e-02
-2.969437837600708008e-02
2.421736344695091248e-02
3.022151440382003784e-02
1.893253251910209656e-02
4.411698505282402039e-02
2.013996243476867676e-02
-1.602277904748916626e-02
-3.298904374241828918e-02
-2.096863836050033569e-02
3.811149299144744873e-02
2.762614376842975616e-02
1.074954308569431305e-02
-3.628406301140785217e-02
-4.509795457124710083e-02
2.929725870490074158e-02
-4.617536067962646484e-02
-4.415721073746681213e-02
2.546215802431106567e-02
3.974497690796852112e-02
-1.731301285326480865e-02
-3.996734693646430969e-02
-2.085810713469982147e-02
2.606165222823619843e-02
3.175387904047966003e-02
1.114402804523706436e-02
2.757521532475948334e-02
1.816166006028652191e-02
-4.405275732278823853e-02
4.543693736195564270e-02
-1.607140898704528809e-02
1.028311345726251602e-02
-4.202479124069213867e-02
1.462822966277599335e-02
-4.613020271062850952e-02
-3.608926385641098022e-02
2.104566246271133423e-02
4.105378314852714539e-02
2.253601513803005219e-02
2.350072748959064484e-02
2.073282003402709961e-02
2.340986952185630798e-02
-1.966830715537071228e-02
-3.106307797133922577e-02
9.360969066619873047e-03
1.005425862967967987e-02
-2.310174703598022461e-02
2.756596915423870087e-02
3.439761325716972351e-02
3.659205138683319092e-02
2.443365193903446198e-02
3.529555723071098328e-02
2.615286596119403839e-02
-2.997263707220554352e-02
-2.778474055230617523e-02
1.613722927868366241e-02
-1.483966689556837082e-02
-3.084418550133705139e-02
3.407664597034454346e-02
-4.110606014728546143e-02
-1.180421002209186554e-02
1.510402094572782516e-02
-9.609632194042205811e-03
3.435695171356201172e-02
1.311410777270793915e-02
-1.069207023829221725e-02
-1.720271259546279907e-02
1.900930143892765045e-02
2.090259082615375519e-02
2.192162163555622101e-02
-3.469856455922126770e-02
1.596354879438877106e-02
-4.371093213558197021e-02
4.009522497653961182e-02
4.089484736323356628e-02
3.202673792839050293e-02
1.798157021403312683e-02
1.951116696000099182e-02
-1.286047697067260742e-02
3.012519702315330505e-02
1.144743338227272034e-02
2.578521147370338440e-02
-1.102522201836109161e-02
-2.194296941161155701e-02
4.465349763631820679e-02
2.785324677824974060e-02
-4.020334780216217041e-02
2.162719331681728363e-02
2.119951881468296051e-02
-4.107577353715896606e-02
-3.611252084374427795e-02
-3.123093023896217346e-02
4.258593171834945679e-02
3.323676437139511108e-02
1.447170600295066833e-02
2.063024416565895081e-02
-2.654952183365821838e-02
-1.912386156618595123e-02
-2.189321629703044891e-02
3.124659694731235504e-02
-3.981180861592292786e-02
2.478533983230590820e-02
1.160387787967920303e-02
-4.626867920160293579e-02
3.807935118675231934e-02
-2.356477081775665283e-02
3.366011008620262146e-02
1.359585206955671310e-02
3.556360676884651184e-02
1.854342035949230194e-02
2.223475463688373566e-02
-3.356022387742996216e-02
3.308549895882606506e-02
-1.440397929400205612e-02
3.914086520671844482e-02
-4.390855133533477783e-02
3.259535133838653564e-02
9.201985783874988556e-03
3.299533575773239136e-02
4.231482371687889099e-02
-1.743844710290431976e-02
-3.512671589851379395e-02
4.548896849155426025e-02
-4.262229800224304199e-02
-1.739140972495079041e-02
3.596771880984306335e-02
3.252549469470977783e-02
-3.653361648321151733e-02
2.852584607899188995e-02
2.178811840713024139e-02
-3.449895232915878296e-02
2.992204576730728149e-02
-3.800187259912490845e-02
-2.769517153501510620e-02
-4.007688164710998535e-02
3.122495301067829132e-02
-2.774478308856487274e-02
-1.704012230038642883e-02
1.936938241124153137e-02
4.347738623619079590e-02
-3.715881705284118652e-02
-2.288351953029632568e-02
3.793003037571907043e-02
-3.584291785955429077e-02
-1.458190288394689560e-02
3.218150511384010315e-02
-3.353715315461158752e-02
4.454888775944709778e-02
-1.167101971805095673e-02
4.516938701272010803e-02
1.244943216443061829e-02
-3.678371384739875793e-02
-1.533384434878826141e-02
3.013881482183933258e-02
-1.183511596173048019e-02
1.967746205627918243e-02
2.865012921392917633e-02
3.843761608004570007e-02
1.753223687410354614e-02
-1.996222697198390961e-02
1.241024304181337357e-02
-1.751645654439926147e-02
1.459955610334873199e-02
-1.470115780830383301e-02
-1.506156101822853088e-02
3.667676821351051331e-02
4.088682308793067932e-02
3.320026025176048279e-02
3.235524520277976990e-02
-1.505448296666145325e-02
3.737527877092361450e-02
4.095605015754699707e-02
-4.414817690849304199e-02
9.750111959874629974e-03
-2.021469734609127045e-02
-1.185715757310390472e-02
9.140246547758579254e-03
2.413285709917545319e-02
-1.206010673195123672e-02
-2.565950155258178711e-02
3.205156326293945312e-02
4.643940553069114685e-02
-3.022511303424835205e-02
-3.070821426808834076e-02
3.566003590822219849e-02
-2.829301357269287109e-02
-2.540899254381656647e-02
3.675517439842224121e-02
3.550265356898307800e-02
-1.744993403553962708e-02
-2.038458175957202911e-02
3.716064617037773132e-02
-1.600749604403972626e-02
-2.678843028843402863e-02
1.209762319922447205e-02
4.197616875171661377e-02
-4.347781836986541748e-02
1.240725535899400711e-02
2.446167916059494019e-02
4.117334634065628052e-02
3.484777733683586121e-02
3.884027153253555298e-02
-1.340815983712673187e-02
-2.020621299743652344e-02
-4.352952167391777039e-02
1.609401218593120575e-02
-1.747155189514160156e-02
-2.742836438119411469e-02
-2.801144123077392578e-02
3.474916890263557434e-02
-2.874842658638954163e-02
7.798479404300451279e-03
1.309818588197231293e-02
-4.421796649694442749e-02
2.803894132375717163e-02
1.180114876478910446e-02
-3.365951776504516602e-02
-4.010543599724769592e-02
-1.112562511116266251e-02
-3.394205868244171143e-02
4.213698580861091614e-02
1.126674097031354904e-02
3.888738900423049927e-02
-3.977195918560028076e-02
3.694143891334533691e-02
1.160477381199598312e-02
1.433710474520921707e-02
-4.227254539728164673e-02
-1.502215210348367691e-02
-1.729286275804042816e-02
3.007572330534458160e-02
1.677824370563030243e-02
2.195261046290397644e-02
1.955028995871543884e-02
3.724174201488494873e-02
3.139738738536834717e-02
2.923301979899406433e-02
-3.027112782001495361e-02
2.389660663902759552e-02
-3.926302120089530945e-02
-2.585441805422306061e-02
4.302648827433586121e-02
1.035208441317081451e-02
1.687988825142383575e-02
1.937723718583583832e-02
1.394604332745075226e-02
-1.899013295769691467e-02
3.744092956185340881e-02
2.845766209065914154e-02
-3.138944134116172791e-02
-3.129480034112930298e-02
4.633356258273124695e-02
-1.968497410416603088e-02
3.700838238000869751e-02
-1.148865465074777603e-02
1.051886100322008133e-02
2.272919565439224243e-02
3.981279209256172180e-02
3.195958212018013000e-02
-4.632745683193206787e-02
3.326197713613510132e-02
3.257413208484649658e-02
2.761818468570709229e-02
-1.712326332926750183e-02
3.390432521700859070e-02
-2.083383873105049133e-02
4.036505520343780518e-02
3.416358307003974915e-02
3.367681801319122314e-02
2.457663975656032562e-02
-3.467362001538276672e-02
7.775090634822845459e-03
-1.595680415630340576e-02
2.990208193659782410e-02
-2.796043083071708679e-02
3.137577325105667114e-02
4.163195937871932983e-02
2.574762515723705292e-02
-4.683583974838256836e-02
2.115477062761783600e-02
-1.144615095108747482e-02
-1.570429094135761261e-02
4.006465151906013489e-02
1.209688931703567505e-02
-1.125547848641872406e-02
-2.754559181630611420e-02
-1.903988048434257507e-02
2.039345540106296539e-02
-2.327992580831050873e-02
2.352479472756385803e-02
-1.902748458087444305e-02
-1.089152973145246506e-02
-1.399910356849431992e-02
1.128314994275569916e-02
-1.298146508634090424e-02
-4.108323901891708374e-02
3.919405490159988403e-02
4.339204728603363037e-02
-1.214275229722261429e-02
1.221215073019266129e-02
-3.933713957667350769e-02
-1.873803511261940002e-02
4.238347336649894714e-02
2.125673368573188782e-02
3.744822740554809570e-02
-2.595425769686698914e-02
3.293542936444282532e-02
1.266122609376907349e-02
-2.578989230096340179e-02
3.180780634284019470e-02
3.631065040826797485e-02
1.144494116306304932e-02
3.159546852111816406e-02
3.059312142431735992e-02
3.563780710101127625e-02
1.602877490222454071e-02
-1.882907375693321228e-02
3.362723067402839661e-02
-2.418482676148414612e-02
2.467523142695426941e-02
3.403564915060997009e-02
4.351711645722389221e-02
-2.173967845737934113e-02
4.015948995947837830e-02
3.823534026741981506e-02
1.564637199044227600e-02
-1.062779407948255539e-02
-3.303612023591995239e-02
-1.801156066358089447e-02
-1.463368628174066544e-02
-1.132394187152385712e-02
3.236302360892295837e-02
1.721463911235332489e-02
3.756150975823402405e-02
-1.762840710580348969e-02
-3.021495230495929718e-02
-3.634090721607208252e-02
1.936206780374050140e-02
4.415016248822212219e-02
-2.672971226274967194e-02
-4.197263345122337341e-02
-4.569241032004356384e-02
2.732834033668041229e-02
-3.139876946806907654e-02
-1.931650936603546143e-02
-4.535906761884689331e-02
-1.831132732331752777e-02
-3.915699943900108337e-02
2.732866257429122925e-02
3.428258374333381653e-02
3.388887643814086914e-02
1.474467758089303970e-02
-4.415542632341384888e-02
-3.515678644180297852e-02
9.852613322436809540e-03
-1.451399922370910645e-02
1.107074320316314697e-02
2.556795813143253326e-02
4.521491006016731262e-02
-3.324555605649948120e-02
-2.830275706946849823e-02
3.687918558716773987e-02
-1.738724485039710999e-02
-3.282996267080307007e-02
3.373344615101814270e-02
1.085634529590606689e-02
3.696145862340927124e-02
3.321991488337516785e-02
1.663116179406642914e-02
-1.765089295804500580e-02
2.522328495979309082e-02
-4.134454950690269470e-02
-1.266357302665710449e-02
3.574498370289802551e-02
2.857202850282192230e-02
1.072810776531696320e-02
-2.190373837947845459e-02
1.095434091985225677e-02
3.744654357433319092e-02
2.628986909985542297e-02
2.932570502161979675e-02
2.961293980479240417e-02
4.165857285261154175e-02
-1.261718571186065674e-02
-4.138655960559844971e-02
-2.043010666966438293e-02
2.141541242599487305e-02
3.625122830271720886e-02
-3.366896882653236389e-02
-4.261812567710876465e-02
-4.134669527411460876e-02
3.196279704570770264e-02
2.355705015361309052e-02
4.261779040098190308e-02
-3.452241048216819763e-02
-1.474118512123823166e-02
4.388513788580894470e-02
-1.383125688880681992e-02
2.573651075363159180e-02
-1.083585806190967560e-02
4.484538733959197998e-02
4.043999686837196350e-02
2.279381453990936279e-02
-1.386972144246101379e-02
-2.023084647953510284e-02
4.481433331966400146e-02
-1.826584525406360626e-02
3.335934877395629883e-02
3.312853723764419556e-02
-4.497228935360908508e-02
4.128521680831909180e-02
-2.344456687569618225e-02
3.273673355579376221e-02
-2.847136184573173523e-02
8.853503502905368805e-03
-3.318800404667854309e-02
-2.749119326472282410e-02
1.372882351279258728e-02
-1.551029458642005920e-02
-8.821464143693447113e-03
-3.830811008810997009e-02
-2.499379962682723999e-02
3.635254129767417908e-02
2.017448656260967255e-02
-1.594039797782897949e-02
2.407514676451683044e-02
-3.895844519138336182e-02
-2.928191795945167542e-02
1.732172630727291107e-02
3.971589729189872742e-02
2.440221235156059265e-02
-2.658921480178833008e-02
-1.513978373259305954e-02
3.522268682718276978e-02
3.048008866608142853e-02
1.973201520740985870e-02
3.396544605493545532e-02
-2.904536575078964233e-02
-3.297612443566322327e-02
3.316653892397880554e-02
-1.092820335179567337e-02
-3.547266125679016113e-02
2.667715772986412048e-02
-1.226110663264989853e-02
2.195959724485874176e-02
-4.166095331311225891e-02
-1.627782359719276428e-02
1.996420696377754211e-02
-3.317425772547721863e-02
-2.467207238078117371e-02
3.667015209794044495e-02
2.250140532851219177e-02
-3.554767742753028870e-02
-3.955283015966415405e-02
-2.506889775395393372e-02
4.523281008005142212e-02
-4.457478970289230347e-02
3.790531307458877563e-02
-4.008108004927635193e-02
4.162517562508583069e-02
1.750048808753490448e-02
2.161387912929058075e-02
4.067729040980339050e-02
1.913813315331935883e-02
2.165192924439907074e-02
2.078724466264247894e-02
2.094907872378826141e-02
4.141625761985778809e-02
-3.993139788508415222e-02
2.937686815857887268e-02
1.895650103688240051e-02
-1.654829829931259155e-02
-2.058773301541805267e-02
4.331695288419723511e-02
2.068597637116909027e-02
-2.942520752549171448e-02
3.113619424402713776e-02
1.868673413991928101e-02
-2.147668972611427307e-02
2.768999524414539337e-02
-4.312916845083236694e-02
2.520871907472610474e-02
3.513674065470695496e-02
-1.462823618203401566e-02
-3.563822805881500244e-02
3.236584365367889404e-02
3.786798194050788879e-02
4.442880675196647644e-02
-8.782664313912391663e-03
1.071072649210691452e-02
2.309657447040081024e-02
3.369495272636413574e-02
2.841694466769695282e-02
-2.729496546089649200e-02
1.967335864901542664e-02
-3.615633770823478699e-02
-1.631189510226249695e-02
-2.246358804404735565e-02
-3.164530545473098755e-02
1.409688405692577362e-02
1.183235365897417068e-02
2.964165434241294861e-02
-3.416309878230094910e-02
2.728049829602241516e-02
2.464927919209003448e-02
-1.842254400253295898e-02
2.874029055237770081e-02
4.075522720813751221e-02
3.272423893213272095e-02
-1.416653674095869064e-02
-2.191061899065971375e-02
2.158167958259582520e-02
-3.269007429480552673e-02
-2.789716981351375580e-02
-3.582570329308509827e-02
-4.452294111251831055e-02
-3.512997552752494812e-02
-4.108301550149917603e-02
2.859646454453468323e-02
-2.815403603017330170e-02
2.558247186243534088e-02
-1.162256486713886261e-02
-1.210065465420484543e-02
2.468377724289894104e-02
4.466053470969200134e-02
3.767588734626770020e-02
2.481815405189990997e-02
-3.570454567670822144e-02
-1.341259665787220001e-02
4.601597413420677185e-02
-1.434093993157148361e-02
-2.393965236842632294e-02
1.158308424055576324e-02
2.336398884654045105e-02
1.060398574918508530e-02
2.349781058728694916e-02
3.450142219662666321e-02
-1.109811477363109589e-02
-2.663550339639186859e-02
-1.929068379104137421e-02
-1.305615343153476715e-02
-2.053015865385532379e-02
2.671590074896812439e-02
3.903599455952644348e-02
2.155420556664466858e-02
1.714875176548957825e-02
1.229758653789758682e-02
-1.699074916541576385e-02
-4.103780910372734070e-02
2.007005736231803894e-02
-2.397779561579227448e-02
-3.480060026049613953e-02
4.541679844260215759e-02
4.172188043594360352e-02
2.149276062846183777e-02
1.187691744416952133e-02
-1.317640300840139389e-02
-1.307552028447389603e-02
3.775485232472419739e-02
3.077932260930538177e-02
-2.668362297117710114e-02
-1.245351415127515793e-02
4.061687737703323364e-02
3.634573891758918762e-02
3.485274687409400940e-02
-2.888775803148746490e-02
4.380458965897560120e-02
-2.161055989563465118e-02
-1.621290855109691620e-02
4.315144568681716919e-02
-1.179451961070299149e-02
-1.422851718962192535e-02
2.557156421244144440e-02
-2.410455979406833649e-02
-2.530079521238803864e-02
-3.434480354189872742e-02
4.428583756089210510e-02
1.352909393608570099e-02
3.319535404443740845e-02
-3.784673288464546204e-02
2.196268178522586823e-02
1.555501017719507217e-02
1.018734462559223175e-02
-3.173094615340232849e-02
4.671907424926757812e-02
-2.293610386550426483e-02
-3.233668953180313110e-02
-2.250618860125541687e-02
3.373860567808151245e-02
1.706090196967124939e-02
1.802222989499568939e-02
3.895457834005355835e-02
-3.122221864759922028e-02
-1.869982667267322540e-02
2.595778182148933411e-02
-3.579766303300857544e-02
-2.125090174376964569e-02
3.831198811531066895e-02
-4.361408576369285583e-02
1.474612206220626831e-02
2.164499834179878235e-02
-2.569443173706531525e-02
-3.558839485049247742e-02
3.573929145932197571e-02
4.584373161196708679e-02
-2.544368430972099304e-02
-3.080335631966590881e-02
4.238265007734298706e-02
-2.222702465951442719e-02
1.039436738938093185e-02
-2.899388223886489868e-02
3.684274107217788696e-02
3.903158754110336304e-02
-2.672823332250118256e-02
-3.176331892609596252e-02
4.351536929607391357e-02
3.671319410204887390e-02
-3.648758307099342346e-02
-2.707605995237827301e-02
-3.154148533940315247e-02
1.828030310571193695e-02
-4.631619900465011597e-02
3.373043984174728394e-02
2.574851922690868378e-02
2.570367231965065002e-02
4.640811681747436523e-02
3.932919353246688843e-02
2.860977314412593842e-02
-3.297584131360054016e-02
-1.434313878417015076e-02
3.263864666223526001e-02
-3.761517629027366638e-02
3.483137860894203186e-02
2.923072502017021179e-02
3.373549878597259521e-02
-1.024214178323745728e-02
-2.607571519911289215e-02
3.663837909698486328e-02
-1.568831875920295715e-02
3.570745885372161865e-02
-3.477336093783378601e-02
4.594908654689788818e-02
3.296859934926033020e-02
3.468766808509826660e-02
-3.493119403719902039e-02
2.872678264975547791e-02
1.342866010963916779e-02
3.639741614460945129e-02
-1.550638675689697266e-02
-4.427366703748703003e-02
-3.545634075999259949e-02
2.423391118645668030e-02
3.576321154832839966e-02
3.153526037931442261e-02
2.019893378019332886e-02
2.761588804423809052e-02
-1.010326948016881943e-02
-3.995604813098907471e-02
1.617150567471981049e-02
-3.469701111316680908e-02
3.346991539001464844e-02
4.543967545032501221e-02
1.195000205188989639e-02
-3.532728925347328186e-02
-2.782622165977954865e-02
3.694791346788406372e-02
-2.749313041567802429e-02
-2.546477876603603363e-02
1.740210875868797302e-02
-2.253573760390281677e-02
1.370697375386953354e-02
4.152920469641685486e-02
4.084757342934608459e-02
-4.072903841733932495e-02
-3.694949671626091003e-02
-2.993098832666873932e-02
3.827599808573722839e-02
3.029860742390155792e-02
-1.861388422548770905e-02
1.826842874288558960e-02
-2.666408568620681763e-02
-4.197023436427116394e-02
-1.280662510544061661e-02
4.455669969320297241e-02
3.541434556245803833e-02
1.217757817357778549e-02
-4.070976749062538147e-02
2.536920830607414246e-02
-4.106810688972473145e-02
1.733141578733921051e-02
4.468671604990959167e-02
-3.853197768330574036e-02
1.123167108744382858e-02
-4.545093700289726257e-02
3.513247519731521606e-02
3.258252888917922974e-02
-3.076086565852165222e-02
3.750067949295043945e-02
2.993388473987579346e-02
-1.136675290763378143e-02
-1.685270108282566071e-02
-1.341514755040407181e-02
-2.137425914406776428e-02
-3.261653706431388855e-02
-3.164268285036087036e-02
1.173617783933877945e-02
-1.639106497168540955e-02
1.557874400168657303e-02
1.915274746716022491e-02
2.379361912608146667e-02
-2.304843626916408539e-02
-1.700826734304428101e-02
-1.069071050733327866e-02
-1.413148362189531326e-02
-3.673545643687248230e-02
4.483535513281822205e-02
2.256880328059196472e-02
-3.921829536557197571e-02
3.284482657909393311e-02
1.540480274707078934e-02
-3.822867572307586670e-02
-2.275118790566921234e-02
-3.551199287176132202e-02
-4.580508917570114136e-02
-2.508901432156562805e-02
-3.420506790280342102e-02
3.335465118288993835e-02
3.030202724039554596e-02
3.459017723798751831e-02
-3.563476726412773132e-02
-2.529516071081161499e-02
3.710087761282920837e-02
2.943152189254760742e-02
-1.189831271767616272e-02
2.204901166260242462e-02
1.755796559154987335e-02
-1.927345618605613708e-02
-2.200324647128582001e-02
-1.727568916976451874e-02
-3.121527843177318573e-02
4.153157770633697510e-02
2.424214221537113190e-02
-3.467594832181930542e-02
1.352388132363557816e-02
2.212839946150779724e-02
3.788802027702331543e-02
-2.552917785942554474e-02
2.635234594345092773e-02
-2.387731708586215973e-02
-2.740972302854061127e-02
2.296863310039043427e-02
2.975767105817794800e-02
-1.529743149876594543e-02
1.570683903992176056e-02
2.464728429913520813e-02
3.257361054420471191e-02
-4.449545219540596008e-02
1.371407601982355118e-02
3.040943481028079987e-02
-3.459113463759422302e-02
2.832499332726001740e-02
-2.414553426206111908e-02
-4.460044205188751221e-02
-3.148237988352775574e-02
-2.540517598390579224e-02
-3.763009980320930481e-02
4.014976695179939270e-02
-2.451733872294425964e-02
-4.548414051532745361e-02
-4.540520533919334412e-02
9.082499891519546509e-04
-4.592265188694000244e-02
-2.188286930322647095e-02
3.939259424805641174e-02
-1.656018197536468506e-02
4.607218503952026367e-02
1.396876201033592224e-02
-2.925144508481025696e-02
-4.474770277738571167e-02
-2.370225451886653900e-02
1.366520207375288010e-02
-1.520472764968872070e-02
2.540690824389457703e-02
-4.682027548551559448e-02
-4.535644128918647766e-02
1.367604639381170273e-02
-3.806009516119956970e-02
-1.137310452759265900e-02
2.864003926515579224e-02
-3.102970495820045471e-02
4.538562148809432983e-02
1.449399627745151520e-02
-4.077826812863349915e-02
7.981269620358943939e-03
4.047603905200958252e-02
-3.859341889619827271e-02
-1.741451583802700043e-02
2.632959373295307159e-02
-2.508692443370819092e-02
1.861186325550079346e-02
1.688581518828868866e-02
-3.621600940823554993e-02
1.150245498865842819e-02
-2.084734104573726654e-02
-3.445295989513397217e-02
2.986926026642322540e-02
-1.193541195243597031e-02
4.658884555101394653e-02
-4.064305126667022705e-02
2.768168784677982330e-02
3.796648979187011719e-02
3.620214015245437622e-02
1.431404147297143936e-02
3.987982124090194702e-02
3.430373221635818481e-02
1.973009482026100159e-02
-3.421742469072341919e-02
-4.647409170866012573e-02
-1.890440471470355988e-02
1.673046126961708069e-02
1.130113564431667328e-02
3.859275206923484802e-02
1.840591803193092346e-02
-3.105446696281433105e-02
-3.678928315639495850e-02
4.671351239085197449e-02
-3.657448291778564453e-02
-2.074992097914218903e-02
-2.254765294492244720e-02
1.319485809653997421e-02
-4.572958499193191528e-02
-3.508548438549041748e-02
-1.521055400371551514e-02
-3.109812736511230469e-02
-3.116171061992645264e-02
4.508713260293006897e-02
2.456324733793735504e-02
-2.108313143253326416e-02
-1.989744976162910461e-02
2.089093253016471863e-02
-3.183199465274810791e-02
1.844153925776481628e-02
3.088204003870487213e-02
3.061403892934322357e-02
-3.257532417774200439e-02
2.653751708567142487e-02
-2.421875484287738800e-02
-1.605720818042755127e-02
1.094388030469417572e-02
3.366803377866744995e-02
3.410806134343147278e-02
-1.959771104156970978e-02
2.872816286981105804e-02
2.734695561230182648e-02
-1.874767988920211792e-02
2.167946472764015198e-02
4.677788913249969482e-02
-2.732548862695693970e-02
-4.465411603450775146e-02
3.587420284748077393e-02
-2.252643182873725891e-02
-3.091676533222198486e-02
2.161241695284843445e-02
2.058801986277103424e-02
1.408612169325351715e-02
2.692192047834396362e-02
4.062093049287796021e-02
-3.917468711733818054e-02
-3.548587113618850708e-02
-1.293142791837453842e-02
-2.725458331406116486e-02
3.155434876680374146e-02
-4.409783333539962769e-02
-9.968763217329978943e-03
4.011871293187141418e-02
3.172964975237846375e-02
1.987095922231674194e-02
2.314195595681667328e-02
-1.654073223471641541e-02
1.070163026452064514e-02
-3.671185299754142761e-02
-3.346184641122817993e-02
2.164170145988464355e-02
2.851944416761398315e-02
-2.984601259231567383e-02
3.177700564265251160e-02
2.906228788197040558e-02
4.121090099215507507e-02
-4.393531382083892822e-02
-1.150519866496324539e-02
2.242147922515869141e-02
2.512576989829540253e-02
1.155872363597154617e-02
-2.699582278728485107e-02
4.003860801458358765e-02
-3.534204140305519104e-02
3.120213188230991364e-02
1.231612451374530792e-02
-2.577240392565727234e-02
-3.457898274064064026e-02
-3.815707936882972717e-02
-1.902317628264427185e-02
4.550129547715187073e-02
-3.914971649646759033e-02
3.294160962104797363e-02
-4.159180074930191040e-02
-2.440717816352844238e-02
2.505788765847682953e-02
-4.607687518000602722e-02
2.661473676562309265e-02
2.384573034942150116e-02
-1.746735349297523499e-02
-2.554025501012802124e-02
1.379461213946342468e-02
1.861672103404998779e-02
-3.929077833890914917e-02
3.286259248852729797e-02
-3.228120878338813782e-02
4.189256206154823303e-02
1.601673476397991180e-02
-2.700557745993137360e-02
-3.994042798876762390e-02
1.986204832792282104e-02
-4.192601516842842102e-02
-4.030932486057281494e-02
-1.256906334310770035e-02
2.168794348835945129e-02
3.721633180975914001e-02
-2.824191004037857056e-02
-2.196755446493625641e-02
2.117617428302764893e-02
-1.568764448165893555e-02
3.257252648472785950e-02
-4.116139188408851624e-02
2.472082339227199554e-02
2.906658127903938293e-02
-4.029974341392517090e-02
1.289025228470563889e-02
1.489416975528001785e-02
3.432451561093330383e-02
-3.355298936367034912e-02
-3.123090788722038269e-02
-1.640592701733112335e-02
-3.438160195946693420e-02
-1.079032383859157562e-02
1.431246660649776459e-02
1.196316722780466080e-02
1.736198738217353821e-02
-1.331175863742828369e-02
-4.456521943211555481e-02
-1.147080864757299423e-02
3.006943874061107635e-02
8.753135800361633301e-03
2.257557399570941925e-02
-3.699053823947906494e-02
3.118925169110298157e-02
-2.361642941832542419e-02
-2.269435487687587738e-02
3.556310012936592102e-02
3.631672263145446777e-02
3.297440335154533386e-02
4.086589813232421875e-02
2.236051857471466064e-02
1.249678339809179306e-02
-1.546360738575458527e-02
-1.550397928804159164e-02
3.091434948146343231e-02
4.406911507248878479e-02
3.024178743362426758e-02
1.671816222369670868e-02
3.302656859159469604e-02
4.228749871253967285e-02
1.090017240494489670e-02
3.806983679533004761e-02
-1.774466969072818756e-02
-3.780806064605712891e-02
9.738242253661155701e-03
-2.320863679051399231e-02
-3.541846573352813721e-02
-1.266112271696329117e-02
-2.587767317891120911e-02
-2.403884008526802063e-02
2.087290771305561066e-02
2.479664236307144165e-02
1.616510376334190369e-02
-1.054839696735143661e-02
-2.019198238849639893e-02
3.118660673499107361e-02
3.612066060304641724e-02
-2.100039459764957428e-02
1.093939319252967834e-02
-3.344025835394859314e-02
4.103095084428787231e-02
2.247801981866359711e-02
2.171081863343715668e-02
2.876591868698596954e-02
2.720133028924465179e-02
2.751780673861503601e-02
-2.616202272474765778e-02
8.914820849895477295e-03
2.257872000336647034e-02
3.630430996417999268e-02
2.226636558771133423e-02
-3.286596387624740601e-02
1.464856695383787155e-02
-3.082699701189994812e-02
3.973700106143951416e-02
-1.490899827331304550e-02
4.517370089888572693e-02
3.355968743562698364e-02
1.789636537432670593e-02
2.961712703108787537e-02
-2.819678373634815216e-02
1.324138138443231583e-02
1.308182068169116974e-02
1.417769957333803177e-02
2.149026282131671906e-02
-2.792990766465663910e-02
-9.514762088656425476e-03
4.225720092654228210e-02
-3.718603774905204773e-02
-2.040970697999000549e-02
2.543568238615989685e-02
-4.017541185021400452e-02
-3.255295008420944214e-02
-3.251460939645767212e-02
2.376008406281471252e-02
-3.978807106614112854e-02
-2.734448015689849854e-02
1.324286591261625290e-02
-1.906694471836090088e-02
-2.564665488898754120e-02
1.588664762675762177e-02
3.477386012673377991e-02
-1.465629320591688156e-02
4.485806450247764587e-02
1.735991612076759338e-02
3.618378564715385437e-02
1.268279366195201874e-02
-2.975417114794254303e-02
-4.110085964202880859e-02
2.431107312440872192e-02
1.643422804772853851e-02
-3.987499326467514038e-02
-2.757736481726169586e-02
-2.618195861577987671e-02
-4.572651535272598267e-02
-1.241137925535440445e-02
-1.754186488687992096e-02
-1.293385960161685944e-02
3.575659170746803284e-02
1.536129042506217957e-02
3.075195103883743286e-02
3.518940135836601257e-02
-2.148289605975151062e-02
2.637364529073238373e-02
-3.567283600568771362e-02
-3.653293102979660034e-02
2.230453118681907654e-02
-2.162003517150878906e-02
1.310367137193679810e-02
4.223496466875076294e-02
3.715343028306961060e-02
-3.170508891344070435e-02
1.401629857718944550e-02
-1.865367218852043152e-02
-3.393166512250900269e-02
-4.486243054270744324e-02
-1.334613375365734100e-02
3.932351991534233093e-02
1.474844850599765778e-02
-4.074950516223907471e-02
-4.162411764264106750e-02
-1.503884512931108475e-02
4.758220538496971130e-02
3.432536870241165161e-02
-3.723664209246635437e-02
-3.607990592718124390e-02
-3.423900902271270752e-02
-3.664566949009895325e-02
1.105950493365526199e-02
-2.507680840790271759e-02
4.286003112792968750e-02
2.151466719806194305e-02
-2.824041247367858887e-02
3.259158879518508911e-02
-1.821720786392688751e-02
-1.951605454087257385e-02
-3.654394671320915222e-02
-1.200043689459562302e-02
1.139060221612453461e-02
1.053126808255910873e-02
1.198744401335716248e-02
3.213319554924964905e-02
-4.292554408311843872e-02
2.152613736689090729e-02
-3.949945792555809021e-02
-4.650821909308433533e-02
1.582795567810535431e-02
4.522498324513435364e-02
-2.521121129393577576e-02
1.119801867753267288e-02
-2.186096087098121643e-02
2.138793654739856720e-02
-3.056102618575096130e-02
-1.759252324700355530e-02
-1.114589627832174301e-02
-3.483749926090240479e-02
2.063587494194507599e-02
-2.225212939083576202e-02
3.658535704016685486e-02
1.646572723984718323e-02
4.047686979174613953e-02
-2.729813940823078156e-02
2.184677682816982269e-02
-4.533507302403450012e-02
2.692171186208724976e-02
3.331290557980537415e-02
3.503580763936042786e-02
1.823340170085430145e-02
-4.218248650431632996e-02
3.897982463240623474e-02
-4.275446012616157532e-02
-3.733214735984802246e-02
-4.113412275910377502e-02
-3.089474327862262726e-02
1.617357507348060608e-02
2.236247621476650238e-02
2.291543781757354736e-02
-1.823570020496845245e-02
-2.188629284501075745e-02
-1.269871834665536880e-02
-2.921053767204284668e-02
-4.036564379930496216e-02
-2.698727697134017944e-02
-3.417879343032836914e-02
-2.777476236224174500e-02
1.558863371610641479e-02
-1.140290219336748123e-02
2.164373360574245453e-02
4.255246743559837341e-02
3.714557737112045288e-02
-3.478929400444030762e-02
2.949215844273567200e-02
3.469108417630195618e-02
-1.774404011666774750e-02
1.621918007731437683e-02
1.678716391324996948e-02
1.352877356112003326e-02
1.271874643862247467e-02
-4.660104960203170776e-02
-2.324722893536090851e-02
-2.754840999841690063e-02
2.975781448185443878e-02
2.460538409650325775e-02
3.343635424971580505e-02
2.605915255844593048e-02
1.898217387497425079e-02
4.232095927000045776e-02
-3.410848975181579590e-02
-3.739693388342857361e-02
3.052299842238426208e-02
2.177352085709571838e-02
-2.032897807657718658e-02
4.379127547144889832e-02
4.022366926074028015e-02
-1.601643115282058716e-02
2.287700586020946503e-02
1.973966136574745178e-02
-4.500299319624900818e-02
1.311070844531059265e-02
2.784526720643043518e-02
2.664533071219921112e-02
3.291592746973037720e-02
-3.326189145445823669e-02
-2.679801546037197113e-02
-3.559358045458793640e-02
-1.458117738366127014e-02
-4.108503833413124084e-02
1.858960464596748352e-02
-1.963481120765209198e-02
-3.296669945120811462e-02
-1.828984543681144714e-02
3.084805607795715332e-02
-2.696062624454498291e-02
-2.606566250324249268e-02
1.271419133991003036e-02
-1.098061446100473404e-02
-3.845811635255813599e-02
1.603422500193119049e-02
-3.421391919255256653e-02
1.831110194325447083e-02
-3.015228733420372009e-02
-3.882727026939392090e-02
-2.693337388336658478e-02
-4.424637183547019958e-02
4.134765639901161194e-02
-2.966582216322422028e-02
3.617701306939125061e-02
2.292651310563087463e-02
-1.513925474137067795e-02
-3.755004331469535828e-02
1.593210548162460327e-02
-2.855218574404716492e-02
2.823040634393692017e-02
2.419634163379669189e-02
2.703751809895038605e-02
4.220059514045715332e-02
2.089371345937252045e-02
2.516620047390460968e-02
3.644338250160217285e-02
-2.483952231705188751e-02
1.033212244510650635e-02
-2.078090980648994446e-02
-3.073135577142238617e-02
-2.966627106070518494e-02
4.514351114630699158e-02
1.834611035883426666e-02
2.542973682284355164e-02
3.918097168207168579e-02
-1.236794330179691315e-02
2.021112851798534393e-02
-1.849380508065223694e-02
1.206583622843027115e-02
2.740033157169818878e-02
-1.788052171468734741e-02
4.281910136342048645e-02
3.546744585037231445e-02
3.136711567640304565e-02
3.901619836688041687e-02
-3.593108057975769043e-02
-4.579893127083778381e-02
-3.264642879366874695e-02
2.208109758794307709e-02
-2.581702172756195068e-02
-1.136912032961845398e-02
-3.650624677538871765e-02
3.765548020601272583e-02
-2.266097255051136017e-02
1.762572489678859711e-02
3.859479352831840515e-02
-2.051712200045585632e-02
-4.389739409089088440e-02
4.582472145557403564e-02
-2.154954150319099426e-02
3.966898098587989807e-02
-3.688606992363929749e-02
-2.338634431362152100e-02
-4.616568610072135925e-02
1.167930290102958679e-02
3.009045869112014771e-02
-2.772113680839538574e-02
-2.330471016466617584e-02
-1.172227691859006882e-02
3.953020647168159485e-02
-1.198508311063051224e-02
-1.502462662756443024e-02
2.705197967588901520e-02
-3.515247628092765808e-02
1.033360138535499573e-02
9.985068812966346741e-03
2.923969924449920654e-02
-1.224195118993520737e-02
-4.450054466724395752e-02
1.474403031170368195e-02
3.940488770604133606e-02
-3.703882172703742981e-02
4.414715617895126343e-02
2.441188693046569824e-02
2.727601863443851471e-02
3.010934591293334961e-02
4.528573527932167053e-02
1.294341683387756348e-02
-1.504707336425781250e-02
-2.496520802378654480e-02
4.225202277302742004e-02
3.810962289571762085e-02
-3.611596301198005676e-02
-3.222230821847915649e-02
-2.298018522560596466e-02
-9.780036285519599915e-03
1.796155422925949097e-02
4.268484190106391907e-02
-1.368804462254047394e-02
-1.757469773292541504e-02
3.643528744578361511e-02
3.094654530286788940e-02
2.405532635748386383e-02
-1.691097021102905273e-02
4.556545987725257874e-02
-2.076560631394386292e-02
3.633642569184303284e-02
-3.322962671518325806e-02
1.700463704764842987e-02
-1.079778093844652176e-02
2.611433155834674835e-02
-1.983785815536975861e-02
-1.041860040277242661e-02
-4.050800576806068420e-02
-2.904515340924263000e-02
2.580435946583747864e-02
-1.293122395873069763e-02
3.521374613046646118e-02
3.252160921692848206e-02
-1.495807059109210968e-02
3.712395951151847839e-02
-1.888030953705310822e-02
-3.948070108890533447e-02
-3.913138061761856079e-02
1.216321811079978943e-02
-1.320298574864864349e-02
4.385065659880638123e-02
1.326559297740459442e-02
1.230836659669876099e-02
-1.636184751987457275e-02
-2.037724480032920837e-02
-3.037253580987453461e-02
4.185153916478157043e-02
2.126057073473930359e-02
-1.626688987016677856e-02
1.449858956038951874e-02
2.847806364297866821e-02
2.476918138563632965e-02
-3.408921882510185242e-02
3.840496391057968140e-02
-4.260858148336410522e-02
-1.693443022668361664e-02
2.685220353305339813e-02
-4.094304889440536499e-02
1.165836863219738007e-02
4.412838071584701538e-02
1.828606054186820984e-02
-1.196075323969125748e-02
2.258090302348136902e-02
2.602396532893180847e-02
-4.321374744176864624e-02
3.899120539426803589e-02
2.280545607209205627e-02
1.939690485596656799e-02
-3.817536309361457825e-02
-1.324533578008413315e-02
-2.098025381565093994e-02
3.190383687615394592e-02
-4.180102422833442688e-02
-3.880299627780914307e-02
3.694771230220794678e-02
-1.004925370216369629e-02
4.530200734734535217e-02
1.835728064179420471e-02
-3.311091288924217224e-02
1.190263684839010239e-02
-1.679354161024093628e-02
2.857989072799682617e-02
-1.463748607784509659e-02
-1.539103779941797256e-02
2.516138926148414612e-02
1.267028506845235825e-02
4.006694257259368896e-02
-1.769181154668331146e-02
-2.341366745531558990e-02
-2.129813469946384430e-02
2.541479282081127167e-02
1.627011783421039581e-02
3.870836645364761353e-02
-1.104597467929124832e-02
-3.570874780416488647e-02
-2.481978386640548706e-02
-3.161215782165527344e-02
-3.327728807926177979e-02
4.578397795557975769e-02
2.520654536783695221e-02
-2.564184926450252533e-02
-1.415736600756645203e-02
2.268742583692073822e-02
2.808131650090217590e-02
-2.264265343546867371e-02
-1.580612920224666595e-02
1.230587996542453766e-02
-3.931381553411483765e-02
-4.572300985455513000e-02
2.533458918333053589e-02
-1.613058336079120636e-02
-2.293282188475131989e-02
4.572272300720214844e-02
2.054030820727348328e-02
-3.674026578664779663e-02
-4.036353901028633118e-02
2.509700320661067963e-02
-2.886238507926464081e-02
-2.468155510723590851e-02
1.105172932147979736e-02
-4.564893245697021484e-02
3.540776297450065613e-02
-3.413487970829010010e-02
2.013668417930603027e-02
-2.610418200492858887e-02
2.720739319920539856e-02
-3.909339383244514465e-02
1.380697079002857208e-02
3.623900935053825378e-02
-4.396508634090423584e-02
-4.352447390556335449e-02
1.094632223248481750e-02
-3.604321926832199097e-02
2.703358046710491180e-02
-1.782958582043647766e-02
-1.207337155938148499e-02
2.350781671702861786e-02
-2.173612266778945923e-02
-4.579858854413032532e-02
-2.828446030616760254e-02
3.555562719702720642e-02
-3.399440273642539978e-02
4.084362462162971497e-02
-4.550953581929206848e-02
3.009489364922046661e-02
-2.454261854290962219e-02
-1.182650215923786163e-02
-2.096688747406005859e-02
3.830203041434288025e-02
-3.991606086492538452e-02
4.461704194545745850e-02
2.369902841746807098e-02
4.225057736039161682e-02
3.640278428792953491e-02
-3.661213070154190063e-02
4.470118880271911621e-02
-8.036885410547256470e-03
3.055392950773239136e-02
2.586594969034194946e-02
-2.436755411326885223e-02
-2.279116958379745483e-02
-1.588275283575057983e-02
-3.183054178953170776e-02
2.431094460189342499e-02
-1.739623770117759705e-02
-3.267102316021919250e-02
-1.440667361021041870e-02
4.426291584968566895e-02
-2.517050877213478088e-02
-2.432745136320590973e-02
2.486165799200534821e-02
-2.100761421024799347e-02
2.671084366738796234e-02
2.622917294502258301e-02
3.353296592831611633e-02
-3.997788205742835999e-02
4.458270221948623657e-02
2.216325141489505768e-02
-4.599106311798095703e-02
3.787887096405029297e-02
-2.506792172789573669e-02
4.460871592164039612e-02
-1.655372418463230133e-02
1.262580137699842453e-02
1.050156820565462112e-02
2.745415270328521729e-02
1.568725332617759705e-02
-2.606751210987567902e-02
-3.256547078490257263e-02
2.520382404327392578e-02
3.630023449659347534e-02
-2.430253848433494568e-02
-3.768374025821685791e-02
3.118063695728778839e-02
1.437825057655572891e-02
-1.170497480779886246e-02
2.858745120465755463e-02
-4.466900601983070374e-02
4.550852254033088684e-02
-1.584220863878726959e-02
-3.833071514964103699e-02
-1.514694280922412872e-02
4.014869034290313721e-02
-2.876323647797107697e-02
1.985790207982063293e-02
3.777686506509780884e-02
-1.545766647905111313e-02
3.400439023971557617e-02
-1.471709646284580231e-02
2.264950424432754517e-02
-1.801740005612373352e-02
3.891072049736976624e-02
4.060063138604164124e-02
-3.840534389019012451e-02
-1.008532568812370300e-02
4.199948906898498535e-02
3.672294691205024719e-02
4.187399521470069885e-02
-2.231585606932640076e-02
2.816110290586948395e-02
-1.318747363984584808e-02
1.640643551945686340e-02
3.330355882644653320e-02
3.404258936643600464e-02
-2.691307477653026581e-02
2.545088715851306915e-02
3.629404678940773010e-02
-1.957391016185283661e-02
2.693764306604862213e-02
-9.132663719356060028e-03
3.297142311930656433e-02
2.350710891187191010e-02
1.363140158355236053e-02
4.191200062632560730e-02
-3.894136101007461548e-02
3.505647182464599609e-02
-4.213761538267135620e-02
-3.336183354258537292e-02
-2.307212911546230316e-02
2.775080129504203796e-02
2.195888943970203400e-02
3.779647499322891235e-02
-1.936247572302818298e-02
-2.088879793882369995e-02
4.020693525671958923e-02
-2.294244989752769470e-02
-1.995124109089374542e-02
-1.332489494234323502e-02
3.559404984116554260e-02
-1.857898756861686707e-02
4.456821084022521973e-02
-3.895160555839538574e-02
2.895719371736049652e-02
4.020630195736885071e-02
4.305234923958778381e-02
-3.749312832951545715e-02
1.797804795205593109e-02
4.292028769850730896e-02
-9.908003732562065125e-03
2.454057335853576660e-02
-3.694500029087066650e-02
3.353427723050117493e-02
2.777071669697761536e-02
-1.239336095750331879e-02
2.266968041658401489e-02
1.195229589939117432e-02
-3.955175355076789856e-02
1.793682388961315155e-02
4.101415723562240601e-02
-3.871544077992439270e-02
-4.032949358224868774e-02
4.574329033493995667e-02
1.296145841479301453e-02
-1.718662679195404053e-02
4.278468340635299683e-02
-4.073431342840194702e-02
-1.967546157538890839e-02
4.228244721889495850e-02
-4.005130380392074585e-02
-4.106777533888816833e-02
-2.143707498908042908e-02
3.019785694777965546e-02
1.272738073021173477e-02
-2.200036495923995972e-02
-4.015868157148361206e-02
-1.671211607754230499e-02
-2.464580535888671875e-02
3.491359949111938477e-02
-4.195656627416610718e-02
-3.330412879586219788e-02
1.863774657249450684e-02
2.195875160396099091e-02
-3.587046638131141663e-02
-4.368308186531066895e-02
1.726434566080570221e-02
-3.684716299176216125e-02
1.200657896697521210e-02
1.421843003481626511e-02
4.144857823848724365e-02
1.968394778668880463e-02
-4.254912957549095154e-02
-1.810692064464092255e-02
1.753323897719383240e-02
4.044427722692489624e-02
-3.805081546306610107e-02
-2.996183931827545166e-02
-2.787134610116481781e-02
-3.740781918168067932e-02
-2.224825508892536163e-02
-3.700450807809829712e-02
-3.947220370173454285e-02
1.070389244705438614e-02
1.058301888406276703e-02
-1.915543153882026672e-02
-1.350889075547456741e-02
1.889699883759021759e-02
-2.935959212481975555e-02
4.411740228533744812e-02
-3.160331398248672485e-02
-3.606547415256500244e-02
2.779315039515495300e-02
-2.645822986960411072e-02
3.690836578607559204e-02
2.093371003866195679e-02
1.690528728067874908e-02
-3.799590095877647400e-02
-2.292788401246070862e-02
-6.432721856981515884e-03
2.616116963326931000e-02
3.232172876596450806e-02
-2.313246764242649078e-02
1.699816621840000153e-02
-3.031902015209197998e-02
-2.129600942134857178e-02
1.923784799873828888e-02
-4.221663996577262878e-02
-1.322400476783514023e-02
-3.884913027286529541e-02
1.794001087546348572e-02
-4.124274849891662598e-02
-3.202391788363456726e-02
3.980075940489768982e-02
1.914954744279384613e-02
3.926896676421165466e-02
1.088267751038074493e-02
2.471631951630115509e-02
-4.141063615679740906e-02
3.339323773980140686e-02
-1.194685511291027069e-02
3.324938192963600159e-02
-3.193781897425651550e-02
-2.711952663958072662e-02
-9.835660457611083984e-03
1.171310432255268097e-02
1.473475899547338486e-02
-2.314182184636592865e-02
2.756188809871673584e-02
1.949152164161205292e-02
-2.641229331493377686e-02
-2.931239828467369080e-02
-2.512351423501968384e-02
-2.791148796677589417e-02
-3.251890465617179871e-02
-3.635036572813987732e-02
-4.352387040853500366e-02
-3.522158414125442505e-02
-2.357839792966842651e-02
3.200009092688560486e-02
2.356744930148124695e-02
-3.139624744653701782e-02
2.200780808925628662e-02
4.446687549352645874e-02
-1.541092898696660995e-02
3.421120718121528625e-02
-1.429239381104707718e-02
2.024772763252258301e-02
3.512506186962127686e-02
1.468802988529205322e-02
-2.376249805092811584e-02
1.777255162596702576e-02
4.670904949307441711e-02
-3.878966346383094788e-02
-1.123603712767362595e-02
-1.755424216389656067e-02
-2.830332890152931213e-02
3.617697954177856445e-02
3.334953263401985168e-02
-1.220360212028026581e-02
1.584389805793762207e-02
-3.012329526245594025e-02
3.044151701033115387e-02
2.512019500136375427e-02
-4.624939337372779846e-02
1.635395549237728119e-02
1.289312634617090225e-02
3.492291644215583801e-02
-1.352657657116651535e-02
-1.219730079174041748e-02
-4.156534001231193542e-02
3.585866838693618774e-02
-3.254171088337898254e-02
-4.103565961122512817e-02
-2.549518458545207977e-02
-1.865748129785060883e-02
-3.414495289325714111e-02
3.972098231315612793e-02
1.247849315404891968e-02
3.430405631661415100e-02
-4.082330316305160522e-02
2.450467087328433990e-02
-4.448219761252403259e-02
-3.465052321553230286e-02
-4.064035788178443909e-02
1.114987768232822418e-02
3.236008808016777039e-02
1.347548980265855789e-02
4.450000822544097900e-02
-2.743146568536758423e-02
-2.424165792763233185e-02
1.353280805051326752e-02
1.700506545603275299e-02
4.426003992557525635e-02
-3.402954339981079102e-02
3.345821425318717957e-02
-1.223483029752969742e-02
-4.419087991118431091e-02
3.657461702823638916e-02
1.104968134313821793e-02
-1.106410194188356400e-02
-3.134966641664505005e-02
1.870602928102016449e-02
-1.435416936874389648e-02
1.255412120372056961e-02
-2.934996411204338074e-02
2.828250639140605927e-02
3.311229124665260315e-02
4.157856479287147522e-02
3.590836375951766968e-02
-2.184225618839263916e-02
1.096468139439821243e-02
-1.168878935277462006e-02
2.646140940487384796e-02
9.217500686645507812e-03
-3.933120146393775940e-02
-1.864594779908657074e-02
-1.840457506477832794e-02
1.780482567846775055e-02
2.633712440729141235e-02
1.884679682552814484e-02
1.142224110662937164e-02
4.418894648551940918e-02
2.151782251894474030e-02
-2.127637341618537903e-02
2.440273202955722809e-02
-3.357308730483055115e-02
-3.902644291520118713e-02
-3.232426568865776062e-02
1.582107879221439362e-02
-4.145241901278495789e-02
2.561438083648681641e-02
-1.195350009948015213e-02
4.427932947874069214e-02
-2.571954019367694855e-02
2.647225186228752136e-02
1.378128491342067719e-02
-2.782597951591014862e-02
3.643809631466865540e-02
-2.358520030975341797e-02
1.524907257407903671e-02
1.115977298468351364e-02
3.976280987262725830e-02
3.885202109813690186e-02
-4.013963416218757629e-02
-4.552673920989036560e-02
1.751786284148693085e-02
-2.395108528435230255e-02
8.975941687822341919e-03
-2.027536369860172272e-02
3.295364975929260254e-02
1.169735752046108246e-02
4.050938412547111511e-02
3.118994086980819702e-02
-1.718220487236976624e-02
-2.689550071954727173e-02
1.189998909831047058e-02
4.600503295660018921e-02
4.257503896951675415e-02
2.250321581959724426e-02
3.633102029561996460e-02
-1.221207343041896820e-02
1.643856614828109741e-02
1.156707946211099625e-02
-3.604053333401679993e-02
3.284564241766929626e-02
-1.409056130796670914e-02
-1.905742660164833069e-02
4.723795130848884583e-02
-2.265562489628791809e-02
-3.559394553303718567e-02
-2.072688750922679901e-02
-2.999623492360115051e-02
3.621754050254821777e-02
3.946392610669136047e-02
-4.096010327339172363e-02
1.529221143573522568e-02
-3.443137928843498230e-02
-2.706913836300373077e-02
1.449253782629966736e-02
9.865808300673961639e-03
2.310767583549022675e-02
2.219820395112037659e-02
1.711743697524070740e-02
-2.620595321059226990e-02
-1.853752136230468750e-02
2.477781474590301514e-02
2.809641882777214050e-02
-3.480092808604240417e-02
2.202634140849113464e-02
4.553624242544174194e-02
1.561447139829397202e-02
-3.423315286636352539e-02
-1.751784235239028931e-02
3.515003249049186707e-02
2.561918273568153381e-02
2.574202977120876312e-02
2.474750578403472900e-02
-1.865793392062187195e-02
2.899834886193275452e-02
4.217671975493431091e-02
-2.899724245071411133e-02
4.149696975946426392e-02
-3.325412794947624207e-02
2.794113941490650177e-02
4.368323460221290588e-02
-1.950301788747310638e-02
-1.115392707288265228e-02
1.232099719345569611e-02
-2.889503352344036102e-02
-1.152586005628108978e-02
2.483130618929862976e-02
-1.583964377641677856e-02
-2.356520667672157288e-02
2.768905833363533020e-02
-2.225885540246963501e-02
-3.315523639321327209e-02
-4.396817460656166077e-02
-2.149025909602642059e-02
-4.505669325590133667e-02
-1.357066165655851364e-02
1.816554740071296692e-02
2.837368473410606384e-02
-1.521782204508781433e-02
3.771806135773658752e-02
1.298851612955331802e-02
-4.533265531063079834e-02
1.395728066563606262e-02
2.877954021096229553e-02
4.585045948624610901e-02
2.571833133697509766e-02
-4.046365246176719666e-02
2.803106047213077545e-02
1.443091407418251038e-02
4.359092935919761658e-02
3.654208034276962280e-02
3.651313111186027527e-02
1.896182447671890259e-02
1.545079890638589859e-02
1.617474108934402466e-02
1.164015196263790131e-02
-1.522012799978256226e-02
4.135033488273620605e-02
-4.566063731908798218e-02
1.489577628672122955e-02
-3.427994251251220703e-02
1.178347785025835037e-02
1.850511506199836731e-02
3.413338586688041687e-02
-4.088585823774337769e-02
1.515571959316730499e-02
-1.536497473716735840e-02
-3.459580242633819580e-02
3.232273459434509277e-02
-2.839173562824726105e-02
-3.288769721984863281e-02
-1.209114491939544678e-02
-4.603862017393112183e-02
-3.301886096596717834e-02
2.985952049493789673e-02
3.834121674299240112e-02
-3.631677478551864624e-02
-3.993110358715057373e-02
-2.773333340883255005e-02
1.321011502295732498e-02
-1.590358093380928040e-02
-1.704585924744606018e-02
-1.925132982432842255e-02
1.091559045016765594e-02
-1.507737115025520325e-02
4.016850888729095459e-02
-3.580156713724136353e-02
-2.224149182438850403e-02
-3.566292673349380493e-02
-2.125597372651100159e-02
-1.046077627688646317e-02
2.623435482382774353e-02
2.592318318784236908e-02
-1.637779735028743744e-02
-3.316311165690422058e-02
3.040529228746891022e-02
3.229414671659469604e-02
-2.153896726667881012e-02
-2.996298670768737793e-02
2.870561182498931885e-02
2.986259199678897858e-02
1.397408451884984970e-02
-2.911290898919105530e-02
-2.833336405456066132e-02
-2.665863744914531708e-02
-2.830358408391475677e-02
4.187746718525886536e-02
2.342985570430755615e-02
2.257008291780948639e-02
-4.471746459603309631e-02
-1.443114411085844040e-02
1.281440909951925278e-02
-3.756469115614891052e-02
4.549372941255569458e-02
4.417714104056358337e-02
-1.921919733285903931e-02
3.792847692966461182e-02
-3.457695245742797852e-02
1.944613270461559296e-02
3.680250421166419983e-02
2.877995185554027557e-02
4.558365046977996826e-02
-2.025610022246837616e-02
-3.180209919810295105e-02
1.089749578386545181e-02
1.628141105175018311e-02
-4.005002230405807495e-02
3.304352611303329468e-02
-1.997182704508304596e-02
-2.883815392851829529e-02
-2.627290412783622742e-02
-3.029256686568260193e-02
1.753046736121177673e-02
-3.597795218229293823e-02
-2.959110587835311890e-02
3.169016167521476746e-02
-3.773305565118789673e-02
4.405386000871658325e-02
-3.993304073810577393e-02
3.637902438640594482e-02
3.716321662068367004e-02
1.914908178150653839e-02
-3.593267872929573059e-02
-1.967085525393486023e-02
-2.929127588868141174e-02
1.664294302463531494e-02
2.289447747170925140e-02
2.358862385153770447e-02
2.819114364683628082e-02
-2.668588981032371521e-02
-4.256822168827056885e-02
2.070880681276321411e-02
-4.009294882416725159e-02
-2.058529481291770935e-02
1.625203154981136322e-02
-1.100689452141523361e-02
-4.533069208264350891e-02
-2.489720098674297333e-02
1.155963633209466934e-02
-2.971601486206054688e-02
-3.401068225502967834e-02
-3.692675754427909851e-02
4.031983762979507446e-02
-1.647690497338771820e-02
-1.136616244912147522e-02
-3.392764180898666382e-02
-1.414011325687170029e-02
3.944533318281173706e-02
-1.808946952223777771e-02
3.154547885060310364e-02
-3.435388952493667603e-02
-4.331761971116065979e-02
1.384440064430236816e-02
-3.630162402987480164e-02
3.640265017747879028e-02
1.187893096357584000e-02
3.562867641448974609e-02
-4.475622624158859253e-02
-2.008727937936782837e-02
-3.581872954964637756e-02
-1.030328869819641113e-02
3.287013992667198181e-02
-2.805713750422000885e-02
-2.872134931385517120e-02
2.127295918762683868e-02
-1.762777008116245270e-02
-4.546332731842994690e-02
-2.398724853992462158e-02
3.666706010699272156e-02
-2.620049752295017242e-02
-2.580551244318485260e-02
3.569649904966354370e-02
3.791433945298194885e-02
1.355203334242105484e-02
4.608485847711563110e-02
-9.479010477662086487e-03
4.456806927919387817e-02
4.532071202993392944e-02
-1.486699469387531281e-02
-1.294237468391656876e-02
-1.924757286906242371e-02
3.222053498029708862e-02
4.418600723147392273e-02
-2.305306866765022278e-02
-3.730518743395805359e-02
-1.011473126709461212e-02
-4.310410097241401672e-02
1.108922436833381653e-02
-4.162485897541046143e-02
1.632331497967243195e-02
-1.725403033196926117e-02
1.330066751688718796e-02
2.985323034226894379e-02
-2.700184099376201630e-02
2.240576781332492828e-02
4.171168059110641479e-02
-2.261242456734180450e-02
-1.320062577724456787e-02
2.744058147072792053e-02
-2.314880117774009705e-02
-4.117235913872718811e-02
-2.211802825331687927e-02
1.122881844639778137e-02
-1.643787324428558350e-02
-2.507606148719787598e-02
4.345241561532020569e-02
3.530700877308845520e-02
-3.497080132365226746e-02
-1.523480098694562912e-02
4.685522988438606262e-02
4.389545321464538574e-02
-3.821941837668418884e-02
2.730450220406055450e-02
-2.194352075457572937e-02
-2.767914719879627228e-02
-2.821613289415836334e-02
-4.315481707453727722e-02
1.862662471830844879e-02
-3.373505547642707825e-02
4.565751552581787109e-02
-3.996320068836212158e-02
-1.389145664870738983e-02
-2.287257462739944458e-02
-3.627542778849601746e-02
2.963001094758510590e-02
-2.405583299696445465e-02
-2.362161688506603241e-02
-4.213832318782806396e-02
-2.207339741289615631e-02
1.695395633578300476e-02
-2.709227614104747772e-02
-3.490757197141647339e-02
2.624312788248062134e-02
1.331252045929431915e-02
2.023744210600852966e-02
-2.002036012709140778e-02
2.223728783428668976e-02
2.832718566060066223e-02
-3.176784142851829529e-02
4.002345353364944458e-02
-2.336071245372295380e-02
-1.707640290260314941e-02
-1.510577462613582611e-02
-1.155150961130857468e-02
-3.740860149264335632e-02
-4.552724584937095642e-02
1.510404236614704132e-02
-1.125800702720880508e-02
-2.663469687104225159e-02
-1.408752333372831345e-02
-3.294400870800018311e-02
-1.182768121361732483e-02
-1.989100687205791473e-02
-3.010511212050914764e-02
-2.676223777234554291e-02
-3.228037804365158081e-02
-2.582515589892864227e-02
-1.719469390809535980e-02
1.611744053661823273e-02
1.381281297653913498e-02
1.692521944642066956e-02
3.295072168111801147e-02
-1.993705891072750092e-02
-1.552081108093261719e-02
3.871895000338554382e-02
4.480169340968132019e-02
-1.797717995941638947e-02
-4.372846335172653198e-02
-2.411664277315139771e-02
-1.770155318081378937e-02
1.834722794592380524e-02
-1.700216345489025116e-02
4.221347719430923462e-02
-4.083177819848060608e-02
1.632985658943653107e-02
1.887480728328227997e-02
-2.000023052096366882e-02
4.594694823026657104e-02
-3.257321193814277649e-02
1.232824660837650299e-02
3.345804288983345032e-02
1.899129711091518402e-02
-2.353136986494064331e-02
2.766349352896213531e-02
3.370434790849685669e-02
4.543042182922363281e-02
3.828995674848556519e-02
1.053069159388542175e-02
-4.476768150925636292e-02
2.016006968915462494e-02
2.001887746155261993e-02
4.349850118160247803e-02
2.414664998650550842e-02
1.600939035415649414e-02
2.442474663257598877e-02
-1.992217823863029480e-02
3.404363617300987244e-02
-2.770984731614589691e-02
-3.283591940999031067e-02
1.543005742132663727e-02
2.807183936238288879e-02
2.092519402503967285e-02
3.696280717849731445e-02
-3.853319585323333740e-02
-3.314306959509849548e-02
-9.665664285421371460e-03
-1.885820738971233368e-02
2.058902755379676819e-02
1.825559325516223907e-02
3.577654063701629639e-02
-3.436863794922828674e-02
1.373172644525766373e-02
3.550150245428085327e-02
4.341249912977218628e-02
4.591375589370727539e-02
3.340194001793861389e-02
-2.397482097148895264e-02
-2.522775530815124512e-02
-3.846075385808944702e-02
-2.103289961814880371e-02
2.324850112199783325e-02
-2.857215516269207001e-02
-3.425009176135063171e-02
-1.291953586041927338e-02
-3.110897168517112732e-02
2.286237105727195740e-02
-2.937915921211242676e-02
3.697150200605392456e-02
3.568985313177108765e-02
4.197436571121215820e-02
4.028134420514106750e-02
4.287205636501312256e-02
1.687797717750072479e-02
3.444267809391021729e-02
3.668973594903945923e-02
-3.001292794942855835e-02
2.466065622866153717e-02
-3.556776791810989380e-02
3.197074308991432190e-02
-1.296194456517696381e-02
9.838961064815521240e-03
-4.321663081645965576e-02
-2.599130943417549133e-02
4.217882081866264343e-02
-2.863224036991596222e-02
2.903537265956401825e-02
-2.626355923712253571e-02
2.175488695502281189e-02
-1.279878057539463043e-02
1.175429206341505051e-02
-1.108249556273221970e-02
-1.925958693027496338e-02
-3.022383712232112885e-02
-2.127642743289470673e-02
-1.074564550071954727e-02
1.478845253586769104e-02
-2.887368202209472656e-02
4.279317334294319153e-02
4.176560789346694946e-02
-2.713192999362945557e-02
-1.200516987591981888e-02
-2.484772726893424988e-02
3.283819928765296936e-02
-3.504133969545364380e-02
-3.183191642165184021e-02
-1.335975900292396545e-02
3.103385679423809052e-02
-4.545025154948234558e-02
2.684142999351024628e-02
-4.518844932317733765e-02
1.336462050676345825e-02
-4.422339797019958496e-02
3.290308639407157898e-02
3.144559264183044434e-02
3.778900206089019775e-02
1.960845291614532471e-02
3.818355873227119446e-02
-1.444939710199832916e-02
-2.579374238848686218e-02
-3.206669539213180542e-02
3.564049303531646729e-02
3.000445850193500519e-02
4.382234066724777222e-02
3.035589307546615601e-02
-4.149946197867393494e-02
-3.545533493161201477e-02
3.971699252724647522e-02
3.231237828731536865e-02
-1.115104835480451584e-02
-4.509361833333969116e-02
-4.193858057260513306e-02
-3.350518271327018738e-02
-4.553742334246635437e-02
-1.029503811150789261e-02
2.697356976568698883e-02
-4.074452072381973267e-02
-2.770226821303367615e-02
-3.026928566396236420e-02
-4.463353008031845093e-02
-4.023621231317520142e-02
1.910436525940895081e-02
1.309898868203163147e-02
1.083976775407791138e-02
2.269602380692958832e-02
-2.959984727203845978e-02
-2.115981094539165497e-02
2.895096503198146820e-02
-3.721676766872406006e-02
1.999573409557342529e-02
1.420366670936346054e-02
-1.996179483830928802e-02
2.458776906132698059e-02
2.011336013674736023e-02
-3.501645475625991821e-02
-3.048975206911563873e-02
-2.094879932701587677e-02
-2.985413372516632080e-02
3.673886135220527649e-02
1.075360737740993500e-02
1.172818616032600403e-02
-2.129898965358734131e-02
-3.868784755468368530e-02
-1.886345073580741882e-02
-4.222856089472770691e-02
1.466636266559362411e-02
-1.561155915260314941e-02
3.523341193795204163e-02
3.515774756669998169e-02
1.138357352465391159e-02
-2.041036821901798248e-02
-4.278054088354110718e-02
3.440084308385848999e-02
1.528328005224466324e-02
-1.501733809709548950e-02
-4.082054272294044495e-02
2.242543920874595642e-02
1.313046738505363464e-02
-1.271235756576061249e-02
-1.350772194564342499e-02
-1.250565983355045319e-02
2.886085771024227142e-02
-2.721359394490718842e-02
-3.197385743260383606e-02
-2.070221304893493652e-02
2.511610276997089386e-02
-1.121875271201133728e-02
-3.123877942562103271e-02
-1.155703514814376831e-02
-4.350140690803527832e-02
-1.246094238013029099e-02
-1.378041226416826248e-02
