0.00043079629540443400
0.02528068050742140000
0.00674687698483467000
0.00814572349190711000
-0.00584264844655990000
0.03678048774600020000
0.03743157908320420000
0.01357657089829440000
0.00426794588565826000
-0.02630120143294330000
-0.02600162476301190000
-0.00530000776052474000
-0.02852581813931460000
0.02883179858326910000
0.02415733784437170000
0.03465104475617400000
0.02225762233138080000
-0.01531624235212800000
-0.00961311906576156000
-0.02067324891686430000
0.00412484630942344000
0.02175721898674960000
0.01478439942002290000
-0.01740338094532480000
-0.02482329308986660000
-0.02595743723213670000
0.00082631036639213500
0.00927717611193656000
-0.02354621514678000000
-0.00509453937411308000
-0.02267127484083170000
-0.03579198569059370000
-0.00955504365265369000
0.01993665471673010000
-0.00702982768416404000
-0.00869237445294857000
0.01092388108372680000
-0.00528169795870780000
-0.00774483568966388000
-0.00949968025088310000
0.01265599951148030000
0.02656954154372210000
-0.02827473729848860000
0.02784426137804980000
0.02144745364785190000
-0.01998797617852680000
0.03519782051444050000
-0.02559419348835940000
-0.02496056444942950000
0.02544863894581790000
0.03380974009633060000
0.00862608850002288000
0.00916706770658493000
-0.02509120106697080000
-0.01857113651931280000
-0.02434370294213290000
-0.01341124437749380000
0.01457821577787390000
-0.00657319277524948000
0.00345457345247268000
-0.01453385502099990000
0.00311603769659996000
0.02257955074310300000
-0.01820186339318750000
0.02785059437155720000
-0.00322573632001876000
-0.00416441634297370000
-0.00231798365712165000
-0.00265408307313919000
0.03300826624035830000
0.00176852196455001000
0.02109909057617180000
-0.03822597116231910000
0.03583153709769240000
0.01852191239595410000
0.02545260265469550000
-0.00865529477596282000
-0.00692940875887870000
0.00664458796381950000
0.00260027125477790000
0.00540583953261375000
0.02091801539063450000
0.00011729821562767000
0.01428893953561780000
0.02786521986126890000
0.02660543099045750000
-0.02719262801110740000
0.00198385491967201000
0.01011737063527100000
-0.02802758663892740000
-0.00769279152154922000
0.00665864720940589000
-0.01978546194732180000
0.03423200175166130000
-0.02498097345232960000
-0.00002540275454521170
0.00401906296610832000
0.02757712081074710000
0.03705126419663420000
0.00805056095123291000
0.01719864830374710000
-0.02428793720901010000
0.02153104543685910000
0.02540121600031850000
-0.01532813906669610000
-0.01387329027056690000
-0.01889005489647380000
-0.02102846279740330000
-0.02236636169254770000
-0.03636129200458520000
0.02834671363234510000
-0.03044880181550970000
0.01544880494475360000
0.02394063398241990000
-0.01569191180169580000
-0.00063896924257278400
-0.02564673125743860000
0.03711383417248720000
0.01754083484411230000
-0.03698011487722390000
-0.02988132834434500000
-0.00976511463522911000
-0.01134677790105340000
0.01727816462516780000
0.01836381480097770000
-0.02323475107550620000
-0.00842738896608352000
-0.00442546233534812000
-0.02919823676347730000
0.01926574483513830000
0.00435772538185119000
0.03727009519934650000
-0.00558581575751304000
-0.01926943846046920000
-0.00045167282223701400
0.00125863775610923000
0.01355449110269540000
-0.03105922043323510000
0.01147493347525590000
-0.02008881419897070000
-0.03783448040485380000
0.00995956361293792000
0.03212411329150190000
-0.03297073394060130000
0.03796351328492160000
0.03492331132292740000
0.00322730466723442000
-0.00695071369409561000
-0.03383067250251770000
0.02447383478283880000
0.01716832071542730000
-0.01163728348910800000
0.03252726420760150000
-0.02886645309627050000
0.03051064535975450000
-0.01049594208598130000
-0.03749218583106990000
0.01383567973971360000
-0.02110786736011500000
0.02766341343522070000
-0.03045747801661490000
-0.01987878978252410000
0.00979428365826606000
0.00670902058482170000
0.00789973139762878000
0.03595231100916860000
0.02467467263340950000
-0.01628247648477550000
0.02599477395415300000
0.00820285826921463000
0.02564801648259160000
0.03130416944622990000
-0.03426607698202130000
-0.03215109184384340000
-0.03765766695141790000
0.02910040691494940000
0.00105355307459831000
0.00974873825907707000
0.01891847699880590000
0.03444424644112580000
-0.03666368499398230000
0.00985199213027954000
0.03390227630734440000
0.02139591053128240000
0.03051606193184850000
-0.01817778497934340000
-0.03272337466478340000
-0.02045816928148260000
-0.00265790522098541000
0.02062083035707470000
-0.00240369513630867000
-0.00125494599342346000
0.02658925577998160000
0.00946903228759765000
0.01494650170207020000
0.01342577114701270000
0.00863057002425193000
-0.00771177932620048000
0.01752391830086700000
0.01468396186828610000
0.02697606012225150000
-0.01407079584896560000
0.02662562951445570000
0.03367726132273670000
-0.03662608563899990000
0.00092724710702896100
-0.03073712624609470000
0.00196343660354614000
0.02665999904274940000
0.00140439346432685000
-0.01265758834779260000
0.02424778416752810000
-0.01050099730491630000
-0.02260928601026530000
0.00087398290634155200
0.01855093613266940000
-0.00496344640851020000
-0.02468847110867500000
-0.01653067581355570000
0.03475094214081760000
-0.02075394056737420000
0.01279996708035460000
0.01276763156056400000
-0.01167642511427400000
0.00388563424348831000
0.03232176229357710000
0.00485802814364433000
0.01002416014671320000
-0.03066255711019030000
-0.03729607537388800000
0.01573380082845680000
0.02485701069235800000
0.02008568495512000000
-0.00749667361378669000
0.02417488396167750000
-0.03082171455025670000
0.00225289538502693000
0.01253038272261610000
-0.03067965433001510000
-0.02752865478396410000
0.01417355984449380000
-0.01170730218291280000
0.00340276584029197000
-0.02017593011260030000
-0.02356937155127520000
0.01466099545359610000
-0.01316752471029750000
0.02786801382899280000
0.02854885533452030000
-0.02158987708389750000
-0.01951568387448780000
-0.03435552865266790000
0.02706890925765030000
-0.01988121680915350000
0.00804593414068222000
-0.02701518684625620000
-0.02044514939188950000
0.02209802716970440000
0.02084140479564660000
0.01677980646491050000
0.01018964126706120000
0.00474066659808158000
0.01024478673934930000
0.00276065990328788000
0.02573357895016670000
-0.01038338989019390000
0.02720396593213080000
0.00602249801158905000
0.01164749264717100000
0.00705613940954208000
0.02043452858924860000
0.03436842933297150000
-0.02620145678520200000
0.02114250138401980000
-0.00598002597689628000
-0.03258774429559700000
-0.02301937155425540000
-0.01633715629577630000
0.00899978727102279000
0.02465330436825750000
-0.02049272321164600000
-0.01699276641011230000
-0.01798921264708040000
-0.00927105173468589000
0.00897151231765747000
-0.00392973795533180000
-0.00173407793045043000
-0.00265266746282577000
0.01864308863878250000
0.02161527052521700000
0.01891542971134180000
0.00190899521112442000
0.01326797157526010000
-0.02386052533984180000
0.02690395340323440000
-0.02838432416319840000
0.01898093894124030000
0.02901436761021610000
0.03384587541222570000
-0.02135030925273890000
-0.00062403082847595200
0.02987776324152940000
-0.01253237947821610000
-0.00170982629060745000
0.00416738912463188000
-0.01964518986642360000
0.01557788997888560000
-0.00731230527162551000
-0.03483807668089860000
0.02440024539828300000
-0.00014204904437065100
0.03227568790316580000
0.00338502973318099000
0.01815678179264060000
0.01705719158053390000
0.02670163288712500000
-0.02717214450240130000
0.02748198434710500000
-0.01582713797688480000
0.01541691645979880000
-0.00546526163816452000
-0.02531814202666280000
0.01038000360131260000
-0.02200308255851260000
0.01303748041391370000
0.02502079680562010000
0.00231197103857994000
0.00379056110978126000
-0.02666226215660570000
0.03580883517861360000
-0.00531264767050743000
-0.01438556239008900000
0.03649160638451570000
0.02986666187644000000
-0.02501526102423660000
-0.01521666347980490000
0.02275238558650010000
-0.03340836241841310000
-0.02685808949172490000
-0.00574936345219612000
0.00751316919922828000
-0.00079356506466865500
0.03261741623282430000
-0.03389152139425270000
-0.02273461222648620000
0.02743328735232350000
-0.00101726502180099000
0.02983297780156130000
0.00560552626848220000
-0.03617570176720610000
0.03567245230078690000
0.01482369378209110000
-0.00771692395210266000
0.00864936411380767000
-0.01071680523455140000
0.00914591923356056000
0.01871241256594650000
-0.03438333049416540000
-0.02302164211869230000
0.01168338581919670000
0.02513917163014410000
-0.02768085896968840000
-0.00842600129544734000
-0.00567042455077171000
0.01620170101523390000
0.03191160038113590000
0.03061116114258760000
-0.01085151173174380000
-0.00362606719136238000
-0.01480917818844310000
0.03594819828867910000
0.02026077359914770000
0.02598174288868900000
0.01099687442183490000
0.00768346711993217000
0.03279155865311620000
0.02177315950393670000
0.02169970050454130000
0.00150660052895545000
-0.00512938201427459000
0.02756870910525320000
-0.03104197606444350000
-0.01976530626416200000
0.03690651431679720000
-0.00891790911555290000
-0.00363572686910629000
0.00712645053863525000
-0.01677982322871680000
-0.01903102919459340000
0.02468024566769590000
-0.01456137187778940000
0.00565909966826438000
-0.01041625440120690000
-0.02982100844383230000
-0.01431121118366710000
-0.03208562731742850000
0.01675568893551820000
-0.01756408065557470000
0.01106043905019760000
0.00220033153891563000
0.02852040156722060000
0.01542101055383680000
0.00027752295136451700
-0.02708618715405460000
-0.01902730762958520000
0.03262436017394060000
0.03464012220501890000
-0.01310891285538670000
0.03608795627951620000
-0.02838830277323720000
-0.02332810685038560000
-0.03475624322891230000
0.00676235929131507000
0.02798677608370780000
-0.01544923335313790000
-0.02922293543815610000
-0.00414772704243659000
-0.00053461641073226900
0.01557234302163120000
-0.01621760614216320000
0.01373121142387390000
0.00977082550525665000
-0.00728564523160457000
0.00632419064640998000
0.01249962300062170000
-0.01898283697664730000
0.02414675429463380000
-0.03214251622557640000
-0.03505867347121230000
-0.00227701663970947000
-0.02610316500067710000
0.02249290049076080000
-0.00401425361633300000
0.01021225005388250000
0.03314815089106550000
0.01149092614650720000
0.02685030922293660000
-0.00715176016092300000
0.02609154209494590000
-0.03659706190228460000
0.02140952274203300000
0.00438375398516654000
0.03533424809575080000
0.03236128762364380000
-0.00727462396025657000
0.02333452925086020000
-0.00132449716329574000
-0.00585093349218368000
0.00256937742233276000
-0.03652513027191160000
0.02535462751984590000
-0.03088207915425300000
0.02513380721211430000
-0.01694072410464280000
0.01011237129569050000
0.01248592138290400000
0.03814634308218950000
-0.03245057538151740000
-0.02601278200745580000
0.03592302277684210000
-0.00201047211885452000
-0.02845048159360880000
0.02733426168560980000
0.01137630268931380000
-0.00955421477556228000
-0.00155897065997123000
0.00983063131570816000
-0.02362133190035820000
-0.01357343979179850000
-0.01665445044636720000
0.02303997427225110000
-0.01384510658681390000
0.01423880457878110000
-0.01627989485859870000
0.02227709442377090000
-0.02360953576862810000
-0.03213417530059810000
0.01054834201931950000
0.02315386757254600000
0.03407507017254820000
0.03010770305991170000
-0.01289446279406540000
0.03486445918679230000
-0.02988154627382750000
0.00233182683587074000
-0.02707445621490470000
-0.00243926793336868000
-0.02994296886026850000
-0.03524567931890480000
-0.03369868546724310000
0.02419542148709290000
0.02011110261082640000
0.00877572968602180000
-0.00246564671397209000
0.01817999407649040000
-0.01442894712090490000
-0.01687411032617090000
-0.01478958129882810000
0.00858809798955917000
-0.00111290439963340000
0.02579375728964800000
-0.02378449589014050000
-0.01803405582904810000
0.03577278926968570000
-0.01293834112584590000
-0.02241149730980390000
-0.00008481740951538080
0.00446595251560211000
0.01411123201251020000
-0.00572264939546585000
0.03784472122788420000
-0.01088133826851840000
-0.00500662997364997000
-0.02827521227300160000
-0.02395131066441530000
0.03621165081858630000
-0.00677099823951721000
-0.01794944889843460000
0.02870540693402290000
-0.01445198431611060000
0.03664002195000640000
0.00775605812668800000
-0.00112048536539077000
-0.00266399979591369000
0.00276120752096176000
0.01355180889368050000
-0.02788098528981200000
-0.00352280959486961000
0.01895073056221000000
-0.01572706550359720000
0.02010128647089000000
-0.03435561060905450000
-0.01042314246296880000
-0.00634366273880004000
0.02134770900011060000
0.03425517305731770000
-0.01132345758378500000
-0.03159534186124800000
0.01815907284617420000
-0.01898371241986750000
0.00223084166646003000
-0.02034125663340090000
-0.01546068303287020000
0.01560206711292260000
0.02759732678532600000
-0.03356887027621260000
0.01221321523189540000
0.00205103680491447000
0.02462339773774140000
0.03420986607670780000
-0.03041471354663370000
-0.03044531494379040000
-0.03632258623838420000
-0.02686187624931330000
0.03367106989026060000
0.01550452411174770000
-0.02480417117476460000
0.01537981629371640000
-0.03450013324618330000
-0.00596074014902114000
0.02511936053633680000
-0.00692436471581459000
-0.02162622660398480000
-0.00382545962929725000
-0.00632584095001220000
0.01605586707592010000
0.02813057973980900000
-0.02366491779685020000
0.01751829683780670000
-0.00575610622763633000
-0.03113724850118160000
-0.03748100250959390000
-0.02216732315719120000
-0.00860368087887763000
0.01903894916176790000
0.03355261310935020000
0.03005875274538990000
-0.01175247319042680000
0.02172638848423950000
0.02063575014472000000
-0.02452123723924160000
-0.00375400111079216000
-0.01246698014438150000
-0.00379234924912452000
0.01381524279713630000
-0.01587244682013980000
-0.01031426526606080000
-0.03416084125638000000
0.00397939980030059000
-0.01695904508233070000
0.03675986453890800000
0.02027538046240800000
-0.01613701321184630000
0.03154030814766880000
-0.02205315418541430000
-0.02180575020611280000
0.01487443223595610000
-0.03781239315867420000
-0.00660141184926033000
0.02602882310748100000
0.02550477907061570000
-0.02239667065441600000
0.03452041372656820000
-0.00862846150994300000
-0.01815882511436930000
-0.02414375171065330000
-0.02555432356894010000
0.01826727390289300000
0.02996868267655370000
-0.02037637308239930000
0.02170683816075320000
0.00330264866352081000
-0.02527467533946030000
0.02917058393359180000
-0.02467606961727140000
-0.00038858875632286000
0.01026115566492080000
0.00495447590947151000
0.02741297706961630000
-0.02616857364773750000
-0.01669247075915330000
-0.03336505219340320000
0.00515850633382797000
0.01807840913534160000
-0.01554138399660580000
0.03409210219979280000
0.01106338948011390000
-0.02948870509862890000
0.00435835495591163000
0.03129302337765690000
0.03281391784548750000
0.03594936057925220000
0.01136665791273110000
-0.02323620207607740000
-0.00135685876011848000
-0.02187317609786980000
-0.00980106182396411000
0.01364509016275400000
0.02488387003540990000
0.00067237019538879300
-0.01635044999420640000
-0.01584389805793760000
-0.01969667710363860000
0.00778279080986976000
0.01257741451263420000
-0.00039104372262954700
-0.00656602904200553000
0.00842139497399330000
0.03820990398526190000
-0.01391408219933500000
0.01963081955909720000
-0.03033779002726070000
0.01929438486695280000
0.03492163494229310000
-0.00682930275797843000
0.03080571070313450000
0.02643756940960880000
-0.01069825701415530000
-0.00468103960156440000
-0.03318091109395020000
0.03084133192896840000
-0.00002972409129142760
0.02765074744820590000
0.00200454145669937000
-0.00386604294180870000
0.01291443780064580000
0.01208512485027310000
0.03241113945841780000
-0.00389476493000984000
-0.01511688344180580000
0.00667466968297958000
-0.01379486918449400000
-0.00131694972515106000
0.01706945523619650000
-0.03348243981599800000
0.01384365558624260000
-0.03822453692555420000
-0.02775628864765160000
-0.02744214981794350000
-0.01867115311324590000
0.03276569023728370000
0.00095438212156295700
0.01791685074567790000
-0.03156657516956320000
-0.00511498376727104000
0.02552107349038120000
-0.01182395033538340000
-0.02352833375334730000
-0.00745871663093566000
0.02105953916907310000
0.00656167045235633000
-0.02999315969645970000
-0.03585766628384590000
-0.00635007396340370000
-0.00716806389391422000
-0.01132933236658570000
0.00519008561968803000
-0.00189145654439926000
-0.02633884549140930000
0.02298485487699500000
-0.01994680054485790000
-0.01671258918941020000
-0.01834131404757490000
-0.02952913381159300000
-0.01036917418241500000
0.03743619099259370000
-0.01903770864009850000
-0.00809449143707752000
0.03099263086915010000
0.03111887350678440000
0.01806007698178290000
-0.01438611000776290000
-0.00172417983412742000
0.01063569262623780000
0.03269396349787710000
0.03153781965374940000
-0.00119066610932350000
0.02298110723495480000
-0.02405566908419130000
0.03636642917990680000
0.00946906954050064000
0.02346814051270480000
0.03615883365273470000
0.03354179486632340000
0.03535528853535650000
-0.02833497337996950000
0.02713886275887480000
-0.01317424885928630000
-0.03494936227798460000
-0.00186075642704963000
0.00772573053836822000
-0.00543385744094848000
-0.02807959541678420000
-0.01465645246207710000
0.00343859568238258000
-0.02713897079229350000
0.02165835350751870000
0.02714822068810460000
0.00364917889237403000
-0.00662612169981002000
-0.02226428315043440000
0.02231794223189350000
-0.00684770569205284000
-0.03709577769041060000
-0.01225496642291540000
0.00641395151615142000
-0.01392023265361780000
0.01348529383540150000
-0.00474810972809791000
-0.00784205086529254000
-0.02392745949327940000
0.01143595576286310000
-0.02847588434815400000
0.03086586669087400000
0.02838098630309100000
0.02038107439875600000
0.02244447171688070000
0.03424045071005820000
-0.01162036880850790000
-0.00245788320899009000
0.02554303035140030000
-0.02029978670179840000
0.03452747687697410000
-0.00665276125073432000
0.02157510444521900000
0.00902651995420455000
-0.00286378711462020000
-0.02830684557557100000
-0.00422270968556404000
0.00150066986680030000
-0.00620228424668312000
-0.02742185816168780000
-0.01362895965576170000
-0.03199867531657210000
0.03347929939627640000
0.02242645248770710000
0.03230486437678330000
0.01769992709159850000
-0.00679288804531097000
0.02270631119608870000
0.03529494628310200000
-0.00471683591604232000
-0.02777104079723350000
0.00871610641479492000
0.02372079342603680000
-0.01127924211323260000
-0.00197488814592361000
-0.01283846050500860000
-0.02139403112232680000
-0.02911838330328460000
0.02751818671822540000
0.02216172963380810000
0.01344430819153780000
0.03699524328112600000
-0.00930315069854259000
-0.00639741122722625000
0.01575170084834090000
-0.01218928210437290000
-0.01772064901888370000
0.00421719625592231000
0.02236147224903100000
0.02205941453576080000
0.00691174715757369000
-0.01402233913540840000
-0.01929204724729060000
0.00006091222167015070
-0.00796491280198097000
-0.03413580730557440000
0.00195724144577980000
-0.02477496489882460000
-0.03443480655550950000
-0.03258563950657840000
-0.01768137887120240000
-0.00646383315324783000
-0.00565947592258453000
0.02169043943285940000
-0.00694674625992774000
-0.02967833727598190000
-0.01476850360631940000
0.00463185459375381000
-0.03658803924918170000
-0.03203384950757020000
0.00457662716507911000
0.02073885872960090000
-0.01344208233058450000
0.02873985096812240000
0.00712692365050315000
0.00002107769250869750
0.00386175513267517000
0.02214361727237700000
-0.01326076313853260000
-0.03631488606333730000
-0.03050359897315500000
-0.01270544342696660000
-0.00041548535227775500
-0.00217182934284210000
-0.01809310540556900000
-0.00162008404731750000
0.02993867173790930000
0.02143668755888930000
0.01054057478904720000
-0.03297340497374530000
0.02905945852398870000
0.01741649210453030000
-0.03199515491724010000
0.01360715180635450000
0.03605099394917480000
0.02820203080773350000
0.01850922033190720000
0.00076549872756004300
0.00327966734766960000
-0.03351728618144980000
0.00666766241192817000
0.02491338178515430000
0.01196107640862460000
-0.03547337651252740000
0.03056858852505680000
0.02593510225415220000
0.02750829979777330000
-0.02054767683148380000
-0.00686495751142501000
-0.00266017764806747000
-0.00810319557785987000
0.01088497042655940000
0.00541561096906661000
0.00690891593694686000
-0.03537065163254730000
-0.00546530634164810000
-0.02480202540755270000
0.00173681601881980000
-0.02519716694951050000
0.02764960005879400000
-0.01993100717663760000
-0.03078193403780460000
0.00430822744965553000
-0.01987041532993310000
0.03061255440115920000
-0.01853558048605910000
-0.01418716274201860000
-0.02647887170314780000
-0.03538071364164350000
0.00649973377585411000
-0.03306779265403740000
-0.03675238043069830000
0.00645384192466735000
0.01036655530333510000
-0.01840780861675730000
0.00174874067306518000
0.03695804253220550000
0.00001662224531173700
0.00885078683495521000
-0.02347256615757940000
0.01199987903237340000
-0.01311714202165600000
-0.03165684640407560000
-0.02819842472672460000
0.00758857652544975000
0.00865939259529113000
-0.02144031785428520000
-0.02675308287143700000
-0.03176775947213170000
-0.01401549577713010000
0.01856610178947440000
-0.01954734511673450000
-0.01604982465505590000
0.02439570799469940000
0.00862272456288337000
0.02631749585270880000
0.01056209206581110000
-0.01642616093158720000
0.01895856857299800000
0.01276435703039160000
-0.00284720212221145000
-0.01263359189033500000
-0.01493788138031950000
0.01043356955051420000
-0.01527518406510350000
-0.00780884921550750000
-0.01993802376091480000
0.03323257341980930000
-0.02761169150471680000
0.03729302808642380000
-0.03470810502767560000
-0.03146678581833830000
0.01350977271795270000
-0.02233474701642990000
-0.00509445741772651000
-0.02077571116387840000
0.00306918472051620000
0.03149316087365150000
0.03782954439520830000
0.02620583400130270000
-0.03125256672501560000
0.03069436177611350000
0.02238131687045090000
-0.03519077971577640000
-0.01019409485161300000
0.03400987014174460000
-0.02503281645476810000
-0.02461793273687360000
-0.01946453563868990000
-0.00500450283288955000
-0.03779304027557370000
0.01822553202509880000
0.02506964281201360000
-0.00427526235580444000
0.03319310024380680000
-0.00235283002257347000
-0.01349366083741180000
-0.00167183578014373000
0.00979131832718849000
-0.00634004920721054000
-0.03806352987885470000
-0.02480850368738170000
-0.02280912920832630000
0.01682589948177330000
0.03737992420792570000
-0.02515484020113940000
0.03583208099007600000
-0.00522610545158386000
0.02739873155951490000
0.01584386080503460000
0.01561401039361950000
-0.02714083157479760000
0.03348996117711060000
0.03143985942006110000
0.02508452162146560000
-0.00635195523500442000
0.03394781425595280000
0.03436189517378800000
-0.01096400059759610000
0.01913245022296900000
-0.02631945721805090000
-0.02231076918542380000
0.00008540973067283630
0.02077896893024440000
-0.01704405248165130000
-0.03017822094261640000
-0.02734171226620670000
0.01087589934468260000
0.01694184541702270000
-0.01166928187012670000
0.01239491999149320000
0.03332492336630820000
-0.00110761076211929000
-0.03094872832298270000
0.03283630684018130000
0.02031272649765010000
0.01779333129525180000
-0.02373761683702460000
0.02664443477988240000
0.02296539396047590000
0.02990705892443650000
-0.01174866035580630000
0.00508456677198410000
-0.00891241803765296000
0.00775947049260139000
-0.02013317495584480000
0.01418697088956830000
0.01609815657138820000
0.03247411921620360000
0.00227431580424308000
-0.00890843011438846000
-0.00674586370587348000
-0.02385326474905010000
-0.03701627999544140000
-0.02359794825315470000
-0.01629896461963650000
-0.03616197779774660000
0.01166564226150510000
0.02564022317528720000
0.00912569090723991000
0.03575671091675750000
-0.00609002634882926000
-0.00194213166832923000
0.01469111442565910000
0.03312330320477480000
-0.02675472572445860000
0.03778582438826560000
-0.03801538050174710000
-0.01902971602976320000
-0.00444701313972473000
-0.03153110295534130000
0.00563673675060272000
-0.02805188484489910000
0.01770452782511710000
-0.03261487185955040000
-0.02954170666635030000
0.03399439528584480000
0.02901666238903990000
0.02624014392495150000
-0.02010709047317500000
-0.01102378964424130000
0.01338933780789370000
0.02487404271960250000
0.00615872070193290000
0.02015348523855200000
0.00940631330013275000
-0.00859762355685234000
0.02578596398234360000
-0.03053846210241310000
0.02202590927481650000
0.01190213486552230000
0.02426862344145770000
0.00799648091197013000
0.03082713112235060000
0.00879146158695220000
0.03146406635642050000
-0.01631583459675310000
0.02171225473284720000
0.03225116059184070000
-0.00866997614502906000
0.01667205244302740000
-0.02622620016336440000
0.01195653155446050000
0.02894433215260500000
-0.00956201553344726000
-0.00847898423671722000
0.03096045181155200000
-0.00706114992499351000
-0.02435480803251260000
-0.03667563945055000000
-0.01295865885913370000
-0.03539967164397230000
0.03222526237368580000
-0.00638419017195701000
0.03662166371941560000
-0.01440448686480520000
0.00064232572913169800
-0.03520225733518600000
-0.01879911683499810000
-0.02316451445221900000
0.02601074054837220000
-0.01509865373373030000
0.01079040765762320000
-0.00826125033199787000
-0.02319434098899360000
0.03013853356242170000
0.01496452465653410000
-0.00837555527687072000
-0.03330499678850170000
-0.03114684671163550000
0.00625126436352729000
-0.01227420940995210000
0.02391981333494180000
-0.00062846764922142000
0.01755014061927790000
0.02246498316526410000
-0.01603416912257670000
-0.03078725375235080000
-0.01992906257510180000
-0.02846089377999300000
-0.02028813585638990000
-0.02385913953185080000
0.03092842921614640000
-0.01415810361504550000
-0.00847784429788589000
-0.01485821977257720000
-0.01961902156472200000
-0.02144099213182920000
-0.00158528611063957000
-0.02539764717221260000
0.03095373883843420000
-0.01541509106755250000
0.02345419302582740000
0.00337046012282371000
-0.03441416844725600000
-0.01669455133378500000
0.01633991301059720000
0.03502338007092470000
0.01089785248041150000
-0.03583447635173790000
-0.01383763365447520000
-0.03385113924741740000
-0.02808531560003750000
0.02431464567780490000
-0.02523446455597870000
-0.00729982368648052000
-0.02394262328743930000
0.03400300815701480000
0.03628953918814650000
0.01245499029755590000
-0.02931197546422480000
-0.03334494307637210000
-0.02387919276952740000
0.00997380539774894000
0.03164694830775260000
-0.03314492851495740000
0.00527333095669746000
-0.00549509748816490000
0.01556876674294470000
-0.00689117982983589000
0.03074597939848890000
-0.02881046757102010000
0.03006122633814810000
-0.02884606085717670000
-0.00888995453715324000
-0.03112956508994100000
-0.02508101798593990000
-0.02181639708578580000
0.03001564368605610000
0.01203041523694990000
0.03508954867720600000
-0.03702785819768900000
-0.03420714661478990000
0.03654454275965690000
0.00017957761883735600
0.01722117513418190000
0.00069614872336387600
-0.03301380574703210000
-0.00863713957369327000
-0.00641810521483421000
-0.01960502564907070000
0.01469412446022030000
0.01294545829296110000
0.00440402701497077000
-0.03155818954110140000
-0.00325598940253257000
-0.01041802391409870000
0.00645202770829200000
-0.01089422032237050000
0.02895146980881690000
0.01831855997443190000
-0.02704961970448490000
0.01599088311195370000
-0.03596460074186320000
0.03734612837433810000
-0.02619454264640800000
0.00186498835682868000
0.03605887666344640000
0.00388094410300254000
-0.00479872897267341000
-0.01407389715313910000
0.02901222929358480000
-0.00287698209285736000
0.01205676794052120000
-0.00841550901532173000
-0.02772862464189520000
0.01179025694727890000
-0.01356276497244830000
-0.00117925181984901000
-0.02870779670774930000
0.02994390949606890000
0.01137803494930260000
-0.01971482299268240000
0.03062115982174870000
0.01205591857433310000
-0.00789907574653625000
0.01210303604602810000
-0.01347673498094080000
0.03477702662348740000
0.03197505697607990000
-0.02804059907793990000
0.01892700791358940000
-0.01102210208773610000
-0.03340414911508560000
0.03658742085099220000
0.00749558582901954000
-0.02727456018328660000
-0.00168710947036743000
0.02064680680632590000
-0.00616006925702095000
-0.02309906855225560000
-0.01604027301073070000
-0.03188597783446310000
0.01629626378417010000
-0.00098127871751785200
-0.03329966962337490000
0.00063944235444068900
-0.01060896925628180000
-0.01129805482923980000
0.00225788354873657000
0.02259557321667670000
-0.00381100922822952000
-0.01125458069145670000
0.02973254397511480000
-0.02250365912914270000
0.02944435551762580000
0.03313314542174330000
0.01575460284948340000
-0.00324947386980056000
0.00608550012111663000
-0.01791366562247270000
0.02627426758408540000
-0.02432103827595710000
-0.00376335531473159000
-0.01778653264045710000
0.03334921970963470000
-0.01868928223848340000
0.00051685422658920200
0.02216074243187900000
0.02353369817137710000
0.01269372925162310000
-0.00370334461331367000
-0.02594575844705100000
-0.03233649954199790000
0.03306556120514860000
0.01836734637618060000
-0.02628498710691920000
0.02641974762082090000
0.03114964440464970000
-0.00309234112501144000
0.02495912089943880000
-0.01737699471414080000
-0.03580423817038530000
0.00569440051913261000
0.03053985908627510000
0.00008688867092132560
-0.02199092879891390000
-0.01811507716774940000
-0.00722535327076911000
-0.02172845974564550000
0.02393416687846180000
0.00479671359062194000
0.03043259307742110000
0.00851331651210784000
-0.03587608039379110000
0.01706192642450330000
0.02106814086437220000
0.02106434851884840000
-0.01109027676284310000
0.03519530966877930000
0.01131351292133330000
-0.02808544412255280000
-0.03262899443507190000
-0.01740537956357000000
0.00387802347540855000
0.01816771179437630000
-0.01801701262593260000
0.03092353418469420000
0.03383361175656310000
0.02004378661513320000
0.00074657425284385600
0.01420419663190840000
0.01978337019681930000
-0.03373588621616360000
-0.02304125018417830000
0.03032503649592390000
0.02477684989571570000
-0.01999378018081180000
-0.01805230416357510000
0.00831723585724830000
-0.03487889468669890000
0.01500235870480530000
0.02636082842946050000
0.01867585256695740000
0.00931920111179351000
-0.01755155436694620000
-0.00952053815126419000
0.02816339209675780000
0.01975108310580250000
0.02287668362259860000
0.02013712748885150000
0.00351153314113616000
0.00649891421198844000
-0.01701181754469870000
0.02587595954537390000
-0.01487083733081810000
0.03014228865504260000
-0.01630355417728420000
0.03477771207690230000
-0.01999817788600920000
0.02696954086422920000
0.02462202683091160000
-0.01011391356587400000
0.00558279827237129000
0.00355185195803642000
0.01381164789199820000
0.03575710579752920000
0.00174389779567718000
0.01862245798110960000
0.03182695433497420000
0.00970181077718734000
-0.01578213833272450000
0.03542111441493030000
0.03503030911087980000
0.00608355551958084000
0.00486059859395027000
-0.00359062850475311000
0.02771874889731400000
-0.01713247224688520000
-0.00662507861852645000
0.01082811877131460000
-0.01251610182225700000
-0.01457401737570760000
0.00315582752227783000
0.03805682435631750000
0.01559862866997710000
-0.01851518824696540000
0.02074882388114920000
-0.01137425936758510000
0.02511101588606830000
0.01865743100643150000
-0.03471839800477020000
-0.00015997141599655100
0.02355979010462760000
-0.01449586264789100000
0.00537687912583351000
0.00605808943510055000
0.02893875911831850000
-0.01350981928408140000
0.03140768036246290000
0.01317945867776870000
0.00840745121240615000
-0.02129411511123180000
0.00071847438812255800
0.03002617135643950000
0.03169875964522360000
0.03501504287123680000
0.02605952695012090000
0.03059519454836840000
-0.03574783354997630000
-0.02933255955576890000
-0.02053063176572320000
0.00587025657296180000
0.01741302385926240000
0.02601534500718110000
-0.01727742515504360000
0.02119892463088030000
-0.02416592277586460000
0.01897219941020010000
0.01370590925216670000
-0.02715858817100520000
0.01926730200648300000
0.01989452913403510000
0.00081379339098930300
-0.00868523120880126000
-0.01481580175459380000
-0.02200869284570210000
-0.00768795609474182000
-0.01242667809128760000
0.01090477779507630000
0.02127942442893980000
-0.01790518872439860000
0.00575251132249832000
-0.00838106684386730000
-0.00719745270907878000
-0.01528618857264510000
-0.01578446477651590000
0.03462780639529220000
-0.01449485868215560000
0.03591819480061530000
0.02466190233826630000
-0.03570273518562310000
0.01228172704577440000
-0.00946153327822685000
0.01205537095665930000
0.00777558237314224000
-0.01343068666756150000
-0.02676529064774510000
-0.02720946073532100000
-0.02649454586207860000
-0.03697238489985460000
0.01051899045705790000
-0.00339104235172271000
-0.00240339338779449000
0.01366741582751270000
-0.02102439291775220000
0.00587486475706100000
0.00521900877356529000
-0.02625628188252440000
-0.00205645710229873000
-0.01472908817231650000
-0.01684479415416710000
0.03109123930335040000
0.01598916947841640000
-0.00373831018805503000
0.01365957781672470000
-0.00056439638137817300
0.03631462529301640000
0.03353843465447420000
-0.03611460700631140000
-0.01433435082435600000
-0.03664995357394210000
0.00587718188762664000
0.02889792248606680000
0.01473149657249450000
0.02046185731887810000
0.01885586977005000000
-0.00732616521418094000
0.01420902460813520000
0.00587428733706474000
0.01945191621780390000
0.00534361228346824000
0.00976531580090522000
-0.03466050699353210000
-0.03244712948799130000
0.03121299669146530000
-0.00594064593315124000
0.03045890852808950000
-0.03262575715780250000
0.00961656868457794000
-0.02789977192878720000
0.01928686350584030000
0.01746556162834160000
0.01985035836696620000
0.02092320844531050000
0.01586681604385370000
-0.00480298325419425000
-0.01194562762975690000
-0.03531441092491140000
-0.02309513650834560000
0.03148116543889040000
-0.01967697776854030000
0.00445370748639106000
-0.00978948362171649000
-0.00729593634605407000
-0.02141185104846950000
-0.00761157087981700000
-0.02253341116011140000
0.01896085590124130000
0.01973778754472730000
-0.03724364936351770000
0.03495531156659120000
-0.02646555006504050000
0.03568424656987190000
0.01303688064217560000
-0.02291203662753100000
0.01367670670151710000
-0.00732001475989818000
-0.01875983923673620000
-0.00717699714004993000
-0.00806607119739055000
0.01657044887542720000
-0.01926983892917630000
0.03625584021210670000
0.00150165706872940000
0.02204056456685060000
-0.03002491220831870000
0.01226076856255530000
0.01403554901480670000
0.01006940752267830000
0.00599839165806770000
0.02895845845341680000
-0.00050955265760421700
0.02482425048947330000
0.00118365138769149000
-0.03485044091939920000
-0.03112291544675820000
0.02604129537940020000
-0.01038975827395910000
0.00178178027272224000
0.02498504146933550000
-0.00255493447184562000
-0.03189967200160020000
-0.00037344172596931400
-0.01302943378686900000
-0.00108041986823081000
-0.02237277477979660000
-0.00595330074429512000
0.02384037151932710000
0.02534649148583410000
0.01375219598412510000
-0.00202185660600662000
0.02135317400097840000
0.02334275096654890000
0.00183609500527381000
0.00167199969291687000
-0.01663940586149690000
-0.02409037575125690000
-0.02754754945635790000
-0.01069463416934010000
-0.01004799269139760000
0.02418417111039160000
-0.00524488091468811000
0.01772014796733850000
0.03256123885512350000
-0.03299425542354580000
-0.01078804582357400000
-0.02570106461644170000
0.03674122318625450000
0.03623026981949800000
-0.00859626382589340000
-0.02717621438205240000
0.00985879078507423000
0.02260014414787290000
0.03374980762600890000
0.03216433152556410000
-0.02547806501388540000
-0.02823703736066810000
0.00614798814058303000
-0.02646526694297790000
-0.01224387995898720000
-0.00987329706549644000
0.03308397904038420000
-0.02861321717500680000
0.01974122971296310000
0.02816037461161610000
-0.02907492592930790000
0.00545761734247207000
0.00467574968934059000
0.03515778109431260000
0.02120338752865790000
-0.03504406660795210000
-0.03122808597981920000
-0.03684921190142630000
-0.01970959641039370000
0.00479375943541526000
-0.03010928072035310000
-0.03010034933686250000
-0.02313466183841220000
0.00694448128342628000
-0.02193721570074550000
0.03570145741105070000
0.00765281915664672000
-0.01929058693349360000
0.02702901884913440000
0.00758034735918045000
-0.00663137435913085000
-0.02304026484489440000
0.01711467280983920000
0.00603335723280906000
0.00026602670550346300
-0.02380484342575070000
0.01904238760471340000
0.00140279904007911000
0.00307248905301094000
0.03427922353148460000
0.01484282687306400000
-0.02252865768969050000
-0.02075134031474590000
0.01057838648557660000
0.02096541598439210000
-0.01047636196017260000
-0.03738217055797570000
0.02771572396159170000
-0.03341808915138240000
-0.01201608218252650000
-0.03517369925975790000
-0.01043170131742950000
0.01112415269017210000
-0.00142665579915046000
-0.02244438044726840000
0.02513100579380980000
0.02803132310509680000
0.03328316286206240000
-0.01391143724322310000
-0.02891061268746850000
0.01753864437341690000
-0.02344731241464610000
-0.02783343009650700000
0.00692522153258323000
-0.00412188842892646000
-0.03025925904512400000
0.01915964111685750000
0.03572828695178030000
0.02057499438524240000
-0.03503281623125070000
-0.02650475502014160000
0.03570167347788810000
0.01841869577765460000
0.01129230856895440000
-0.03130711615085600000
-0.01581419073045250000
0.00014892220497131300
-0.02027646638453000000
0.01920677348971360000
-0.01336206682026380000
-0.00160149857401847000
-0.01154361851513380000
-0.01097920164465900000
0.02397250384092330000
0.00853122025728225000
-0.02818592451512810000
0.02493197098374360000
-0.02031560800969600000
-0.00035170838236808700
-0.02749409154057500000
-0.00642370432615280000
-0.00293501093983650000
0.01273161172866820000
-0.02455640025436870000
-0.01502004265785210000
-0.01977215893566600000
0.03050526604056350000
0.01336661726236340000
-0.01176145114004610000
-0.01538647897541520000
-0.03655718266963950000
-0.01379164867103090000
-0.01529505662620060000
-0.00573233887553215000
-0.03374101221561430000
0.01254570856690400000
0.02590572461485860000
-0.00223669037222862000
0.03374264016747470000
-0.03784716129302970000
-0.00886995531618595000
-0.02622070908546440000
0.03820359334349630000
-0.00573271140456199000
0.02687569335103030000
0.02874839678406710000
0.01430246978998180000
-0.01287952810525890000
0.01966587454080580000
-0.00870123505592346000
0.02836899831891050000
0.00531143322587013000
-0.00138134881854057000
-0.00389347225427627000
-0.01549645885825150000
0.02182675153017040000
-0.02442222461104390000
0.00996648892760276000
-0.00069351866841316200
0.01475977152585980000
0.00277186557650566000
0.02003130689263340000
-0.02935554087162010000
0.03623225167393680000
0.01872012019157400000
0.02035353705286970000
0.00744815915822982000
0.01615799963474270000
-0.03682200610637660000
-0.01473573036491870000
-0.01664490811526770000
-0.01804041489958760000
-0.02767264842987060000
-0.02118401601910590000
-0.03208793699741360000
0.02642988786101340000
0.01218109950423240000
-0.02151806280016890000
0.01494681462645530000
0.00421808287501335000
-0.03501553833484640000
0.01330545172095290000
-0.03533664345741270000
-0.01277047768235200000
-0.03186715394258490000
-0.02814434841275210000
-0.00462218374013900000
-0.01833001896739000000
-0.03076807409524910000
0.03132760897278780000
0.01827163621783250000
0.01348956301808350000
0.03677068278193470000
-0.00593375042080879000
0.03767013177275650000
-0.02427663281559940000
0.01093580946326250000
-0.02508453093469140000
-0.03788277506828300000
0.01942270994186400000
0.02822609618306150000
0.00371858477592468000
-0.03316077589988700000
0.00995473563671112000
0.01660908758640280000
0.00110638886690139000
0.03271691128611560000
-0.01039046980440610000
-0.02756797894835470000
-0.00890810228884220000
-0.02818429097533220000
-0.00235265493392944000
-0.02135286480188360000
-0.00062632188200950600
-0.00623516738414764000
-0.01956124976277350000
-0.03360038623213760000
0.01111076027154920000
0.00206413865089416000
0.01602197065949440000
-0.01046913675963870000
0.02090991660952560000
0.00893498957157135000
-0.01850869320333000000
0.02966542169451710000
0.03705829754471770000
0.01623032614588730000
-0.02221512235701080000
0.01237767562270160000
-0.01722477003931990000
-0.02785030938684940000
0.03622989729046820000
0.01233757287263870000
-0.02092738635838030000
-0.01795124635100360000
0.03768016770482060000
-0.01879954524338240000
0.03340375795960420000
-0.00444535911083221000
-0.01991420984268180000
-0.03576021641492840000
-0.01565432921051970000
0.01914327219128600000
0.00224363431334495000
0.00514090433716773000
-0.00485322624444961000
-0.00703747384250164000
0.00171672552824020000
-0.00332275778055191000
-0.03597102314233770000
-0.01016754470765590000
0.01869417354464530000
0.00362559035420417000
0.01640016585588450000
0.00191752612590789000
-0.02760703861713400000
0.02062876150012010000
-0.01566632837057110000
-0.02119337767362590000
0.01295310258865350000
-0.00924278609454631000
-0.01597623154520980000
0.02673595771193500000
-0.02609379589557640000
-0.00054255500435829100
0.02950212731957430000
-0.02751957625150680000
0.02708820626139640000
-0.01359739899635310000
-0.02899595722556110000
-0.01319267041981220000
-0.00737321749329566000
-0.00116302818059921000
-0.02900890633463850000
-0.03814035281538960000
-0.02048418298363680000
0.03265729174017900000
0.03242940083146090000
-0.01790654845535750000
-0.03456715866923330000
-0.01694590598344800000
-0.03772982954978940000
-0.01998522132635110000
0.01737086474895470000
0.01333118975162500000
0.00358968973159790000
0.01436900347471230000
0.00998194515705108000
-0.01310111209750170000
0.01216558739542960000
-0.02072081156075000000
0.00768833979964256000
0.00006982684135437010
-0.02057625167071810000
0.00903877615928649000
0.01167760416865340000
-0.03037196770310400000
0.01655760034918780000
0.01169682666659350000
-0.01490016281604760000
-0.00158374384045600000
-0.02521569654345510000
-0.02774702757596960000
-0.02897125855088230000
-0.01101575233042240000
-0.02462320588529100000
-0.03697187453508370000
0.03770090267062180000
0.02369247376918790000
0.01141760498285290000
-0.01031767763197420000
-0.02054490149021140000
0.00155407190322875000
-0.02446955069899550000
-0.02273851819336410000
-0.01622282527387140000
0.01376639306545250000
-0.01018621213734140000
0.02631802484393110000
0.00831672549247741000
-0.00878658890724182000
0.01195152103900900000
-0.00489623844623565000
-0.02877486683428280000
-0.00589999184012413000
0.01233434304594990000
-0.01724132150411600000
0.02834018692374220000
-0.00593822821974754000
0.01773571968078610000
0.01907327398657790000
-0.03145043551921840000
0.02332587167620650000
-0.02085024490952490000
0.00068492442369461000
-0.02300912514328950000
-0.01059810258448120000
-0.02419931627810000000
0.01631575077772140000
-0.01276952028274530000
0.03458388522267340000
0.02217600122094150000
0.00748133659362792000
0.02278004959225650000
0.02294277772307390000
-0.02113426290452480000
-0.03485725447535510000
0.02010666951537130000
0.03137715533375740000
-0.03417736664414400000
0.01514923572540280000
-0.02340162917971610000
0.00649538263678550000
0.01747382804751390000
-0.02454959414899340000
0.01649251952767370000
0.02390392124652860000
-0.01395870745182030000
0.00914757698774337000
-0.02101760543882840000
-0.03539523854851720000
0.00148253142833709000
-0.00501640886068344000
0.00213562324643135000
0.01165636256337160000
0.00519569590687751000
0.01709241047501560000
-0.02524328790605060000
0.03106680884957310000
-0.02578741312026970000
0.02234886959195130000
0.02383864670991890000
-0.02437605708837500000
-0.03796311840415000000
-0.02035274356603620000
-0.03028216212987890000
-0.01615229621529570000
-0.00417078286409378000
0.03154330328106880000
-0.01178446225821970000
-0.03539615869522090000
-0.02542294748127460000
0.03453393653035160000
-0.01941888034343710000
0.01416490972042080000
0.00088881701231002800
-0.01945935375988480000
-0.02415065839886660000
-0.02836197987198820000
-0.01793039962649340000
-0.03489885106682770000
0.00342525914311408000
0.03787906095385550000
-0.00090489536523818900
-0.02783670648932450000
0.03238931670784950000
0.02722698822617530000
0.02467288449406620000
0.03644757345318790000
-0.00090281292796134900
-0.01474754698574540000
-0.01091264188289640000
-0.02179064974188800000
-0.03509417548775670000
0.03318336978554720000
0.00162465497851371000
0.00315573439002037000
-0.00102492794394493000
0.02648834511637680000
0.01826990023255340000
0.02461803331971160000
-0.01709105074405670000
0.00011046230792999200
0.00679451227188110000
-0.01880314014852040000
-0.02407503128051750000
0.02571102604269980000
-0.03059056773781770000
0.03099927678704260000
-0.01399613544344900000
-0.02041666582226750000
-0.03111809678375720000
-0.02647448331117630000
-0.00430780649185180000
0.02524499222636220000
-0.02898675203323360000
-0.02995201945304870000
-0.01038007810711860000
-0.03825397044420240000
-0.01937000267207620000
0.00595474243164062000
0.02448127046227450000
0.00014999881386756800
-0.02217610925436010000
0.03329192474484440000
-0.00833450630307197000
0.02213936671614640000
-0.02727187052369110000
0.02658491954207420000
-0.01179549284279340000
0.01777996495366090000
-0.01329204812645910000
0.03644815459847450000
-0.01206198520958420000
-0.02644373476505270000
-0.00659822672605514000
0.00915010645985603000
-0.00751852430403232000
0.01144946739077560000
0.00466280058026313000
-0.00295014679431915000
0.01600852236151690000
0.02855916693806640000
0.03319658711552610000
0.01887660846114150000
-0.01447322592139240000
-0.02977538853883740000
0.00436390191316604000
0.00973150134086608000
-0.03347951918840400000
0.01716561987996100000
-0.00126976147294044000
-0.02086162194609640000
0.01707035675644870000
0.02608673647046080000
-0.03211629390716550000
-0.02527006715536110000
-0.03753712028264990000
0.03107560053467750000
-0.00260802730917930000
0.03194639459252350000
-0.03599461913108820000
0.03007314726710310000
-0.03783907741308210000
0.02121945470571510000
-0.02324132062494750000
-0.03236107155680650000
0.01995089650154110000
-0.00244946032762527000
0.00184863060712814000
-0.01549042761325830000
0.01643493771553030000
-0.00916129164397716000
0.02784309163689610000
0.01291965320706360000
-0.01254289038479320000
-0.01674646697938440000
0.02635790780186650000
0.03708169236779210000
0.03766389563679690000
-0.00223498418927192000
0.01679473370313640000
0.02956242486834520000
0.03183047845959660000
-0.00519663468003273000
0.01541663333773610000
-0.00028083473443984900
-0.03205283731222150000
0.03254555538296690000
-0.00056480988860130300
-0.03371739014983170000
0.00078590214252471900
0.00434648245573043000
0.02947217598557470000
-0.02256166003644460000
-0.03763491287827490000
-0.00971331819891929000
-0.03581922128796570000
0.02066759020090100000
0.00946221873164176000
-0.02359975501894950000
0.01464685425162310000
-0.00156926363706588000
0.03343912586569780000
-0.03034611977636810000
0.01301067695021620000
0.03037431463599200000
0.00268767774105072000
-0.00920421071350574000
0.02694148197770110000
-0.02717145159840580000
-0.02229941077530380000
-0.01884426176548000000
0.02678892388939850000
0.02669882401823990000
-0.00693779438734054000
-0.02088629268109790000
-0.03101362660527220000
0.02799824252724640000
0.01580777764320370000
0.03161155804991720000
0.03814871236681930000
-0.03060679137706750000
0.01954906806349750000
0.02958787605166430000
-0.02461015805602070000
-0.03557585552334780000
-0.01928071491420260000
-0.03203387558460230000
0.01389284059405320000
-0.02761806920170780000
0.01445923745632170000
-0.00374493375420570000
-0.02025008946657180000
-0.03540650755167000000
0.02453382685780520000
-0.00177879631519317000
-0.02027369290590280000
-0.02950458228588100000
0.02564262226223940000
0.02559703215956680000
0.03691500797867770000
-0.00700827687978744000
0.01900247111916540000
-0.00775123946368694000
0.00386790558695793000
0.00900135934352874000
-0.01103033125400540000
-0.02959954366087910000
-0.01995556801557540000
-0.00337198376655578000
0.00604255124926567000
0.00988597050309181000
0.00360384956002235000
-0.01921322569251060000
0.03142089024186130000
0.01541800051927560000
0.02759429439902300000
-0.03790236264467230000
-0.00886727124452590000
0.00730004161596298000
-0.02462339773774140000
0.03423086926341050000
0.00401297584176063000
0.03699004277586930000
-0.03790057450532910000
0.00239326432347297000
0.01311421394348140000
-0.00485910475254058000
-0.01845644041895860000
-0.01791226118803020000
-0.02814175561070440000
0.00157814100384712000
0.03578371182084080000
-0.02793331816792480000
-0.02365344949066630000
0.01289986446499820000
-0.03172249346971510000
-0.03543638810515400000
0.00832784548401832000
-0.01413751952350130000
0.00207774341106414000
0.00414855033159255000
-0.02302320301532740000
-0.03291776776313780000
-0.00576664507389068000
-0.00859878212213516000
0.02950820699334140000
-0.01027730479836460000
0.00253113731741905000
0.00348805636167526000
0.03052144870162010000
-0.02548468858003610000
-0.03747410327196120000
0.00376037135720252000
-0.00121168792247772000
-0.01421137712895870000
-0.01573750376701350000
0.02438660338521000000
0.02958701923489570000
0.02461284026503560000
0.00850449502468109000
-0.03382649645209310000
0.01476191729307170000
0.01988077908754340000
0.02108639106154440000
0.00905011594295501000
-0.03644264861941330000
-0.03013130649924270000
0.01094085350632660000
0.02590555325150480000
-0.02668015472590920000
-0.01151712238788600000
-0.00418902188539505000
-0.03468124568462370000
0.03158526495099060000
-0.03729847446084020000
0.00043210014700889500
-0.01732989773154250000
0.01349078491330140000
-0.02533692680299280000
-0.02312728017568580000
-0.00113135948777198000
0.02431417629122730000
-0.02142416872084140000
0.03381532058119770000
-0.02908312901854510000
0.01217919960618010000
0.01608739048242560000
-0.01207935810089110000
0.03595292195677750000
-0.01641962863504880000
-0.01326128281652920000
0.01179359480738630000
-0.01801903732120990000
-0.00596101954579353000
-0.00570643693208694000
0.01580307632684700000
0.00487035512924194000
0.01497359201312060000
-0.01553517952561370000
0.03679296746850010000
-0.02839081361889830000
-0.02213321626186370000
0.02260337397456160000
0.00494552776217460000
-0.03369792923331260000
0.03428942337632170000
-0.03404889255762100000
0.00415860489010810000
0.03049593791365620000
-0.02936768531799310000
-0.00636848807334899000
-0.02905436977744100000
0.00357289239764213000
0.02574413642287250000
0.03663143143057820000
-0.01628481224179260000
-0.02699836157262320000
-0.03799668699502940000
0.03752325102686880000
0.00373207777738571000
-0.00096738338470458900
0.01704099774360650000
0.00750441104173660000
0.01226715743541710000
0.02887329831719390000
-0.02595060318708410000
0.01202310994267460000
-0.02727786451578140000
-0.02759534120559690000
-0.02507367357611650000
0.01645243912935250000
-0.03797509148716920000
0.02478306367993350000
0.02789024636149400000
0.02911596372723570000
-0.03561474382877340000
0.00810731947422027000
0.02715142443776130000
0.02135132253170010000
-0.01335493102669710000
-0.03205302730202670000
-0.03777875006198880000
-0.03751873597502700000
-0.00320295244455337000
-0.01132041774690150000
0.01715599372982970000
0.01031805202364920000
0.01371835544705390000
-0.02589178085327140000
0.02536566928029060000
0.03125036880373950000
0.00539513677358627000
-0.02232491970062250000
-0.00102499499917030000
-0.01929532364010810000
-0.03713041171431540000
0.01556944102048870000
0.02821711078286170000
0.00727714225649833000
0.03775947168469420000
-0.01185027323663230000
0.02679030224680900000
0.02402927353978150000
0.03347428515553470000
-0.00135194137692451000
0.00138393789529800000
0.02559648826718330000
0.02052446454763410000
0.02583898976445190000
-0.00070509687066078100
0.03513998910784720000
0.01669158414006230000
0.02912427112460130000
-0.03256250917911520000
-0.02513870969414710000
-0.03364594280719750000
0.03747241571545600000
0.02678399160504340000
0.01469815894961350000
-0.03557570278644560000
0.02151480689644810000
0.01499528065323820000
-0.02132649533450600000
-0.02705324068665500000
-0.00317510589957237000
0.01353607699275010000
0.02745980396866790000
0.02439343556761740000
-0.01478802971541880000
0.03435733541846270000
-0.01889686286449430000
-0.02066169865429400000
0.02948100492358200000
0.01034360006451600000
-0.02034407481551170000
0.00359275564551353000
-0.00734313577413558000
0.01123292744159690000
-0.02052835188806050000
0.01290587708353990000
0.03109725192189210000
-0.02777340263128280000
0.01686730235815040000
0.02972181513905520000
-0.02117481082677840000
0.00673507899045944000
-0.03560037165880200000
0.02758152410387990000
0.02353651821613310000
0.01554122194647780000
-0.01356941647827620000
0.01094595342874520000
0.01693286001682280000
0.02021243423223490000
-0.02059429883956900000
-0.02038734965026370000
0.01881076768040650000
-0.01272339001297950000
0.02256831154227250000
0.00191479548811912000
-0.02657305821776390000
0.01465412601828570000
0.03450816497206680000
0.02914521470665930000
-0.01373898610472670000
0.00139711424708366000
0.00541830062866210000
-0.00728794373571872000
-0.03196457028388970000
0.03725260868668550000
0.00729242339730262000
-0.00818128883838653000
0.01859631016850470000
0.03044822439551350000
0.01003414392471310000
0.03429440781474110000
-0.02891366928815840000
0.01523108780384060000
0.02100148424506180000
-0.01713309437036510000
-0.03079301863908760000
-0.02691375464200970000
-0.01551775261759750000
0.01077326387166970000
0.03608791902661320000
0.02276213839650150000
-0.00805807858705520000
-0.03728679567575450000
-0.00937728211283683000
-0.02197219803929320000
0.01259239763021460000
0.01065867766737930000
0.03544048592448230000
0.02417529374361030000
0.03685785457491870000
-0.03086877614259710000
0.01123790070414540000
0.01214918494224540000
-0.02631682157516470000
-0.01556725054979320000
0.00067498907446861200
0.03820778056979170000
0.02051277831196780000
0.02585772797465320000
-0.03822442144155500000
-0.02871961146593090000
0.03403979167342180000
0.02152541652321810000
0.01168551295995710000
0.00827665254473686000
0.00394890829920768000
0.02590553835034370000
0.03660147264599800000
0.00746412947773933000
-0.00774003565311431000
-0.03751556947827330000
-0.01876159012317650000
-0.01280238479375830000
0.02534873411059370000
-0.01802328042685980000
-0.03128512948751440000
0.00743251293897628000
0.02863562479615210000
-0.01649451814591880000
-0.03768008574843400000
0.01769765466451640000
-0.03073660656809800000
-0.02872389182448380000
0.00273729488253593000
0.03262701258063310000
0.00493462383747100000
0.02685762569308280000
-0.03510494157671920000
0.02364623174071310000
-0.00617743283510208000
0.01017794385552400000
-0.02433571964502330000
0.03275832161307330000
-0.02741852030158040000
0.01511117070913310000
-0.00542890280485153000
0.03326744213700290000
-0.00234474614262580000
0.02864671871066090000
-0.02577159181237220000
0.02445288375020020000
-0.02991310507059090000
0.02123729139566420000
0.02198423072695730000
0.01436914876103400000
0.00795624777674674000
-0.00513242930173873000
0.02691201493144030000
0.03119178488850590000
0.03798285499215120000
-0.00063303858041763300
-0.01630786992609500000
-0.01420776546001430000
0.00899442285299301000
0.03795792534947390000
0.02385229617357250000
0.03613917157053940000
0.01659290120005600000
0.03057650849223130000
0.00479727238416671000
0.03311017528176300000
0.01348854228854170000
0.00105340406298637000
0.02748284861445420000
-0.01993641629815100000
0.02458053454756730000
0.02146054431796070000
0.03732093796133990000
-0.02891537547111510000
0.03673482313752170000
0.00118678063154220000
0.02906730398535720000
-0.00932733714580535000
0.00193924084305763000
0.01143350079655640000
0.01007913425564760000
0.02515849843621250000
0.03397176042199130000
-0.00617326423525810000
0.03102475032210350000
-0.03161793202161780000
0.03391968831419940000
-0.01821087859570980000
-0.02233539521694180000
-0.02220056951045980000
0.03093383833765980000
-0.02447381056845180000
0.03820167109370230000
-0.01690809614956370000
0.02581693604588500000
-0.03066844120621680000
0.03570884838700290000
-0.01513386331498620000
0.03240812942385670000
-0.01609788089990610000
0.00545584782958030000
-0.03174586966633790000
-0.01493126526474950000
-0.00539724528789520000
-0.00052146986126899700
0.00440862774848937000
-0.03493840247392650000
-0.00555773451924324000
0.01950916275382040000
0.02330163866281500000
-0.03063766658306120000
0.01740755885839460000
-0.00707046501338481000
0.01040545105934140000
0.00857698544859886000
0.00419699773192405000
0.03191199526190750000
-0.03763902559876440000
0.01525613293051710000
-0.03312922269105910000
0.01943839713931080000
0.01491850242018690000
0.01541373878717420000
-0.01180261000990860000
-0.01749659143388270000
-0.03693137317895880000
0.01298389583826060000
-0.00575283169746398000
-0.02224497683346270000
-0.02456259541213510000
-0.01054426282644270000
0.02233302220702170000
0.00570145249366760000
-0.00135038048028945000
0.00002108514308929440
0.00604514405131340000
0.03520328179001800000
-0.01954236254096030000
-0.03817740455269810000
-0.03087948635220520000
-0.00569648295640945000
-0.03203815594315520000
0.00643675401806831000
-0.01403972879052160000
0.00645087659358978000
-0.00868385285139083000
0.03723428025841710000
0.03317377343773840000
0.02539717033505430000
0.03810513392090790000
0.00795708596706390000
-0.01913820952177040000
0.02548181638121600000
0.00899817422032356000
-0.02316620200872420000
-0.00176234543323516000
-0.02056654356420040000
-0.02721355855464930000
0.00515180081129074000
0.01444131880998610000
-0.01558529771864410000
-0.01715621352195730000
0.01008178666234010000
0.01269314438104620000
0.00737368315458297000
0.01595700904726980000
0.01493614912033080000
-0.01517556048929690000
-0.03020704351365560000
0.01237272098660460000
-0.02918787114322180000
-0.00532910600304603000
0.00217812508344650000
0.01633740216493600000
-0.00499233976006507000
-0.00332840532064437000
0.02785959467291830000
0.01222847774624820000
-0.01598351262509820000
0.03576064482331270000
0.01505535095930090000
-0.03012719005346290000
0.01813392713665960000
-0.02988668344914910000
-0.03479542955756180000
-0.02266175858676430000
-0.01807277835905550000
0.00990833342075347000
-0.01790763437747950000
-0.00271927192807197000
0.03625130280852310000
0.02588038519024840000
-0.03391391038894650000
-0.01331496797502040000
-0.00637459009885787000
-0.01250875741243360000
0.00064020976424217200
-0.00664710626006126000
-0.03511833772063250000
-0.03539124131202690000
-0.03574467822909350000
0.01663496345281600000
-0.00641284883022308000
0.00630683824419975000
-0.00202822685241699000
-0.03799397498369210000
0.02494298294186590000
-0.02461837977170940000
0.00140427425503730000
-0.01381472311913960000
0.03628666326403610000
0.00476002693176269000
0.00717047229409217000
-0.00289845839142799000
0.00212104246020317000
-0.00271731987595558000
0.01757832244038580000
0.00175441801548004000
-0.02137635834515090000
0.02518117800354950000
-0.00699736550450325000
0.00601621344685554000
-0.03549182415008540000
0.02828397229313850000
-0.02782988175749770000
-0.02498031780123710000
0.03689147159457200000
-0.01626093499362460000
-0.00817079469561576000
-0.02937335148453710000
0.03824931755661960000
-0.02410081401467320000
-0.02553057298064230000
0.00312786176800727000
-0.00040290504693984900
-0.01197051815688610000
-0.02108123525977130000
-0.03186916187405580000
0.01644722744822500000
-0.02677833661437030000
-0.02155627310276030000
-0.02282324433326720000
-0.03480801358819000000
-0.01537799276411530000
-0.03742964193224900000
-0.00509281456470489000
0.03437753394246100000
-0.01653240993618960000
-0.03486661612987510000
0.03482671454548830000
0.00415796414017677000
-0.00821950845420360000
0.00342262163758277000
-0.01658369414508340000
-0.02759538590908050000
0.03182208910584440000
0.00174311175942420000
0.01236203685402870000
0.00743008777499198000
0.00561106204986572000
0.02583418413996690000
0.01808721199631690000
-0.01089997775852680000
0.00525184348225593000
0.01737637445330610000
0.02836718037724490000
0.01056098565459250000
-0.02684556320309630000
0.00060306489467620800
-0.00062989816069602900
-0.03269826620817180000
0.01874556019902220000
0.00258774310350418000
0.00214212015271186000
0.00190978869795799000
0.01102152839303010000
-0.01300390623509880000
0.01727172359824180000
0.00033020600676536500
0.00022145733237266500
0.00409251078963279000
-0.03281965851783750000
-0.00928432680666446000
0.01989137381315230000
-0.02019122242927550000
0.02979545667767520000
0.00001811981201171870
0.02294675260782240000
0.01820785924792280000
0.01716772839426990000
0.02978475019335740000
-0.03219020739197730000
0.00328816100955009000
-0.01416169852018350000
-0.02067402377724640000
-0.02108852565288540000
0.02743716165423390000
0.03565480932593340000
-0.00881750136613845000
0.01943850517272940000
-0.03045883774757380000
-0.03119366988539690000
0.03634369000792500000
-0.01800041645765300000
0.03737131878733630000
0.01294907927513120000
-0.03273725882172580000
-0.00509582459926605000
-0.03582273423671720000
-0.03261109441518780000
-0.00467236340045928000
0.02082751691341400000
-0.02188721671700470000
0.00871533900499343000
0.00888532772660255000
0.02177611365914340000
-0.01398883573710910000
-0.01283847913146010000
0.00264151766896247000
0.03131789341568940000
0.00766991823911666000
0.00886422395706176000
0.02891755476593970000
0.02631356194615360000
-0.00440187379717826000
-0.02602777257561680000
-0.00714792869985103000
-0.03341314196586600000
-0.01916730403900140000
-0.02184895239770410000
-0.01766012050211420000
0.03428244963288300000
-0.03196131438016890000
0.01655231788754460000
-0.00852123647928237000
0.03291644528508180000
0.02920987084507940000
0.02989990636706350000
-0.00296910479664802000
-0.02732689678668970000
-0.01912565343081950000
0.02405938133597370000
0.01230152696371070000
-0.01415449008345600000
-0.02169902622699730000
-0.02461344376206390000
-0.02744863741099830000
0.01613716036081310000
-0.02849340066313740000
0.02895142510533330000
0.01242089271545410000
0.02598882094025610000
-0.02501403167843810000
0.00496649369597434000
-0.00771079398691654000
-0.02978250756859770000
0.00276403501629829000
0.00090756639838218600
-0.01771502755582330000
-0.00238230079412460000
-0.00979135371744632000
0.01127196103334420000
-0.01155975833535190000
0.02708452567458150000
0.00343758240342140000
-0.00999641604721546000
0.01172688975930210000
0.01668097451329230000
-0.03589402884244910000
-0.03642012178897850000
-0.00998229160904884000
0.01838649436831470000
-0.03365120664238920000
-0.02522525936365120000
0.02853534743189810000
0.01099598780274390000
-0.01178917102515690000
0.01532881334424010000
0.00174703449010848000
-0.02532437257468700000
0.02244677022099490000
0.03798370435833930000
0.02235027402639380000
-0.02577411010861390000
0.03752193227410310000
-0.02572462148964400000
-0.03516092523932450000
0.02882415428757660000
-0.02200573682785030000
-0.00820520147681236000
-0.00151187554001808000
-0.00371072813868522000
-0.02870836108922950000
-0.01126801036298270000
0.01987603306770320000
0.01455093547701830000
-0.00097856298089027400
0.00590671598911285000
-0.00787337310612201000
-0.01822661608457560000
-0.02044355310499660000
0.00931387022137641000
-0.01627884618937960000
0.02124374359846110000
0.01119664311408990000
-0.01174796745181080000
-0.02622725069522850000
-0.03211735934019080000
0.01156372576951980000
0.00274619832634925000
0.00884054973721504000
-0.02819510363042350000
-0.02481094002723690000
-0.02186780236661430000
0.02448882535099980000
-0.03369543701410290000
-0.03571299090981480000
-0.02166223898530000000
-0.02626454830169670000
0.01813678070902820000
0.00168894231319427000
-0.01530205458402630000
-0.02181901596486560000
-0.00007729977369308470
-0.01980736851692190000
-0.00582265481352806000
0.02220883592963210000
-0.00210540369153022000
-0.01481144130229940000
0.01647360622882840000
0.03348988667130470000
-0.02969590201973910000
-0.02713335864245890000
-0.01065094955265520000
-0.02989881858229630000
0.01063377037644380000
0.01819080486893650000
-0.02834302932024000000
0.01063960045576090000
0.02156347408890720000
0.01898739114403720000
0.03200365975499150000
0.01808800548315040000
-0.03819830715656280000
0.03394454345107070000
0.03473819419741630000
-0.03778269141912460000
0.02941134199500080000
0.01065709814429280000
-0.01368826441466800000
0.01864837110042570000
0.00679223984479904000
-0.03323119506239890000
0.01364901289343830000
-0.01375632919371120000
0.02342823520302770000
-0.03815347328782080000
0.01501779630780220000
0.02659764513373370000
-0.03262503445148460000
-0.02215200290083880000
0.02508919313549990000
-0.01584284007549280000
-0.03748488798737520000
-0.00928362458944320000
0.02988776937127110000
-0.01745724864304060000
0.01380305364727970000
0.01746876537799830000
0.03594537451863280000
0.03411965444684020000
-0.02981130033731460000
-0.03416248410940170000
-0.00196927785873413000
0.00955694168806076000
0.01964393258094780000
-0.01779270917177200000
-0.03190620616078370000
0.03594085946679110000
-0.03452153131365770000
0.01061812043190000000
0.03755682334303850000
-0.00957472436130046000
-0.02669801004230970000
-0.00553437694907188000
0.00052626058459281900
-0.00760942697525024000
-0.02563078142702570000
-0.01350702717900270000
-0.00339938327670097000
-0.03319595754146570000
-0.02629881910979740000
0.03487652167677870000
0.03264223411679260000
0.01510295271873470000
0.03366612270474430000
0.03035416826605790000
-0.01541114039719100000
0.00437173992395401000
0.01902660354971880000
-0.03309917822480200000
-0.00611347332596778000
0.02607953175902360000
0.01384871825575820000
-0.02535241097211830000
-0.00273205712437629000
-0.00921652838587760000
0.02743164822459220000
0.01014173403382300000
-0.01977215893566600000
0.01504297927021980000
0.03606216236948960000
0.02277984842658040000
0.03038126602768890000
-0.03373052924871440000
-0.02882878854870790000
-0.01542346738278860000
0.01631772145628920000
-0.00535187870264053000
-0.01274228468537330000
-0.00954520888626575000
-0.01354781165719030000
-0.02452063560485830000
0.00436392799019813000
-0.00938779301941394000
-0.02879744768142700000
0.00057635828852653500
-0.02940897271037100000
-0.01580521278083320000
0.03647008910775180000
-0.03699141740798950000
0.02083743363618850000
-0.02958624996244900000
-0.03749940544366830000
0.03155267611145970000
0.01875825226306910000
0.01373943313956260000
0.02155406400561330000
-0.03365360572934150000
-0.01356613263487810000
0.03442684188485140000
0.02571498975157730000
0.03753451630473130000
-0.01955229975283140000
-0.01954540982842440000
-0.01654022932052610000
0.00661211460828781000
0.03127414360642430000
0.02774715796113010000
-0.00710704363882541000
0.02837437763810150000
-0.01645830459892740000
-0.03377426788210860000
-0.02287072315812110000
0.03345954790711400000
0.02756380662322040000
0.03066709265112870000
-0.00152478367090225000
0.02325773611664770000
-0.00266034156084060000
0.00971397385001182000
-0.01455082558095450000
0.03544697538018220000
-0.02470768615603440000
-0.02943115308880800000
0.00533012673258781000
0.01850539073348040000
-0.02038851752877230000
-0.01436795294284820000
0.00386711955070495000
-0.03429939970374100000
0.00442062690854072000
-0.00460172817111015000
0.02680272236466400000
0.00054490938782691900
0.01286473870277400000
-0.02843051031231880000
0.02463931217789640000
0.01790355518460270000
0.03388779237866400000
0.02787367627024650000
-0.02424565702676770000
-0.00960420444607734000
-0.00722075626254081000
-0.02408152632415290000
0.00663961470127105000
-0.02409401722252360000
-0.00529335066676139000
-0.03325217962265010000
0.02518146112561220000
0.02793660387396810000
-0.03544612228870390000
0.01851850003004070000
-0.01112833246588700000
-0.01874590665102000000
0.03326011821627610000
0.03692291304469100000
0.02222609147429460000
-0.03136633336544030000
-0.03524607047438620000
0.00866042450070381000
0.02213576436042780000
-0.01522166281938550000
-0.03791103139519690000
-0.03273925930261610000
-0.00930688157677650000
0.00369304418563842000
-0.00917689315974712000
0.02403615415096280000
0.00572293251752853000
-0.01303237117826930000
0.01849428564310070000
-0.00354929640889167000
-0.00153552368283271000
-0.01467060483992090000
-0.03361066803336140000
0.03516208752989760000
0.03511627390980720000
0.00978940352797508000
-0.01690080761909480000
-0.01673650369048110000
0.03549979999661440000
-0.01699987426400180000
0.01351414248347280000
0.00059805810451507500
0.03268240019679060000
-0.00123577564954757000
-0.01009512692689890000
0.03364129737019530000
0.00404378771781921000
-0.02584402635693550000
-0.02985940314829340000
0.02622483298182480000
0.01976799964904780000
0.00114092975854873000
-0.01336940191686150000
-0.02857136726379390000
0.03060281649231910000
0.02739809826016420000
-0.00031354278326034500
-0.03212060779333110000
0.00423824787139892000
0.02910584583878510000
0.03581011667847630000
0.02955078706145280000
-0.00361168757081031000
0.02892210707068440000
0.00607588142156600000
0.01948579400777810000
-0.01221948303282260000
0.01125342026352880000
-0.00240169838070869000
-0.03096937760710710000
-0.00456854328513145000
0.01320161297917360000
-0.03245399892330160000
0.03408268466591830000
-0.02726479992270460000
0.03825614228844640000
-0.02137889526784420000
0.03385062143206590000
-0.03493597730994220000
-0.03726787492632860000
-0.01693676412105560000
-0.02273731306195250000
0.00598978996276855000
0.03806766495108600000
-0.02514101751148700000
0.01268244907259940000
-0.00997314043343067000
0.00071382895112037600
-0.03028303757309910000
0.00995139777660369000
-0.01961625739932060000
0.02083256095647810000
0.00417592003941535000
0.01230945438146590000
0.03403088822960850000
0.01242201775312420000
-0.03496629372239110000
-0.03748490661382670000
-0.00687185674905776000
0.02689634636044500000
0.00948087498545646000
0.00793923065066337000
-0.02753084339201450000
0.00046339631080627400
-0.01940554939210410000
0.00967365503311157000
-0.00630040466785430000
0.02426940575242040000
0.01534542068839070000
-0.03610777482390400000
0.03183040395379060000
0.02716676518321030000
0.02427829429507250000
-0.03170249611139290000
-0.02439890429377550000
-0.03206703439354890000
-0.01083432137966150000
-0.02668715268373480000
-0.02468502894043920000
0.03588012978434560000
-0.03787559270858760000
-0.01418962702155110000
0.02825747802853580000
0.01866133511066430000
-0.02145039103925220000
-0.03339361771941180000
-0.00759860500693321000
0.03113625571131700000
-0.02184210903942580000
-0.03202749788761130000
0.01998469233512870000
-0.02088690362870690000
-0.01509048789739600000
-0.02885985746979710000
0.02992014214396470000
0.01350345835089680000
-0.01412512920796870000
-0.00699907168745994000
0.03423428162932390000
-0.02883087843656530000
0.03308974578976630000
-0.01515361666679380000
-0.02253240719437590000
0.01192238926887510000
-0.01440528035163870000
-0.01470242813229560000
0.00478902459144592000
-0.01231247372925280000
-0.00328812375664710000
-0.02759169042110440000
0.03541247174143790000
-0.00208730250597000000
0.00569431111216545000
0.00511513277888298000
0.01253323629498480000
-0.03578776866197580000
0.00478985160589218000
0.01338578015565870000
0.02558438107371330000
0.01193796470761290000
0.02074433490633960000
0.01671643927693360000
0.01715669780969610000
-0.03318170458078380000
-0.03238484635949130000
-0.00394472852349281000
-0.02785854786634440000
0.00355817377567291000
0.03390930965542790000
-0.01345707289874550000
-0.01882213726639740000
-0.03686980530619620000
0.02379485964775080000
0.03013430908322330000
0.03452845290303230000
-0.00725303590297698000
0.00316076353192329000
0.01959843933582300000
0.03775809332728380000
-0.03030623123049730000
-0.00488467887043952000
-0.00993809476494789000
-0.00468458980321884000
-0.03390773385763160000
-0.03758144751191130000
-0.01634296961128710000
-0.00606381148099899000
-0.02024584636092180000
0.03044423088431350000
0.02010191604495040000
-0.01904193311929700000
0.00483580306172370000
0.03315542265772810000
-0.00795647315680980000
0.02502734586596480000
-0.02196569181978700000
0.00580570474267005000
-0.01933424547314640000
0.00105242803692817000
-0.02736531756818290000
0.01529920846223830000
0.00318445637822151000
0.02681113407015800000
-0.01097653619945040000
0.03679315373301500000
0.02731512859463690000
-0.00494059920310974000
-0.01786838285624980000
0.02544232830405230000
0.03475318476557730000
0.00837722420692443000
-0.02347534149885170000
0.02886082604527470000
0.02462616190314290000
0.02190079540014260000
-0.03096925839781760000
0.00764718279242515000
-0.03129924461245530000
0.02756226435303680000
0.03627414628863330000
0.00710351392626762000
0.00276490300893783000
-0.01939572207629680000
0.02028302848339080000
0.02168194577097890000
0.03820997104048720000
0.02077578380703920000
0.00204791501164436000
-0.03774819523096080000
0.00473087653517723000
-0.01416428945958610000
-0.01902939565479750000
-0.03444510698318480000
0.01642036810517310000
-0.00300314649939537000
0.01286397129297250000
0.03793192282319060000
-0.03558694198727600000
0.03386072441935530000
-0.03076904267072670000
-0.01410015672445290000
0.01176909729838370000
-0.01257905736565580000
-0.03191971033811560000
0.02964029088616370000
0.00623731315135955000
-0.03054906427860260000
-0.02041555196046820000
0.02550130710005760000
-0.00140951201319694000
0.03220707550644870000
0.03777477517724030000
-0.00061092153191566400
-0.03731193393468850000
0.00997298583388328000
0.01221818849444380000
-0.00831910595297813000
-0.01033252291381350000
0.01404622569680210000
0.02056980133056640000
0.02608880028128620000
0.03794633969664570000
0.01615103706717490000
-0.02890825830399990000
-0.01582414470613000000
0.03816469386219970000
-0.03615549951791760000
0.01937557756900780000
-0.03613596782088270000
-0.01805298775434490000
0.03194091841578480000
0.00459724664688110000
-0.00660873204469680000
-0.03537810593843460000
-0.03723040223121640000
0.00869788601994514000
0.01883558556437490000
0.00563261285424232000
-0.00870563276112079000
-0.03050725720822810000
0.03649422153830520000
0.00730221346020698000
-0.00540257245302200000
0.02390459552407260000
0.01699721068143840000
-0.00498434901237487000
-0.02276503294706340000
0.01621101796627040000
0.00575515627861022000
0.03459032252430910000
0.00590958073735237000
-0.00624860823154449000
0.03278424218297000000
0.02946394309401510000
0.02134807407855980000
0.01029311865568160000
-0.03589341416954990000
-0.03556553646922110000
-0.02377988025546070000
-0.03740926086902610000
0.00086362659931182800
0.03825569525361060000
0.02264383062720290000
-0.03767722100019450000
-0.02846949733793730000
0.00028282403945922800
-0.01176382414996620000
-0.01724114827811710000
0.01352213695645330000
0.01985933631658550000
-0.01401115208864210000
0.03384194150567050000
0.02222731336951250000
0.00240331888198852000
0.01513250544667240000
-0.00917794182896614000
-0.01907919533550730000
0.03148652985692020000
-0.03454678505659100000
0.00561857968568801000
0.02346870675683020000
-0.02559540793299670000
0.01049520447850220000
0.01451129838824270000
0.03078283742070190000
-0.02536761946976180000
0.01817174628376960000
0.00656539946794509000
0.02328171953558920000
-0.02721916884183880000
0.00461685284972190000
0.01575956493616100000
-0.02364028245210640000
-0.02460473962128160000
-0.02796106413006780000
-0.03059373423457140000
-0.02103412896394720000
0.01527039334177970000
0.03184055909514420000
-0.02812716737389560000
0.01485308259725570000
0.00287232920527458000
-0.01124554686248300000
0.01011883094906800000
-0.00065221637487411400
-0.03098342753946780000
-0.01761002093553540000
0.03075708076357840000
0.02460652217268940000
-0.02282525971531860000
0.03728223219513890000
-0.01844572834670540000
-0.01403832435607910000
-0.00375543534755706000
-0.00960600189864635000
-0.01722175069153300000
-0.02544712647795670000
-0.03246788308024400000
0.02100403606891630000
-0.00063345581293106000
0.01944343373179430000
0.02995639666914930000
0.02755661681294440000
-0.03084915131330490000
-0.02111325040459630000
0.02115217223763460000
0.01714043691754340000
0.00736442208290100000
0.02498519048094740000
0.00406125932931900000
-0.01094256900250910000
-0.01265546120703220000
-0.01638835109770290000
0.03098693862557410000
0.00565442070364952000
-0.03792806342244140000
0.00573053210973739000
0.01461842283606520000
-0.02552425861358640000
-0.03203359246253960000
0.00546839088201522000
-0.02120448090136050000
-0.01770486310124390000
0.03311900421977040000
0.00966535136103630000
-0.03425199910998340000
0.03806212916970250000
0.00238176062703132000
0.02124973759055130000
-0.03756458684802050000
-0.03112690150737760000
-0.03117503970861430000
-0.01559050753712650000
0.03472295030951490000
0.01409304887056350000
0.01698938384652130000
-0.01554956845939150000
-0.03794492781162260000
0.00467715412378311000
0.03025658801198000000
0.00023464113473892200
0.03801636025309560000
0.03246092423796650000
0.02347634360194200000
-0.02735963277518740000
-0.03506248071789740000
-0.00710383243858814000
0.01053804904222480000
0.01864949241280550000
-0.03274980559945100000
0.00335641577839851000
-0.00066027417778968800
0.02789515629410740000
-0.00208098068833351000
-0.00401179865002632000
-0.00205208361148834000
-0.02423610538244240000
0.00923117995262145000
0.00974125415086746000
0.03561602160334580000
-0.03593452647328370000
-0.03095507994294160000
-0.01182328537106510000
0.01713372394442550000
0.01725208014249800000
0.00517390668392181000
-0.02600329369306560000
-0.02695843577384940000
0.03467730060219760000
-0.00256225094199180000
0.03301278129220000000
-0.02155413851141920000
0.02979410812258720000
-0.03764266893267630000
-0.03716297447681420000
0.02445700392127030000
-0.01650022901594630000
-0.01951010897755620000
-0.02230793237686150000
-0.01438372023403640000
-0.02299904450774190000
-0.03514636680483810000
-0.02017203345894810000
0.00574464723467826000
0.00232045724987983000
-0.02302795648574820000
0.02826002612709990000
-0.00049222633242607100
0.00317932292819023000
-0.02769518457353110000
0.03158724680542940000
-0.00154044106602668000
-0.01753123477101320000
-0.01932919025421140000
0.02787636592984190000
-0.03317344933748240000
0.03612100705504410000
0.03796100243926040000
-0.03320967033505430000
-0.00105458125472068000
0.01538186147809020000
-0.03024426847696300000
0.03562350943684570000
0.00867710262537002000
-0.03794394806027410000
-0.02887586876749990000
-0.00243034586310386000
-0.03020452521741390000
-0.01709456369280810000
-0.01058726385235780000
-0.00476975366473197000
0.03681785240769380000
0.00784360244870185000
-0.01737818121910090000
0.00124744325876235000
0.02574775740504260000
-0.02438573725521560000
-0.03738932311534880000
-0.02417389675974840000
-0.00186483561992645000
0.02975745126605030000
0.00965254381299018000
-0.03319089487195010000
-0.02774216234683990000
-0.02001565881073470000
0.02966282144188880000
-0.01242629624903200000
-0.01537760905921450000
-0.03428841382265090000
0.01238897070288650000
-0.00241338461637496000
-0.03309244662523260000
0.03271182999014850000
-0.02869297936558720000
-0.01328460313379760000
0.00572916492819786000
-0.02099576219916340000
0.01598245278000830000
-0.00758470036089420000
-0.00429402291774749000
-0.00616627186536788000
0.02937027439475050000
-0.03187510371208190000
0.02031900361180300000
-0.01962748914957040000
-0.02367240004241460000
-0.00793886557221412000
-0.03248796612024300000
-0.02909247204661360000
0.03677899762988090000
-0.01620575413107870000
-0.02529549598693840000
-0.02397630922496310000
-0.03229410946369170000
0.00492164865136146000
0.03289011493325230000
-0.02502109110355370000
0.00460507348179817000
-0.00511238351464271000
-0.02754567004740230000
0.00646013766527175000
-0.02719400636851780000
-0.02448485046625130000
0.02477872744202610000
-0.01700517535209650000
0.03505965694785110000
0.00007400289177894590
0.02319202199578280000
0.02144312858581540000
-0.00844213180243968000
0.03194663301110260000
-0.00898799113929271000
0.03256913647055620000
-0.00489805266261100000
-0.00279516726732254000
-0.02089336328208440000
-0.03771013766527170000
0.03393797948956480000
-0.01814262196421620000
-0.02761202864348880000
0.01245371252298350000
0.02001471817493430000
-0.02417260222136970000
0.02817609533667560000
-0.03360490128397940000
-0.01081271655857560000
-0.01170515641570090000
-0.01711293868720530000
0.01017969846725460000
0.03766630962491030000
0.00726199522614479000
-0.03025094792246810000
-0.01328832656145090000
0.03526037558913230000
0.01259388402104370000
-0.00650905072689056000
-0.00697107985615730000
0.02735841646790500000
-0.03694477677345270000
0.03039860352873800000
0.03731935843825340000
-0.01703286729753010000
0.01998032256960860000
-0.03538055717945090000
0.01236581429839130000
-0.03344538062810890000
-0.00548752397298812000
0.01754738390445700000
-0.01936030387878410000
-0.03057113476097580000
0.02972495928406710000
-0.03188199922442430000
0.02824435755610460000
-0.00605404004454612000
0.00240625813603401000
0.01597516611218450000
-0.00542476028203964000
-0.03166224807500830000
-0.03549481928348540000
-0.02819130942225450000
-0.02509893849492070000
-0.00932859629392623000
-0.01793524436652660000
0.03176641836762420000
-0.00466862320899963000
-0.03481349721550940000
-0.00410436093807220000
-0.03088800981640810000
0.01129271835088720000
-0.02188404276967040000
-0.00370076298713684000
-0.00406917184591293000
-0.02695929259061810000
0.03601538762450210000
0.00339335948228836000
-0.03460370004177090000
-0.03232879936695090000
0.00259738788008689000
-0.02429392188787460000
0.01429313793778410000
0.01833802089095110000
0.02970122918486590000
0.00825649499893188000
-0.02715959027409550000
0.01116865128278730000
-0.01615458726882930000
-0.00984420999884605000
0.02334739640355110000
0.02035786956548690000
0.02324178442358970000
-0.00019242241978645300
-0.03801903128623960000
0.02909786626696580000
0.03653553500771520000
-0.00974291563034057000
-0.01466467417776580000
-0.02236139774322500000
-0.02871632762253280000
-0.02580903656780710000
0.00036926567554473800
0.00983064249157905000
-0.00397080555558204000
-0.01306550949811930000
0.00896784663200378000
0.00491715967655181000
-0.01307282783091060000
0.02320512756705280000
-0.00287769362330436000
0.02536099031567570000
-0.01881770230829710000
0.02762620523571960000
-0.02704624459147450000
0.01636353507637970000
0.00088891014456748900
0.02402085065841670000
0.01008691638708110000
0.00314757972955703000
0.01612273603677740000
0.00159972161054611000
-0.02999508380889890000
0.00084635615348815900
0.02249386906623840000
-0.01201101951301090000
0.03768843039870260000
-0.02393734082579610000
-0.00121796503663063000
-0.00116570293903350000
-0.03820969536900520000
0.01523091644048690000
0.03180439397692680000
-0.00920125469565391000
0.02164700254797930000
-0.02991403639316550000
-0.00206774100661277000
-0.00533562898635864000
-0.00243090093135833000
0.02107102423906320000
-0.00782299973070621000
0.03289839252829550000
0.02439591661095610000
-0.01030451245605940000
0.02528198435902590000
0.02640561386942860000
-0.02539359591901300000
-0.00121376663446426000
0.00682494789361953000
0.01885531097650520000
0.01709055900573730000
0.03166914358735080000
-0.01453847065567970000
0.02352778613567350000
0.02559369429945940000
-0.03179527819156640000
-0.01728723384439940000
0.00508728623390197000
-0.00410419702529907000
-0.01482999883592120000
-0.00781014375388622000
0.03238565847277640000
0.00275678187608718000
-0.01343270391225810000
-0.01764890737831590000
-0.00040376186370849600
0.02747472003102300000
0.02613889798521990000
0.02899437025189390000
-0.02884292230010030000
0.02910763397812840000
0.01520068570971480000
-0.00641267374157905000
-0.00293736532330513000
0.01696717366576190000
-0.01402706466615200000
-0.03693528845906250000
0.01474695280194280000
0.02477588877081870000
0.00307125598192214000
0.01419465243816370000
0.00953621417284011000
0.02592023834586140000
0.00986177474260330000
-0.03698544204235070000
0.02906845137476920000
0.02196055650711050000
-0.02035840786993500000
0.03604659065604200000
0.02853811904788010000
-0.02474045753479000000
0.02766356244683260000
-0.00214313343167304000
0.00164455547928810000
-0.01277323439717290000
0.01916807144880290000
0.03552791848778720000
0.01224157214164730000
-0.01993155479431150000
-0.00574496760964393000
0.00446109101176261000
-0.01966311782598490000
-0.00809628888964653000
-0.00135644897818565000
0.03399246558547010000
-0.00918511301279067000
0.01537513732910150000
0.00892359390854835000
0.03015540912747380000
-0.00935871526598930000
-0.01026054471731180000
0.02237477526068680000
-0.01423458941280840000
-0.00803626328706741000
0.00450112670660018000
0.03725549206137650000
-0.00960663147270679000
0.00152176618576049000
-0.00928321480751037000
0.02829775586724280000
0.03606386110186570000
-0.03196382150053970000
0.02660056576132770000
-0.03773224726319310000
0.01033177599310870000
0.03806208446621890000
-0.00487879291176795000
0.02144582942128180000
-0.01997626200318330000
-0.01973564550280570000
0.00960416719317436000
0.02999076619744300000
0.03308014944195740000
0.03223350271582600000
0.03738256171345710000
-0.02701078727841370000
0.01441012322902670000
0.02108233794569960000
-0.00933840498328208000
-0.00925158150494098000
0.02584135159850120000
0.00543929636478424000
-0.02717097848653790000
-0.00471674278378486000
0.00440663844347000000
-0.00725776143372058000
0.03224803134799000000
-0.02349631674587720000
-0.01417990960180750000
-0.03449045494198790000
0.00672271475195884000
-0.01312283612787720000
0.03111551329493520000
-0.03606203570961950000
-0.00098880752921104400
-0.00930824130773544000
-0.02617173269391050000
-0.02392373606562610000
0.00562478601932525000
0.01069825515151020000
-0.01156423799693580000
0.02944925054907790000
-0.00118598714470863000
0.00002717971801757810
-0.00615822523832321000
-0.00543963164091110000
0.00131666660308837000
0.02790280058979980000
0.02217156440019600000
-0.03153254464268680000
0.02178335934877390000
0.01257353648543350000
0.01178907975554460000
0.01584722846746440000
-0.02848601154983040000
0.02189938724040980000
0.02493389323353760000
-0.02887032181024550000
0.02675715461373320000
-0.00871047750115394000
-0.03340581804513930000
0.03732348605990400000
0.01429427787661550000
-0.01221593469381330000
0.03415499255061140000
-0.00692789629101753000
0.00201755017042160000
-0.00089934840798377900
-0.02067147009074680000
0.01944233849644660000
0.01366744562983510000
0.02307558432221410000
-0.03333398327231400000
0.02059786766767500000
0.02896581217646590000
0.00399514660239219000
-0.00763798505067825000
-0.02316360175609580000
-0.02608538232743740000
0.02650914713740340000
0.01167820394039150000
0.00673476979136466000
0.01245504617691040000
0.03443432971835130000
0.00822254642844200000
0.01027596369385710000
-0.02811748534440990000
-0.00483082979917526000
0.00595611333847045000
-0.00909878313541412000
0.02015804871916770000
-0.02449058927595610000
0.02827462926506990000
0.03242126479744910000
-0.00864448398351669000
0.03735306486487380000
-0.00188876688480377000
-0.01683782413601870000
-0.01998911611735820000
-0.01329368166625490000
0.01732528209686270000
-0.03238028660416600000
-0.01539990864694110000
-0.01527812145650380000
0.03600027784705160000
0.02373993396759030000
0.03356114402413360000
0.00721634924411773000
-0.02061453647911540000
-0.00130545347929000000
-0.02924554422497740000
0.01900870352983470000
-0.01388705708086490000
0.00611574575304985000
0.02003468200564380000
-0.00256393849849700000
0.01041534170508380000
0.00523374974727630000
-0.00179736316204071000
-0.03419695422053330000
0.02517864480614660000
0.03231960907578460000
-0.03411862626671790000
-0.03761493042111390000
-0.02834833040833470000
0.00248353928327560000
0.00365288183093070000
0.03794732317328450000
-0.03598014637827870000
0.01432849094271650000
-0.01340841501951210000
-0.03742532804608340000
0.02437363192439070000
-0.00192242488265037000
0.01597777381539340000
-0.02013241685926910000
-0.03524346277117720000
0.01747643575072280000
-0.03075022809207430000
0.00477549061179161000
-0.01467627100646490000
0.00586682558059692000
-0.01643554121255870000
0.02039640024304380000
0.02462959662079810000
-0.02013636007905000000
-0.03540689870715140000
-0.00723360106348991000
0.02182659879326820000
-0.00046352297067642200
0.01546721532940860000
-0.01689238473773000000
-0.03704927489161490000
-0.01351585984230040000
0.00005534663796424860
-0.03243844211101530000
-0.01543349400162690000
0.02489033713936800000
0.00486438721418380000
0.00344548374414443000
-0.02692817151546470000
0.00349648669362068000
-0.02503683045506470000
0.03688637539744370000
0.00137870013713836000
0.03021552786231040000
-0.00211128965020179000
-0.00868748500943183000
0.03409747406840320000
-0.00703715346753597000
0.02363616973161690000
-0.03565097600221630000
-0.02879746630787840000
-0.02319467812776560000
-0.03073102235794060000
-0.03477011248469350000
0.01235608756542200000
0.03211973980069160000
0.03461834415793410000
0.03680239245295520000
0.02869716659188270000
-0.03155386447906490000
0.01619062572717660000
0.00208925455808639000
-0.03504079207777970000
-0.03376172482967370000
0.00645607709884643000
-0.00013870373368263200
-0.00090308859944343500
0.00790002569556236000
-0.02210080064833160000
-0.00337589532136917000
0.01908470690250390000
-0.00032941997051239000
0.03405459597706790000
-0.02477252855896940000
0.00784348323941230000
0.00768487155437469000
-0.01171892508864400000
0.01107558608055110000
0.01693816110491750000
-0.01495569944381710000
0.00293357670307159000
0.02794542536139480000
-0.00034981966018676700
-0.01995803229510780000
-0.02362648770213120000
-0.01222690008580680000
-0.03069416247308250000
0.00070361047983169500
0.02834890410304060000
0.03347062692046160000
-0.03378548473119730000
-0.03085989877581590000
0.00227512046694755000
-0.01325202174484720000
-0.00963221490383148000
0.00113133341073989000
-0.01628784276545040000
0.00688329711556434000
-0.01471353322267530000
0.00397038459777832000
0.03003778681159010000
0.01811065152287480000
-0.01371268928050990000
0.00230545550584793000
-0.00603866577148437000
0.00922038778662681000
0.03076494857668870000
-0.01595982722938060000
-0.02267475984990590000
0.01547943428158760000
-0.01388476788997650000
-0.01840463466942310000
0.00910390913486480000
0.03595283254981040000
0.02560468390583990000
0.02601126953959460000
0.02866513654589650000
0.00731959566473960000
0.00548550114035606000
-0.01399623416364190000
-0.02519876323640340000
0.02248960733413690000
-0.00072659552097320500
-0.03074851259589190000
-0.00171795859932899000
0.03046571090817450000
0.02119763940572730000
0.02996005490422240000
-0.02678965032100670000
0.01814241334795950000
-0.02611258067190640000
0.03299472853541370000
0.00804986804723739000
-0.00066932290792465200
-0.00683013349771499000
0.03823086991906160000
-0.03362980112433430000
-0.01559638418257230000
-0.00718680582940578000
0.03602848574519150000
0.00186890363693237000
-0.00690621510148048000
0.00962233170866966000
-0.00756486505270004000
-0.03176876157522200000
0.00467264652252197000
0.03364898636937140000
0.00472255423665046000
-0.01486507244408130000
-0.02498282678425310000
0.01201790943741790000
0.01183694228529930000
-0.03005995601415630000
0.03357962891459460000
0.02422133460640900000
0.03104430809617040000
-0.01950529217720030000
-0.03254828602075570000
0.02123729139566420000
0.00819922611117362000
-0.00173674151301383000
0.03099376335740080000
0.00086991488933563200
-0.02970601059496400000
-0.03357934579253190000
-0.00571753084659576000
-0.03164912015199660000
-0.01956811919808380000
-0.02728683315217490000
-0.00069030746817588800
-0.02589553967118260000
0.03727112337946890000
-0.00037334114313125600
-0.02890679985284800000
-0.01392879150807850000
-0.01921537891030310000
-0.02434768155217170000
0.02381430566310880000
0.03295386955142020000
-0.02137893065810200000
-0.00558143854141235000
-0.02153543382883070000
-0.03353317081928250000
-0.02356801182031630000
0.01352394372224800000
0.00621853396296501000
-0.00947964377701282000
0.03571000322699540000
0.02555738016963000000
-0.03372648730874060000
-0.02094922028481960000
0.02406438440084450000
0.02928515896201130000
0.02154422178864470000
0.00343563035130500000
0.01635454595088950000
-0.01839352026581760000
0.03525852784514420000
0.01765523105859750000
-0.00951036438345909000
-0.01223368011415000000
-0.02248665131628510000
-0.02625732310116290000
-0.02081750705838200000
0.02047025784850120000
0.01308609545230860000
0.02566533163189880000
-0.03262143954634660000
0.01084243506193160000
0.01221916452050200000
0.01865423843264570000
-0.02247472666203970000
0.00204778835177421000
-0.01091057993471620000
-0.01947725377976890000
-0.03473785892128940000
-0.00612011551856994000
0.03384124860167500000
0.01270865276455870000
0.03409656509757040000
-0.01989145390689370000
0.02651373669505110000
-0.03689651191234580000
-0.02407684549689290000
-0.01216410100460050000
-0.00746856257319450000
0.02133696153759950000
0.01051193475723260000
0.00930430740118026000
-0.01582141593098640000
0.00756519287824630000
-0.00484974309802055000
0.02320269122719760000
0.02864142879843710000
-0.01862158253788940000
0.01687391102313990000
-0.00131919607520103000
0.01895235478878020000
0.01860515028238290000
-0.01599679701030250000
-0.02280450239777560000
-0.00545999035239219000
-0.03190245479345320000
0.00991411879658699000
0.03660654649138450000
0.00626769661903381000
-0.03528916463255880000
-0.02387627400457850000
0.00644354894757270000
0.00011088326573371800
-0.03338011354207990000
0.02584495022892950000
-0.03418193757534020000
-0.01310557313263410000
0.01091687381267540000
-0.03013114258646960000
-0.02688726782798760000
0.02695911750197410000
0.00919331610202789000
-0.02073335647583000000
-0.03790330141782760000
0.00131869316101074000
0.00030518695712089500
-0.02049166336655610000
-0.00062878429889678900
0.03192290291190140000
-0.01351907104253760000
0.03798275068402290000
-0.02040662802755830000
0.02616717293858520000
-0.01959855668246740000
-0.01586348749697200000
0.03069024905562400000
0.03200896456837650000
-0.01200694963335990000
0.02132415026426310000
0.00326375290751457000
0.02928722277283660000
0.03299536183476440000
-0.01262539811432360000
0.02093039825558660000
0.00712538138031959000
0.01722316443920130000
0.00100607797503471000
-0.01007742621004580000
-0.01073477044701570000
-0.02295190840959540000
0.00512102618813514000
0.01113834232091900000
-0.02369364909827700000
-0.03063479252159590000
0.00904031842947006000
-0.02809031493961810000
-0.03096637502312660000
-0.02640112489461890000
0.03235315904021260000
0.02066104114055630000
0.01834686100482940000
-0.00968813523650169000
-0.01003479957580560000
-0.00227462872862815000
-0.00709648802876472000
-0.02518724836409090000
0.01392843574285500000
0.01362727209925650000
-0.03012936189770690000
-0.01984505914151660000
0.03806374594569200000
-0.03048725798726080000
0.01007688045501700000
0.02676024660468100000
0.01174962893128390000
-0.02334433048963540000
-0.02834162488579750000
-0.03720379620790480000
0.02331882715225210000
0.00347962602972984000
0.00387319922447204000
0.03008758649230000000
0.02496742829680440000
-0.03362353146076200000
-0.02343709394335740000
0.02476307377219200000
0.02455121651291840000
-0.00715802796185016000
-0.00613963976502418000
0.00608199462294578000
-0.03519656509160990000
-0.02135380357503890000
-0.03542856872081750000
-0.00677892938256263000
-0.00085050612688064500
0.01531171798706050000
-0.00234475359320640000
0.01261994242668150000
0.00001242756843566890
0.00298367813229560000
0.00576899945735931000
0.02754109725356100000
