{"sizes": [4096,1], "weights": [[[-0.039614107459783500000000,-0.024090116843581100000000,-0.043213725090026800000000,-0.041154123842716200000000,-0.045424293726682600000000,-0.043084274977445600000000,-0.037654817104339500000000,-0.013108089566230700000000,0.039304446429014200000000,0.026084339246153800000000,0.028923990204930300000000,-0.027957247570157000000000,-0.020333360880613300000000,-0.042815696448087600000000,-0.025564085692167200000000,0.029760889708995800000000,0.031128808856010400000000,-0.015477690845727900000000,0.019896155223250300000000,-0.015532171353697700000000,0.013848881237208800000000,0.020445728674530900000000,0.022976027801632800000000,0.023257222026586500000000,-0.010085979476571000000000,-0.043540768325328800000000,0.035413671284914000000000,0.027574280276894500000000,-0.019522374495863900000000,0.035435076802968900000000,0.035565417259931500000000,0.013261746615171400000000,-0.022755518555641100000000,0.042628914117813100000000,0.041032873094081800000000,0.011972314678132500000000,0.018358524888753800000000,0.037112943828105900000000,0.028735011816024700000000,0.021942976862192100000000,0.042769763618707600000000,0.020587394014000800000000,0.027045415714383100000000,-0.018937628716230300000000,-0.044702608138322800000000,0.022816246375441500000000,-0.017121315002441400000000,-0.045260742306709200000000,0.010899748653173400000000,0.023326162248849800000000,-0.031640019267797400000000,-0.045180141925811700000000,-0.017460513859987200000000,0.025768356397747900000000,-0.042048469185829100000000,0.031574271619319900000000,-0.012631223537027800000000,0.042090926319360700000000,-0.026148013770580200000000,-0.044191326946020100000000,-0.015814829617738700000000,-0.024628374725580200000000,0.010834798216819700000000,-0.011560584418475600000000,0.019194522872567100000000,-0.018060861155390700000000,-0.025747187435626900000000,0.040688484907150200000000,0.038704715669155100000000,0.026535505428910200000000,-0.018311137333512300000000,-0.014575902372598600000000,0.020461151376366600000000,0.043299410492181700000000,-0.036329653114080400000000,-0.022887814790010400000000,0.026751130819320600000000,0.012426370754837900000000,0.038588333874940800000000,0.020836792886257100000000,0.046246763318777000000000,-0.009457124397158620000000,-0.011227866634726500000000,0.033129032701253800000000,-0.014036926440894600000000,-0.009504678659141060000000,0.020152507349848700000000,0.036576878279447500000000,0.029103923588991100000000,-0.024537924677133500000000,0.016939641907811100000000,-0.030463298782706200000000,0.028116481378674500000000,0.043135412037372500000000,-0.047096949070692000000000,-0.038020323961973100000000,0.031642138957977200000000,-0.011476897634565800000000,-0.024692678824067100000000,-0.014648301526904100000000,0.018424885347485500000000,0.030662801116704900000000,-0.012470856308937000000000,0.045879047363996500000000,0.024850400164723300000000,-0.020986406132578800000000,-0.013079635798931100000000,0.020642681047320300000000,0.046293999999761500000000,-0.025922397151589300000000,-0.029623793438076900000000,0.019570931792259200000000,-0.012624594382941700000000,0.043182291090488400000000,0.018086491152644100000000,0.016171162948012300000000,0.037621475756168300000000,-0.035850688815116800000000,0.015799429267644800000000,-0.045392177999019600000000,-0.029520507901906900000000,0.038760520517826000000000,0.020137103274464600000000,-0.014321853406727300000000,0.032719600945711100000000,0.020269216969609200000000,0.010017179884016500000000,0.028352728113532000000000,0.041065484285354600000000,0.032053824514150600000000,0.013634119182825000000000,-0.031143769621849000000000,-0.029159363359212800000000,0.028828635811805700000000,-0.019651506096124600000000,0.016377411782741500000000,0.018616041168570500000000,0.017371991649270000000000,0.045649599283933600000000,-0.016718436032533600000000,0.030108686536550500000000,0.026871046051383000000000,-0.041757121682167000000000,-0.012586856260895700000000,0.015725357457995400000000,-0.009730721823871130000000,0.024937162175774500000000,0.023897035047411900000000,-0.043351177126169200000000,0.046622913330793300000000,-0.046901963651180200000000,-0.032353080809116300000000,-0.025715421885251900000000,-0.032747872173786100000000,-0.039529398083686800000000,-0.016575841233134200000000,-0.030394611880183200000000,0.009589174762368200000000,-0.037733022123575200000000,0.028112659230828200000000,0.032579082995653100000000,-0.038623776286840400000000,0.011991644278168600000000,0.014968428760766900000000,0.044787187129259100000000,-0.014500260353088300000000,-0.018731189891695900000000,-0.039680939167737900000000,-0.012985918670892700000000,0.032977677881717600000000,0.017357101663947100000000,-0.025138402357697400000000,0.034782055765390300000000,-0.029553411528468100000000,0.040967192500829600000000,-0.031049424782395300000000,-0.020519694313406900000000,-0.006806445308029650000000,0.046033844351768400000000,0.036034617573022800000000,-0.036604303866624800000000,-0.034063216298818500000000,-0.019908569753170000000000,-0.045099563896656000000000,-0.010092115961015200000000,-0.018461849540472000000000,0.037204887717962200000000,-0.021230911836028000000000,0.041256509721279100000000,-0.012314187362790100000000,-0.013315697200596300000000,-0.026183364912867500000000,-0.012324901297688400000000,0.020036591216921800000000,-0.038354847580194400000000,-0.018269307911396000000000,-0.038056962192058500000000,-0.029034035280346800000000,-0.011527408845722600000000,-0.011702158488333200000000,0.035754289478063500000000,0.020534258335828700000000,0.032717738300561900000000,-0.013638730160892000000000,0.029086573049426000000000,0.024366427212953500000000,0.016730340197682300000000,0.030898302793502800000000,0.019145272672176300000000,0.041044846177101100000000,-0.017502982169389700000000,-0.018432831391692100000000,-0.010812647640705100000000,0.030169175937771700000000,0.036044370383024200000000,-0.042188040912151300000000,-0.041079171001911100000000,-0.035142064094543400000000,-0.036078829318284900000000,0.036484617739915800000000,-0.012463900260627200000000,-0.037907235324382700000000,0.025118961930274900000000,-0.035982184112071900000000,-0.020119827240705400000000,-0.013323265127837600000000,-0.016613237559795300000000,-0.010963914915919300000000,-0.015960706397891000000000,0.042086459696292800000000,-0.031324766576290100000000,-0.037514783442020400000000,0.027522683143615700000000,0.021557176485657600000000,0.043906357139348900000000,-0.035729166120290700000000,0.034465890377759900000000,0.018325759097933700000000,-0.038811083883047100000000,0.043176189064979500000000,-0.030384456738829600000000,-0.044885065406560800000000,-0.023120719939470200000000,-0.024245578795671400000000,0.026369068771600700000000,-0.020267482846975300000000,0.017266089096665300000000,-0.015926171094179100000000,0.025135720148682500000000,-0.030956668779253900000000,0.015270496718585400000000,-0.023943994194269100000000,0.038314837962388900000000,0.039318606257438600000000,0.034934058785438500000000,0.038837417960166900000000,-0.030327323824167200000000,-0.041745673865079800000000,0.018359186127781800000000,-0.018531572073698000000000,-0.010630288161337300000000,0.021738512441515900000000,0.030387191101908600000000,-0.045053135603666300000000,0.028475947678089100000000,0.012523045763373300000000,-0.019729584455490100000000,-0.030465902760624800000000,-0.032746635377407000000000,-0.032780554145574500000000,0.012060138396918700000000,0.011993880383670300000000,0.036791931837797100000000,0.013110423460602700000000,-0.012237639166414700000000,-0.012027397751808100000000,-0.015622648410499000000000,-0.022782674059271800000000,0.038846254348754800000000,-0.020340878516435600000000,-0.014490517787635300000000,-0.045647218823432900000000,0.012137927114963500000000,-0.019480688497424100000000,0.019826430827379200000000,0.036935873329639400000000,0.022579446434974600000000,0.033402983099222100000000,0.028158200904726900000000,0.039771888405084600000000,0.020445758476853300000000,0.040542863309383300000000,-0.022265732288360500000000,-0.020669192075729300000000,0.033068362623453100000000,-0.029842181131243700000000,-0.040114175528287800000000,0.034894693642854600000000,0.037075385451316800000000,0.031771004199981600000000,-0.029343914240598600000000,0.030068814754486000000000,-0.024861620739102300000000,0.035798899829387600000000,0.045491706579923600000000,0.012009544298052700000000,0.045570712536573400000000,0.028239255771040900000000,-0.031678535044193200000000,0.035946942865848500000000,-0.014767934568226300000000,-0.030200237408280300000000,0.015317096374928900000000,0.041138287633657400000000,-0.036703433841466900000000,-0.018162976950407000000000,-0.025893416255712500000000,-0.041341293603181800000000,-0.012387421913444900000000,0.010116190649569000000000,-0.014374289661645800000000,0.041925612837076100000000,-0.034575212746858500000000,-0.043765261769294700000000,0.010380467399954700000000,0.042502485215663900000000,0.039634741842746700000000,0.017422230914235100000000,0.044671107083559000000000,-0.029075626283884000000000,0.032370887696743000000000,-0.038886565715074500000000,-0.022487698122859000000000,0.015093473717570300000000,0.015510776080191100000000,-0.026258928701281500000000,0.033560946583747800000000,-0.020918255671858700000000,0.037175618112087200000000,-0.022394973784685100000000,0.019350027665495800000000,0.029709506779909100000000,0.041901331394910800000000,0.045380115509033200000000,-0.030707404017448400000000,0.015894062817096700000000,0.037156596779823300000000,-0.032866034656763000000000,0.045550577342510200000000,-0.018952054902911100000000,-0.010529689490795100000000,0.036724206060171100000000,-0.016369914636015800000000,-0.023025250062346400000000,0.036736570298671700000000,0.016964714974164900000000,-0.024606438353657700000000,-0.041830558329820600000000,0.015593199059367100000000,0.034218754619359900000000,0.028862094506621300000000,0.026412304490804600000000,-0.021823447197675700000000,-0.010320360772311600000000,-0.023637572303414300000000,0.019811669364571500000000,0.040523614734411200000000,-0.031839668750762900000000,0.041379749774932800000000,0.026358956471085500000000,-0.016702624037861800000000,-0.011965278536081300000000,0.017770797014236400000000,0.044524677097797300000000,0.010860018432140300000000,-0.035241711884737000000000,0.042139500379562300000000,0.009152166545391080000000,0.025845764204859700000000,-0.015257679857313600000000,-0.023464536294341000000000,-0.033722441643476400000000,-0.023759428411722100000000,-0.014827491715550400000000,0.016987349838018400000000,0.023444157093763300000000,-0.016068985685706100000000,0.014802848920226000000000,0.029798731207847500000000,-0.029327230527997000000000,0.014621237292885700000000,-0.033210687339305800000000,0.033372100442647900000000,0.033042009919881800000000,-0.036777351051568900000000,-0.044733125716447800000000,0.046045485883951100000000,0.011875577270984600000000,-0.029809432104229900000000,-0.025054205209016700000000,0.021360786631703300000000,-0.017296094447374300000000,-0.022213863208889900000000,0.020195286720991100000000,0.030079891905188500000000,0.026829699054360300000000,-0.022842178121209100000000,-0.040130231529474200000000,0.012253248132765200000000,-0.013476014137268000000000,0.008205136284232130000000,0.018296975642442700000000,-0.026607351377606300000000,-0.019782409071922300000000,0.022827988490462300000000,-0.034530352801084500000000,0.041847564280033100000000,-0.027433237060904500000000,-0.009911811910569660000000,0.016359003260731600000000,0.043491572141647300000000,0.015434542670845900000000,0.031262647360563200000000,-0.010062520392239000000000,-0.030960937961935900000000,0.022499382495880100000000,0.043836209923028900000000,-0.024715386331081300000000,0.023783842101693100000000,0.025421166792511900000000,0.023397477343678400000000,0.017483592033386200000000,-0.024180324748158400000000,-0.019430376589298200000000,0.011518399231135800000000,0.011248071677982800000000,0.010369672439992400000000,-0.024088617414236000000000,0.034242846071720100000000,0.022549647837877200000000,-0.040886431932449300000000,0.015975348651409100000000,-0.024822749197483000000000,-0.012885702773928600000000,0.044687651097774500000000,-0.042534988373517900000000,0.043520219624042500000000,-0.037768408656120300000000,-0.016462996602058400000000,-0.023295391350984500000000,-0.013015528209507400000000,0.028576670214533800000000,-0.028201881796121500000000,0.039425734430551500000000,0.014493967406451700000000,-0.030173065140843300000000,0.019232565537095000000000,0.013459657318890000000000,-0.040732018649578000000000,-0.012359422631561700000000,0.029793476685881600000000,0.025795482099056200000000,0.030582612380385300000000,0.039442900568246800000000,0.036931160837411800000000,0.033258672803640300000000,-0.041749197989702200000000,-0.029188454151153500000000,0.028149552643299100000000,-0.012325569055974400000000,0.020706387236714300000000,-0.035864003002643500000000,-0.042679931968450500000000,0.024173123762011500000000,-0.030369866639375600000000,-0.022493332624435400000000,0.010488045401871200000000,0.037982434034347500000000,0.023962536826729700000000,0.045629445463418900000000,-0.035496242344379400000000,-0.012430443428456700000000,0.037006720900535500000000,-0.014816766604781100000000,0.033792261034250200000000,0.035039864480495400000000,0.033923983573913500000000,0.034031186252832400000000,-0.036489576101303100000000,-0.014953110367059700000000,0.041451249271631200000000,0.030338158831000300000000,-0.034897331148386000000000,0.045575395226478500000000,0.042477961629629100000000,-0.033690392971038800000000,-0.020536884665489100000000,-0.036895800381898800000000,0.028971098363399500000000,-0.034757751971483200000000,0.030946811661124200000000,-0.022419089451432200000000,-0.034133374691009500000000,-0.017333619296550700000000,0.011283051222562700000000,0.034335039556026400000000,-0.011341328732669300000000,-0.042108327150344800000000,-0.040818177163600900000000,-0.014314351603388700000000,0.024801539257168700000000,-0.033930059522390300000000,0.020333081483840900000000,-0.045186780393123600000000,-0.039020512253046000000000,-0.014444635249674300000000,-0.041804030537605200000000,-0.031640756875276500000000,-0.031495656818151400000000,-0.019403168931603400000000,-0.022263560444116500000000,0.019235625863075200000000,-0.015539298765361300000000,-0.032654184848070100000000,-0.044754840433597500000000,0.042324606329202600000000,0.023167844861745800000000,-0.024707699194550500000000,-0.040421064943075100000000,-0.039796322584152200000000,0.043286982923746100000000,0.041694141924381200000000,-0.039529263973236000000000,0.024990767240524200000000,-0.031850345432758300000000,0.027319660410284900000000,0.022188626229763000000000,0.029173742979764900000000,-0.022963680326938600000000,-0.012072108685970300000000,0.035520143806934300000000,-0.015408271923661200000000,-0.043076608330011300000000,0.029529271647334000000000,-0.022007832303643200000000,0.017051238566637000000000,-0.012965675443410800000000,0.017418060451745900000000,0.031122110784053800000000,0.041072137653827600000000,0.025330781936645500000000,0.038926456123590400000000,0.040334545075893400000000,0.035938341170549300000000,0.027134587988257400000000,0.038965832442045200000000,0.011432581581175300000000,0.026583785191178300000000,-0.041069701313972400000000,-0.036184404045343300000000,0.031297825276851600000000,0.043242681771516700000000,0.040154810994863500000000,-0.017776982858777000000000,0.015133047476410800000000,-0.040947847068309700000000,0.019528655335307100000000,0.026357574388384800000000,0.034129928797483400000000,0.041767679154872800000000,-0.046370487660169600000000,-0.033318739384412700000000,-0.016786176711320800000000,0.033585645258426600000000,0.014601430855691400000000,-0.045868791639804800000000,-0.013465157710015700000000,-0.041066426783800100000000,0.018628964200615800000000,-0.030629821121692600000000,-0.045521102845668700000000,0.022539934143424000000000,-0.036409780383110000000000,0.043144647032022400000000,-0.018589787185192100000000,0.015384374186396500000000,-0.045600805431604300000000,-0.037584114819765000000000,-0.022705940529704000000000,-0.015056488104164600000000,-0.025455642491579000000000,0.033283758908510200000000,-0.027578486129641500000000,0.016672691330313600000000,-0.019221231341361900000000,-0.027820516377687400000000,-0.025828450918197600000000,-0.016054520383477200000000,-0.045099515467882100000000,0.043745279312133700000000,-0.042955353856086700000000,0.041718497872352600000000,-0.034507993608713100000000,-0.038410943001508700000000,-0.026043977588415100000000,-0.030204704031348200000000,-0.016418909654021200000000,0.032670859247446000000000,-0.044725809246301600000000,-0.025732154026627500000000,0.028481034561991600000000,-0.036914948374032900000000,0.041428241878747900000000,0.024110486730933100000000,-0.034856010228395400000000,0.012733669020235500000000,0.040528036653995500000000,-0.014299638569355000000000,-0.027290672063827500000000,-0.029524873942136700000000,-0.032152011990547100000000,-0.015476771630346700000000,0.036713354289531700000000,0.041907701641321100000000,-0.020189706236124000000000,-0.012849319726228700000000,0.011888099834322900000000,-0.024979332461953100000000,0.013166999444365500000000,-0.040744263678789100000000,-0.018918883055448500000000,-0.026829976588487600000000,-0.030753843486309000000000,0.019687835127115200000000,0.012265893630683400000000,0.033942893147468500000000,0.046332351863384200000000,-0.037793394178152000000000,0.013954976573586400000000,-0.036609157919883700000000,-0.028895840048789900000000,-0.033255800604820200000000,-0.017668439075350700000000,0.013649628497660100000000,0.012265257537364900000000,0.028158580884337400000000,-0.029409974813461300000000,-0.013891532085835900000000,0.038018453866243300000000,-0.035276439040899200000000,-0.020823642611503600000000,0.038588974624872200000000,-0.020327458158135400000000,0.014660793356597400000000,-0.010171602480113500000000,0.029148042201995800000000,-0.024234980344772300000000,-0.020002759993076300000000,-0.036350999027490600000000,0.035634141415357500000000,-0.017853844910860000000000,-0.046115275472402500000000,-0.016330929473042400000000,-0.021144736558198900000000,0.013425027020275500000000,-0.030823539942502900000000,0.026802254840731600000000,0.014215006493031900000000,-0.014055689796805300000000,-0.011495189741253800000000,-0.022607471793889900000000,0.020413700491189900000000,0.023275272920727700000000,-0.029627867043018300000000,-0.021636005491018200000000,-0.032009489834308600000000,-0.022124655544757800000000,-0.014946791343390900000000,0.027450015768408700000000,-0.023953061550855600000000,0.019894134253263400000000,0.024136625230312300000000,-0.016844330355525000000000,0.031248142942786200000000,0.014558104798197700000000,0.018835572525858800000000,0.016919326037168500000000,0.013535438105463900000000,0.027585294097661900000000,0.014295380562543800000000,-0.042207378894090600000000,-0.045864939689636200000000,0.010320145636796900000000,0.045219354331493300000000,-0.041492659598588900000000,0.011039008386433100000000,-0.027313951402902600000000,0.043303303420543600000000,-0.011839062906801700000000,0.011430523358285400000000,0.018723024055361700000000,0.021125480532646100000000,-0.025549648329615500000000,-0.012080030515789900000000,-0.018354766070842700000000,-0.014219465665519200000000,0.021086446940898800000000,0.042378637939691500000000,-0.021295798942446700000000,-0.034279372543096500000000,-0.029861465096473600000000,0.033596541732549600000000,0.033903326839208600000000,-0.019425805658102000000000,-0.022544413805007900000000,0.012396562844514800000000,0.011333769187331100000000,-0.011618782766163300000000,0.027785085141658700000000,0.007006420753896230000000,-0.032792884856462400000000,0.020680468529462800000000,-0.039115533232688900000000,-0.030805330723524000000000,0.034622896462678900000000,-0.036664161831140500000000,0.019090922549366900000000,-0.015171966515481400000000,-0.015690146014094300000000,0.036494918167591000000000,-0.030855573713779400000000,0.036067653447389600000000,0.021018022671341800000000,0.044605821371078400000000,-0.029740523546934100000000,0.019299961626529600000000,-0.027574898675084100000000,-0.011454120278358400000000,-0.010696473531424900000000,-0.018795685842633200000000,-0.016668880358338300000000,0.045269113034009900000000,-0.019173646345734500000000,-0.033496435731649300000000,0.035451915115118000000000,-0.034399360418319700000000,-0.036137666553258800000000,-0.038822170346975300000000,0.030382338911294900000000,-0.022298062220215700000000,0.026206471025943700000000,-0.030133778229355800000000,0.042840525507926900000000,0.028204828500747600000000,-0.040599711239337900000000,0.044736362993717100000000,-0.030319338664412400000000,0.036626916378736400000000,0.038689311593770900000000,-0.029402690008282600000000,-0.046525742858648300000000,0.044340174645185400000000,-0.025442879647016500000000,-0.016727181151509200000000,-0.017369303852319700000000,0.030698604881763400000000,0.012036871165037100000000,0.007965597324073310000000,0.026634315028786600000000,-0.026483556255698200000000,0.028427697718143400000000,-0.028941655531525600000000,0.037753619253635400000000,-0.017369495704770000000000,-0.044218894094228700000000,0.024545744061470000000000,0.024695206433534600000000,-0.036105636507272700000000,0.027261365205049500000000,0.035743135958909900000000,-0.023673940449953000000000,0.033497788012027700000000,-0.031777650117874100000000,-0.033250894397497100000000,0.041986275464296300000000,0.040716156363487200000000,0.011304129846394000000000,0.010993883945047800000000,0.040905777364969200000000,-0.015356165356934000000000,-0.033411715179681700000000,-0.024513689801096900000000,-0.031580742448568300000000,-0.025342687964439300000000,0.029878428205847700000000,-0.012343297712504800000000,-0.010515542700886700000000,-0.026649326086044300000000,-0.036158241331577300000000,0.013248203322291300000000,-0.018344139680266300000000,-0.023282699286937700000000,0.014237291179597300000000,-0.037918679416179600000000,0.043195158243179300000000,-0.031007928773760700000000,-0.027800507843494400000000,-0.030049145221710200000000,0.018799036741256700000000,0.018059056252241100000000,0.040364712476730300000000,-0.013966216705739400000000,-0.035951375961303700000000,-0.031845718622207600000000,0.040207579731941200000000,-0.037959262728691100000000,-0.041142672300338700000000,0.029754124581813800000000,-0.016244409605860700000000,0.033247321844100900000000,-0.040099371224641700000000,0.021504251286387400000000,-0.038078751415014200000000,-0.024733463302254600000000,0.036325283348560300000000,0.036869321018457400000000,-0.043217841535806600000000,-0.036417938768863600000000,-0.045480113476514800000000,0.017744973301887500000000,-0.013199285604059600000000,0.020143162459135000000000,0.013309042900800700000000,0.036544449627399400000000,0.037489395588636300000000,0.036019314080476700000000,0.043546047061681700000000,-0.029836410656571300000000,0.039672531187534300000000,0.035055082291364600000000,-0.036944668740034100000000,0.011547449976205800000000,0.035829577594995400000000,0.023467732593417100000000,-0.044152140617370600000000,0.023887669667601500000000,-0.033501777797937300000000,-0.030202228575944900000000,0.011127809993922700000000,-0.017879707738757100000000,-0.033705070614814700000000,-0.011181863024830800000000,0.037454079836606900000000,-0.016158882528543400000000,0.029077498242259000000000,-0.010660133324563500000000,-0.037177581340074500000000,0.043010432273149400000000,-0.029534013941884000000000,-0.028285153210163100000000,-0.017924409359693500000000,0.028196709230542100000000,-0.031918764114379800000000,-0.038112681359052600000000,0.016202570870518600000000,0.042788356542587200000000,0.045794207602739300000000,-0.018334455788135500000000,0.032246917486190700000000,0.013522206805646400000000,0.010896801017224700000000,0.031458612531423500000000,-0.025664344429969700000000,-0.015868190675973800000000,0.029615992680191900000000,0.021720051765441800000000,0.031897895038127800000000,0.020599905401468200000000,0.011645030230283700000000,0.010907598771154800000000,0.025172840803861600000000,0.016168829053640300000000,0.014401277527213000000000,-0.025104578584432600000000,-0.032603628933429700000000,-0.035551562905311500000000,0.023247791454195900000000,-0.030566859990358300000000,0.037248436361551200000000,0.032001923769712400000000,-0.011098650284111400000000,0.022085824981331800000000,-0.035555511713027900000000,-0.009300189092755310000000,0.011169077828526400000000,0.021397823467850600000000,0.018845908343791900000000,-0.039023622870445200000000,0.039947979152202600000000,0.024255605414509700000000,0.039318986237049100000000,-0.016949232667684500000000,-0.020496925339102700000000,0.014680455438792700000000,0.017842905595898600000000,0.041593175381422000000000,0.046162739396095200000000,-0.013148358091711900000000,0.045809391885995800000000,-0.030130529776215500000000,0.016469493508338900000000,-0.031256057322025200000000,-0.041229479014873500000000,-0.011502875946462100000000,0.025331210345029800000000,0.025239406153559600000000,-0.040943007916212000000000,-0.018856959417462300000000,0.045016154646873400000000,-0.025170385837554900000000,-0.037569489330053300000000,0.011183007620275000000000,-0.011635586619377100000000,-0.010281558148562900000000,-0.012609736062586300000000,0.027293311432003900000000,0.014184659346938100000000,-0.039563398808240800000000,0.032922778278589200000000,-0.045194655656814500000000,-0.026824932545423500000000,0.012321948073804300000000,0.042283207178115800000000,0.034485515207052200000000,0.032510373741388300000000,-0.011614159680902900000000,-0.020156975835561700000000,0.028718411922454800000000,0.022755773738026600000000,-0.023628607392311000000000,-0.020071204751729900000000,0.032035578042268700000000,0.036463737487792900000000,0.029355447739362700000000,0.040283996611833500000000,0.041770320385694500000000,0.020878795534372300000000,-0.018488263711333200000000,0.024456515908241200000000,-0.018845537677407200000000,0.043892949819564800000000,-0.040518101304769500000000,0.026604129001498200000000,0.042209912091493600000000,0.021293900907039600000000,0.033344425261020600000000,-0.025350516662001600000000,-0.016846168786287300000000,-0.011002817191183500000000,-0.031130846589803600000000,-0.034428048878908100000000,-0.032035842537879900000000,-0.016251012682914700000000,0.029991002753376900000000,0.013566897250711900000000,0.036562964320182800000000,-0.030704181641340200000000,0.035909458994865400000000,0.024034421890974000000000,0.024754308164119700000000,-0.031911995261907500000000,-0.014768397435545900000000,0.016864247620105700000000,0.020727502182126000000000,0.040814239531755400000000,0.028066115453839300000000,0.015717901289463000000000,0.029340162873268100000000,0.042825169861316600000000,-0.011149035766720700000000,-0.029080390930175700000000,-0.019808232784271200000000,-0.043710395693778900000000,0.029994308948516800000000,-0.028483930975198700000000,0.014897497370839100000000,0.033130735158920200000000,0.033955365419387800000000,0.017307674512267100000000,0.012512755580246400000000,-0.037312783300876600000000,0.037869881838560100000000,0.043859709054231600000000,-0.011055765673518100000000,-0.025215540081262500000000,-0.028316508978605200000000,0.033043280243873500000000,0.014702361077070200000000,0.033376164734363500000000,-0.017850864678621200000000,0.036900460720062200000000,-0.014168350026011400000000,-0.017245670780539500000000,0.021995672956109000000000,0.023622937500476800000000,0.029732009395956900000000,0.041930627077817900000000,-0.013367544859647700000000,0.016653997823596000000000,-0.030427472665905900000000,-0.024669550359249100000000,0.024257283657789200000000,-0.037226054817438100000000,-0.045129880309104900000000,0.030817668884992500000000,0.016456047073006600000000,0.043802555650472600000000,0.011424034833908000000000,0.028226248919963800000000,0.043995648622512800000000,-0.013456344604492100000000,0.026159033179283100000000,-0.029550716280937100000000,-0.027731014415621700000000,0.013078114949166700000000,0.026455007493495900000000,-0.024434112012386300000000,-0.039944972842931700000000,0.037092640995979300000000,0.026441669091582200000000,0.011532893404364500000000,0.010440804064273800000000,0.017512615770101500000000,-0.028394481167197200000000,0.024299373850226400000000,-0.045245960354804900000000,-0.031922638416290200000000,0.021637191995978300000000,-0.011892693117260900000000,0.036551080644130700000000,-0.035860013216733900000000,0.029856629669666200000000,0.017972940579056700000000,-0.034619223326444600000000,0.010618870146572500000000,0.017117675393819800000000,0.014339425601065100000000,-0.019316207617521200000000,0.010454114526510200000000,0.047043379396200100000000,-0.031075160950422200000000,0.013914636336266900000000,-0.039599269628524700000000,0.037863522768020600000000,0.046280633658170700000000,0.012382380664348600000000,-0.009734318591654300000000,-0.026863951236009500000000,-0.009870899841189380000000,-0.011977672576904200000000,0.009785873815417280000000,0.018856914713978700000000,-0.043936885893344800000000,-0.044088304042816100000000,-0.010585789568722200000000,-0.030978875234723000000000,0.026834160089492700000000,0.015575370751321300000000,-0.011004118248820300000000,-0.017697382718324600000000,0.026226995512843100000000,-0.039353445172309800000000,-0.031637433916330300000000,-0.033835440874099700000000,0.016782164573669400000000,0.030154613777995100000000,-0.010491278022527600000000,-0.022540440782904600000000,0.028802784159779500000000,-0.011930651031434500000000,-0.031556800007820100000000,0.041530493646860100000000,0.010955267585813900000000,0.032099448144435800000000,0.042331837117671900000000,0.038369260728359200000000,-0.024429572746157600000000,0.045248739421367600000000,0.026495046913623800000000,-0.044912975281476900000000,-0.016962582245469000000000,0.027281472459435400000000,-0.037091322243213600000000,0.013704241253435600000000,-0.032256253063678700000000,-0.025739919394254600000000,0.015872512012720100000000,-0.029829112812876700000000,0.035884417593479100000000,-0.027704400941729500000000,0.019794715568423200000000,-0.044811699539422900000000,-0.043217983096837900000000,0.033588849008083300000000,-0.034973643720149900000000,-0.043590795248746800000000,0.030160946771502400000000,-0.011678728275001000000000,0.013770740479230800000000,0.039429783821105900000000,-0.037940062582492800000000,-0.032865490764379500000000,-0.013957438059151100000000,0.027886219322681400000000,-0.019504938274621900000000,0.009997352957725520000000,0.010865128599107200000000,-0.010235335677862100000000,-0.036842476576566600000000,0.012444396503269600000000,0.031567517668008800000000,0.043172247707843700000000,0.028281781822443000000000,-0.030839551240205700000000,0.029244471341371500000000,-0.035319291055202400000000,-0.027378808706998800000000,0.045971449464559500000000,-0.032251160591840700000000,0.035024814307689600000000,0.012247646227478900000000,0.018086824566125800000000,-0.046308290213346400000000,-0.012320425361394800000000,0.027892952784895800000000,-0.011889851652085700000000,-0.032904498279094600000000,-0.038481485098600300000000,-0.019125996157526900000000,0.025739001110196100000000,-0.013646095991134600000000,0.026731798425316800000000,0.037375494837760900000000,-0.020397339016199100000000,-0.030356714501976900000000,-0.019366269931197100000000,0.024022094905376400000000,-0.034699816256761500000000,-0.042425133287906600000000,0.040321104228496500000000,-0.045324843376874900000000,0.032903369516134200000000,-0.027598010376095700000000,-0.023559577763080500000000,0.029904117807745900000000,-0.010229520499706200000000,0.016723277047276400000000,-0.042310107499361000000000,-0.011314763687551000000000,0.043791845440864500000000,0.023038500919938000000000,-0.036272753030061700000000,0.038159850984811700000000,-0.014071016572415800000000,0.014652696438133700000000,-0.020670920610427800000000,0.037031769752502400000000,0.036348279565572700000000,-0.044776603579521100000000,0.019104978069663000000000,-0.017630361020565000000000,0.023079378530383100000000,0.034009102731943100000000,0.044847588986158300000000,-0.033432234078645700000000,0.034798543900251300000000,-0.020696949213743200000000,0.038641903549432700000000,-0.015960687771439500000000,0.013549386523663900000000,-0.032708913087844800000000,-0.032848883420228900000000,0.018147468566894500000000,-0.018014986068010300000000,-0.027856236323714200000000,0.013094938360154600000000,0.015377776697278000000000,0.017452925443649200000000,0.037131272256374300000000,0.028666922822594600000000,-0.011028613895177800000000,0.009503877721726890000000,-0.018093653023242900000000,0.027059938758611600000000,-0.032285433262586500000000,-0.016799278557300500000000,-0.034479342401027600000000,-0.041357237845659200000000,0.014408163726329800000000,-0.014382897876203000000000,-0.035396847873926100000000,0.034167889505624700000000,-0.022469650954008100000000,0.031802278012037200000000,-0.039020176976919100000000,-0.037915404886007300000000,-0.038263469934463500000000,-0.029390865936875300000000,0.022327842190861700000000,-0.016545932739973000000000,0.046162493526935500000000,0.042159754782915100000000,-0.011268909089267200000000,0.021197881549596700000000,0.012244145385921000000000,0.022020393982529600000000,-0.043024681508541100000000,0.032736334949731800000000,-0.020410025492310500000000,0.027216443791985500000000,0.029289517551660500000000,-0.041506491601467100000000,0.026138618588447500000000,0.025818426162004400000000,-0.010911034420132600000000,-0.021556865423917700000000,-0.029425820335745800000000,-0.011672001332044600000000,-0.026462936773896200000000,-0.017578225582838000000000,-0.026776090264320300000000,-0.018779270350933000000000,-0.014914026483893300000000,-0.028709616512060100000000,-0.036270160228013900000000,0.039576426148414600000000,0.044416055083274800000000,0.021003995090723000000000,0.019109822809696100000000,-0.024945488199591600000000,0.013411286287009700000000,-0.034578289836645100000000,0.019849177449941600000000,0.017416914924979200000000,0.045677110552787700000000,-0.027227995917201000000000,-0.037379723042249600000000,-0.027122987434267900000000,-0.019189933314919400000000,-0.028222767636179900000000,-0.026972448453307100000000,-0.012059300206601600000000,0.015913452953100200000000,-0.043239559978246600000000,0.019900960847735400000000,-0.009661347605288020000000,0.039019126445055000000000,0.022553611546754800000000,0.011235039681196200000000,-0.022556697949767100000000,-0.016795938834547900000000,0.041758425533771500000000,0.028292983770370400000000,0.038137670606374700000000,0.029293531551957100000000,-0.016140591353178000000000,0.013596190139651200000000,-0.012308114208281000000000,0.008866420947015280000000,0.024308243766427000000000,0.037534758448600700000000,-0.020710302516818000000000,0.045724887400865500000000,0.024907805025577500000000,0.035881105810403800000000,-0.028220171108841800000000,-0.020704708993434900000000,0.034303672611713400000000,0.043403260409832000000000,0.031876709312200500000000,-0.028183277696371000000000,-0.029763272032141600000000,-0.039932563900947500000000,0.032779749482870100000000,0.011103045195341100000000,-0.031248740851879100000000,-0.014846011996269200000000,-0.016365429386496500000000,0.024803552776575000000000,-0.043436285108327800000000,0.030326981097459700000000,0.011249022558331400000000,-0.020589521154761300000000,-0.025618961080908700000000,-0.039857350289821600000000,0.028703231364488600000000,-0.020809693261981000000000,0.011213458143174600000000,-0.041892081499099700000000,0.012738847173750400000000,0.023832373321056300000000,-0.027697607874870300000000,-0.034151669591665200000000,-0.038729511201381600000000,-0.012519388459622800000000,-0.012387685477733600000000,0.019811233505606600000000,0.036022048443555800000000,0.017940664663910800000000,0.043333183974027600000000,-0.014986662194132800000000,-0.043567422777414300000000,-0.016022212803363800000000,-0.025060625746846100000000,0.012270600534975500000000,-0.023956105113029400000000,-0.045869778841733900000000,-0.037989247590303400000000,-0.016386816278100000000000,0.036837760359048800000000,0.040996372699737500000000,-0.030291650444269100000000,-0.046122241765260600000000,0.016929937526583600000000,0.028580540791153900000000,0.028033884242177000000000,0.020901879295706700000000,-0.019137937575578600000000,0.034975726157426800000000,-0.027800973504781700000000,-0.023484913632273600000000,-0.014746729284524900000000,-0.019464178010821300000000,0.040060121566057200000000,0.012073396705090900000000,0.034948445856571100000000,-0.032807473093271200000000,-0.030462821945548000000000,0.020866848528385100000000,-0.013625664636492700000000,-0.017527312040328900000000,0.035178720951080300000000,0.033145301043987200000000,0.021274043247103600000000,-0.011494435369968400000000,0.023272946476936300000000,-0.042875267565250300000000,-0.040502786636352500000000,-0.021918550133705100000000,0.024921918287873200000000,0.011650553904473700000000,-0.043511137366294800000000,0.012742383405566200000000,-0.040567073971033000000000,-0.032723300158977500000000,-0.010927233844995400000000,0.021654324606060900000000,0.027667872607707900000000,0.045721285045146900000000,0.016042815521359400000000,0.020231319591403000000000,-0.032346289604902200000000,0.018976455554366100000000,-0.039183363318443200000000,-0.009114866144955150000000,-0.036112479865550900000000,-0.038827121257781900000000,0.022381560876965500000000,0.027175281196832600000000,0.018297007307410200000000,-0.017725436016917200000000,-0.011176954023540000000000,0.027300944551825500000000,0.037704233080148600000000,0.019800985231995500000000,-0.016691727563738800000000,0.010724603198468600000000,0.040074005722999500000000,-0.031039217486977500000000,-0.035828623920679000000000,0.040808293968439100000000,-0.013619756326079300000000,-0.012438122183084400000000,-0.027199679985642400000000,0.027459945529699300000000,-0.028694476932287200000000,-0.029019827023148500000000,0.012418772093951700000000,0.020906843245029400000000,-0.026374986395239800000000,0.021358100697398100000000,-0.033544141799211500000000,0.023770703002810400000000,0.039095077663660000000000,-0.023089591413736300000000,-0.017149515450000700000000,-0.025089776143431600000000,0.041587296873331000000000,-0.015686027705669400000000,0.014999715611338600000000,0.013053193688392600000000,-0.023838920518755900000000,0.039549734443426100000000,0.013792380690574600000000,0.017954017966985700000000,-0.011251639574766100000000,-0.032658223062753600000000,0.028544742614030800000000,0.033823471516370700000000,0.028646087273955300000000,-0.012019995599985100000000,-0.016823781654238700000000,0.021927131339907600000000,0.029652424156665800000000,-0.038741845637559800000000,-0.032886885106563500000000,0.019480496644973700000000,-0.009584933519363400000000,0.020738827064633300000000,-0.020183810964226700000000,0.013289136812090800000000,-0.037512507289648000000000,-0.025082811713218600000000,-0.023956712335348100000000,0.013359881006181200000000,0.018960669636726300000000,0.035894446074962600000000,0.025239624083042100000000,-0.010421478189527900000000,-0.043014336377382200000000,0.021610494703054400000000,0.036801777780055900000000,-0.003399821231141680000000,-0.015843702480196900000000,-0.035177610814571300000000,0.035331785678863500000000,-0.018170446157455400000000,-0.033716998994350400000000,0.043020628392696300000000,0.038411341607570600000000,-0.010927245020866300000000,0.016130391508340800000000,-0.016384443268179800000000,-0.011675274930894300000000,-0.034375224262475900000000,-0.045934025198221200000000,0.016368009150028200000000,-0.038386739790439600000000,-0.034431330859661100000000,-0.017293846234679200000000,0.011568342335522100000000,0.028407251462340300000000,-0.039409343153238200000000,-0.039539124816656100000000,0.021378796547651200000000,-0.035847552120685500000000,-0.023589095100760400000000,-0.008656852878630160000000,0.028228424489498100000000,-0.017901746556162800000000,-0.019099600613117200000000,0.043946523219347000000000,-0.028207996860146500000000,0.040478296577930400000000,-0.024010984227061200000000,0.036769099533557800000000,-0.039324950426816900000000,-0.042971916496753600000000,0.025728117674589100000000,-0.027134912088513300000000,0.040970358997583300000000,-0.043972071260213800000000,0.018870692700147600000000,0.014392011798918200000000,0.010919379070401100000000,0.015641197562217700000000,0.019987111911177600000000,0.018098263069987200000000,-0.017180284485220900000000,-0.043308645486831600000000,0.046375595033168700000000,-0.016649179160594900000000,-0.027993118390440900000000,-0.011894001625478200000000,0.024638654664158800000000,0.035797886550426400000000,0.019298020750284100000000,-0.027573905885219500000000,0.012224851176142600000000,0.020284155383706000000000,-0.018955472856760000000000,-0.039622750133275900000000,-0.037028044462203900000000,0.026241600513458200000000,-0.043451838195323900000000,-0.037014581263065300000000,-0.020023165270686100000000,-0.045053780078887900000000,0.043918784707784600000000,0.011447993107140000000000,-0.024405496194958600000000,-0.016507951542735000000000,-0.039633743464946700000000,-0.034318678081035600000000,0.016843067482113800000000,-0.011440005153417500000000,-0.022843832150101600000000,-0.042668435722589400000000,-0.046213664114475200000000,0.042807918041944500000000,0.017156513407826400000000,-0.027898179367184600000000,0.015105442143976600000000,-0.020925605669617600000000,-0.011166965588927200000000,-0.037378098815679500000000,0.025389637798070900000000,-0.036692149937152800000000,0.020686857402324600000000,-0.018761036917567200000000,-0.029694378376007000000000,0.024217363446950900000000,0.030221514403820000000000,0.018932532519102000000000,0.044116985052824000000000,0.020139962434768600000000,-0.016022779047489100000000,-0.032989043742418200000000,-0.020968638360500300000000,0.038111492991447400000000,0.027626143768429700000000,0.010749543085694300000000,-0.036284063011407800000000,-0.045097954571247100000000,0.029297258704900700000000,-0.046175360679626400000000,-0.044157210737466800000000,0.025462158024311000000000,0.039744976907968500000000,-0.017313012853264800000000,-0.039967346936464300000000,-0.020858107134699800000000,0.026061652228236100000000,0.031753879040479600000000,0.011144028045237000000000,0.027575215324759400000000,0.018161660060286500000000,-0.044052757322788200000000,0.045436937361955600000000,-0.016071408987045200000000,0.010283113457262500000000,-0.042024791240692100000000,0.014628229662775900000000,-0.046130202710628500000000,-0.036089263856410900000000,0.021045662462711300000000,0.041053783148527100000000,0.022536015138030000000000,0.023500727489590600000000,0.020732820034027000000000,0.023409869521856300000000,-0.019668307155370700000000,-0.031063077971339200000000,0.009360969066619870000000,0.010054258629679600000000,-0.023101747035980200000000,0.027565969154238700000000,0.034397613257169700000000,0.036592051386833100000000,0.024433651939034400000000,0.035295557230710900000000,0.026152865961194000000000,-0.029972637072205500000000,-0.027784740552306100000000,0.016137229278683600000000,-0.014839666895568300000000,-0.030844185501337000000000,0.034076645970344500000000,-0.041106060147285400000000,-0.011804210022091800000000,0.015104020945727800000000,-0.009609632194042200000000,0.034356951713562000000000,0.013114107772707900000000,-0.010692070238292200000000,-0.017202712595462700000000,0.019009301438927600000000,0.020902590826153700000000,0.021921621635556200000000,-0.034698564559221200000000,0.015963548794388700000000,-0.043710932135581900000000,0.040095224976539600000000,0.040894847363233500000000,0.032026737928390500000000,0.017981570214033100000000,0.019511166960000900000000,-0.012860476970672600000000,0.030125197023153300000000,0.011447433382272700000000,0.025785211473703300000000,-0.011025222018361000000000,-0.021942969411611500000000,0.044653497636318200000000,0.027853246778249700000000,-0.040203347802162100000000,0.021627193316817200000000,0.021199518814682900000000,-0.041075773537158900000000,-0.036112520843744200000000,-0.031230930238962100000000,0.042585931718349400000000,0.033236764371395100000000,0.014471706002950600000000,0.020630244165658900000000,-0.026549521833658200000000,-0.019123861566185900000000,-0.021893216297030400000000,0.031246596947312300000000,-0.039811808615922900000000,0.024785339832305900000000,0.011603877879679200000000,-0.046268679201602900000000,0.038079351186752300000000,-0.023564770817756600000000,0.033660110086202600000000,0.013595852069556700000000,0.035563606768846500000000,0.018543420359492300000000,0.022234754636883700000000,-0.033560223877429900000000,0.033085498958826000000000,-0.014403979294002000000000,0.039140865206718400000000,-0.043908551335334700000000,0.032595351338386500000000,0.009201985783874980000000,0.032995335757732300000000,0.042314823716878800000000,-0.017438447102904300000000,-0.035126715898513700000000,0.045488968491554200000000,-0.042622298002243000000000,-0.017391409724950700000000,0.035967718809843000000000,0.032525494694709700000000,-0.036533616483211500000000,0.028525846078991800000000,0.021788118407130200000000,-0.034498952329158700000000,0.029922045767307200000000,-0.038001872599124900000000,-0.027695171535015100000000,-0.040076881647109900000000,0.031224953010678200000000,-0.027744783088564800000000,-0.017040122300386400000000,0.019369382411241500000000,0.043477386236190700000000,-0.037158817052841100000000,-0.022883519530296300000000,0.037930030375719000000000,-0.035842917859554200000000,-0.014581902883946800000000,0.032181505113840100000000,-0.033537153154611500000000,0.044548887759447000000000,-0.011671019718050900000000,0.045169387012720100000000,0.012449432164430600000000,-0.036783713847398700000000,-0.015333844348788200000000,0.030138814821839300000000,-0.011835115961730400000000,0.019677462056279100000000,0.028650129213929100000000,0.038437616080045700000000,0.017532236874103500000000,-0.019962226971983900000000,0.012410243041813300000000,-0.017516456544399200000000,0.014599556103348700000000,-0.014701157808303800000000,-0.015061561018228500000000,0.036676768213510500000000,0.040886823087930600000000,0.033200260251760400000000,0.032355245202779700000000,-0.015054482966661400000000,0.037375278770923600000000,0.040956050157546900000000,-0.044148176908493000000000,0.009750111959874620000000,-0.020214697346091200000000,-0.011857157573103900000000,0.009140246547758570000000,0.024132857099175400000000,-0.012060106731951200000000,-0.025659501552581700000000,0.032051563262939400000000,0.046439405530691100000000,-0.030225113034248300000000,-0.030708214268088300000000,0.035660035908222100000000,-0.028293013572692800000000,-0.025408992543816500000000,0.036755174398422200000000,0.035502653568983000000000,-0.017449934035539600000000,-0.020384581759572000000000,0.037160646170377700000000,-0.016007496044039700000000,-0.026788430288434000000000,0.012097623199224400000000,0.041976168751716600000000,-0.043477818369865400000000,0.012407255358994000000000,0.024461679160594900000000,0.041173346340656200000000,0.034847777336835800000000,0.038840271532535500000000,-0.013408159837126700000000,-0.020206212997436500000000,-0.043529521673917700000000,0.016094012185931200000000,-0.017471551895141600000000,-0.027428364381194100000000,-0.028011441230773900000000,0.034749168902635500000000,-0.028748426586389500000000,0.007798479404300450000000,0.013098185881972300000000,-0.044217966496944400000000,0.028038941323757100000000,0.011801148764789100000000,-0.033659517765045100000000,-0.040105435997247600000000,-0.011125625111162600000000,-0.033942058682441700000000,0.042136985808610900000000,0.011266740970313500000000,0.038887389004230400000000,-0.039771959185600200000000,0.036941438913345300000000,0.011604773811995900000000,0.014337104745209200000000,-0.042272545397281600000000,-0.015022152103483600000000,-0.017292862758040400000000,0.030075723305344500000000,0.016778243705630300000000,0.021952610462903900000000,0.019550289958715400000000,0.037241742014884900000000,0.031397387385368300000000,0.029233019798994000000000,-0.030271127820014900000000,0.023896606639027500000000,-0.039263021200895300000000,-0.025854418054223000000000,0.043026488274335800000000,0.010352084413170800000000,0.016879888251423800000000,0.019377237185835800000000,0.013946043327450700000000,-0.018990132957696900000000,0.037440929561853400000000,0.028457662090659100000000,-0.031389441341161700000000,-0.031294800341129300000000,0.046333562582731200000000,-0.019684974104166000000000,0.037008382380008600000000,-0.011488654650747700000000,0.010518861003220000000000,0.022729195654392200000000,0.039812792092561700000000,0.031959582120180100000000,-0.046327456831932000000000,0.033261977136135100000000,0.032574132084846400000000,0.027618184685707000000000,-0.017123263329267500000000,0.033904325217008500000000,-0.020833838731050400000000,0.040365055203437800000000,0.034163583070039700000000,0.033676818013191200000000,0.024576639756560300000000,-0.034673620015382700000000,0.007775090634822840000000,-0.015956804156303400000000,0.029902081936597800000000,-0.027960430830717000000000,0.031375773251056600000000,0.041631959378719300000000,0.025747625157237000000000,-0.046835839748382500000000,0.021154770627617800000000,-0.011446150951087400000000,-0.015704290941357600000000,0.040064651519060100000000,0.012096889317035600000000,-0.011255478486418700000000,-0.027545591816306100000000,-0.019039880484342500000000,0.020393455401062900000000,-0.023279925808310500000000,0.023524794727563800000000,-0.019027484580874400000000,-0.010891529731452400000000,-0.013999103568494300000000,0.011283149942755600000000,-0.012981465086340900000000,-0.041083239018917000000000,0.039194054901599800000000,0.043392047286033600000000,-0.012142752297222600000000,0.012212150730192600000000,-0.039337139576673500000000,-0.018738035112619400000000,0.042383473366498900000000,0.021256733685731800000000,0.037448227405548000000000,-0.025954257696866900000000,0.032935429364442800000000,0.012661226093769000000000,-0.025789892300963400000000,0.031807806342840100000000,0.036310650408267900000000,0.011444941163063000000000,0.031595468521118100000000,0.030593121424317300000000,0.035637807101011200000000,0.016028774902224500000000,-0.018829073756933200000000,0.033627230674028300000000,-0.024184826761484100000000,0.024675231426954200000000,0.034035649150609900000000,0.043517116457223800000000,-0.021739678457379300000000,0.040159489959478300000000,0.038235340267419800000000,0.015646371990442200000000,-0.010627794079482500000000,-0.033036120235919900000000,-0.018011560663580800000000,-0.014633686281740600000000,-0.011323941871523800000000,0.032363023608922900000000,0.017214639112353300000000,0.037561509758234000000000,-0.017628407105803400000000,-0.030214952304959200000000,-0.036340907216072000000000,0.019362067803740500000000,0.044150162488222100000000,-0.026729712262749600000000,-0.041972633451223300000000,-0.045692410320043500000000,0.027328340336680400000000,-0.031398769468069000000000,-0.019316509366035400000000,-0.045359067618846800000000,-0.018311327323317500000000,-0.039156999439001000000000,0.027328662574291200000000,0.034282583743333800000000,0.033888876438140800000000,0.014744677580893000000000,-0.044155426323413800000000,-0.035156786441802900000000,0.009852613322436800000000,-0.014513999223709100000000,0.011070743203163100000000,0.025567958131432500000000,0.045214910060167300000000,-0.033245556056499400000000,-0.028302757069468400000000,0.036879185587167700000000,-0.017387244850397100000000,-0.032829962670803000000000,0.033733446151018100000000,0.010856345295906000000000,0.036961458623409200000000,0.033219914883375100000000,0.016631161794066400000000,-0.017650892958045000000000,0.025223284959793000000000,-0.041344549506902600000000,-0.012663573026657100000000,0.035744983702898000000000,0.028572028502821900000000,0.010728107765316900000000,-0.021903738379478400000000,0.010954340919852200000000,0.037446543574333100000000,0.026289869099855400000000,0.029325705021619700000000,0.029612939804792400000000,0.041658572852611500000000,-0.012617185711860600000000,-0.041386559605598400000000,-0.020430106669664300000000,0.021415412425994800000000,0.036251228302717200000000,-0.033668968826532300000000,-0.042618125677108700000000,-0.041346695274114600000000,0.031962797045707700000000,0.023557050153613000000000,0.042617790400981900000000,-0.034522410482168100000000,-0.014741185121238200000000,0.043885137885808900000000,-0.013831256888806800000000,0.025736510753631500000000,-0.010835858061909600000000,0.044845387339591900000000,0.040439996868371900000000,0.022793814539909300000000,-0.013869721442461000000000,-0.020230846479535100000000,0.044814333319664000000000,-0.018265845254063600000000,0.033359348773956200000000,0.033128537237644100000000,-0.044972289353609000000000,0.041285216808319000000000,-0.023444566875696100000000,0.032736733555793700000000,-0.028471361845731700000000,0.008853503502905360000000,-0.033188004046678500000000,-0.027491193264722800000000,0.013728823512792500000000,-0.015510294586420000000000,-0.008821464143693440000000,-0.038308110088109900000000,-0.024993799626827200000000,0.036352541297674100000000,0.020174486562609600000000,-0.015940397977828900000000,0.024075146764516800000000,-0.038958445191383300000000,-0.029281917959451600000000,0.017321726307272900000000,0.039715897291898700000000,0.024402212351560500000000,-0.026589214801788300000000,-0.015139783732593000000000,0.035222686827182700000000,0.030480088666081400000000,0.019732015207409800000000,0.033965446054935400000000,-0.029045365750789600000000,-0.032976124435663200000000,0.033166538923978800000000,-0.010928203351795600000000,-0.035472661256790100000000,0.026677157729864100000000,-0.012261106632649800000000,0.021959597244858700000000,-0.041660953313112200000000,-0.016277823597192700000000,0.019964206963777500000000,-0.033174257725477200000000,-0.024672072380781100000000,0.036670152097940400000000,0.022501405328512100000000,-0.035547677427530200000000,-0.039552830159664100000000,-0.025068897753953900000000,0.045232810080051400000000,-0.044574789702892300000000,0.037905313074588700000000,-0.040081080049276300000000,0.041625175625085800000000,0.017500488087534900000000,0.021613879129290500000000,0.040677290409803300000000,0.019138133153319300000000,0.021651929244399000000000,0.020787244662642400000000,0.020949078723788200000000,0.041416257619857700000000,-0.039931397885084100000000,0.029376868158578800000000,0.018956501036882400000000,-0.016548298299312500000000,-0.020587733015418000000000,0.043316952884197200000000,0.020685976371169000000000,-0.029425207525491700000000,0.031136194244027100000000,0.018686734139919200000000,-0.021476689726114200000000,0.027689995244145300000000,-0.043129168450832300000000,0.025208719074726100000000,0.035136740654706900000000,-0.014628236182034000000000,-0.035638228058815000000000,0.032365843653678800000000,0.037867981940507800000000,0.044428806751966400000000,-0.008782664313912390000000,0.010710726492106900000000,0.023096574470400800000000,0.033694952726364100000000,0.028416944667696900000000,-0.027294965460896400000000,0.019673358649015400000000,-0.036156337708234700000000,-0.016311895102262400000000,-0.022463588044047300000000,-0.031645305454730900000000,0.014096884056925700000000,0.011832353658974100000000,0.029641654342412900000000,-0.034163098782300900000000,0.027280498296022400000000,0.024649279192090000000000,-0.018422544002532900000000,0.028740290552377700000000,0.040755227208137500000000,0.032724238932132700000000,-0.014166536740958600000000,-0.021910618990659700000000,0.021581679582595800000000,-0.032690074294805500000000,-0.027897169813513700000000,-0.035825703293085000000000,-0.044522941112518300000000,-0.035129975527524900000000,-0.041083015501499100000000,0.028596464544534600000000,-0.028154036030173300000000,0.025582471862435300000000,-0.011622564867138800000000,-0.012100654654204800000000,0.024683777242898900000000,0.044660534709692000000000,0.037675887346267700000000,0.024818154051899900000000,-0.035704545676708200000000,-0.013412596657872200000000,0.046015974134206700000000,-0.014340939931571400000000,-0.023939652368426300000000,0.011583084240555700000000,0.023363988846540400000000,0.010603985749185000000000,0.023497810587286900000000,0.034501422196626600000000,-0.011098114773631000000000,-0.026635503396391800000000,-0.019290683791041300000000,-0.013056153431534700000000,-0.020530158653855300000000,0.026715900748968100000000,0.039035994559526400000000,0.021554205566644600000000,0.017148751765489500000000,0.012297586537897500000000,-0.016990749165415700000000,-0.041037809103727300000000,0.020070057362318000000000,-0.023977795615792200000000,-0.034800600260496100000000,0.045416798442602100000000,0.041721880435943600000000,0.021492760628461800000000,0.011876917444169500000000,-0.013176403008401300000000,-0.013075520284473800000000,0.037754852324724100000000,0.030779322609305300000000,-0.026683622971177100000000,-0.012453514151275100000000,0.040616877377033200000000,0.036345738917589100000000,0.034852746874094000000000,-0.028887758031487400000000,0.043804589658975600000000,-0.021610559895634600000000,-0.016212908551096900000000,0.043151445686817100000000,-0.011794519610702900000000,-0.014228517189621900000000,0.025571564212441400000000,-0.024104559794068300000000,-0.025300795212388000000000,-0.034344803541898700000000,0.044285837560892100000000,0.013529093936085700000000,0.033195354044437400000000,-0.037846732884645400000000,0.021962681785225800000000,0.015555010177195000000000,0.010187344625592200000000,-0.031730946153402300000000,0.046719074249267500000000,-0.022936103865504200000000,-0.032336689531803100000000,-0.022506188601255400000000,0.033738605678081500000000,0.017060901969671200000000,0.018022229894995600000000,0.038954578340053500000000,-0.031222218647599200000000,-0.018699826672673200000000,0.025957781821489300000000,-0.035797663033008500000000,-0.021250901743769600000000,0.038311988115310600000000,-0.043614085763692800000000,0.014746122062206200000000,0.021644998341798700000000,-0.025694431737065300000000,-0.035588394850492400000000,0.035739291459321900000000,0.045843731611967000000000,-0.025443684309720900000000,-0.030803356319665900000000,0.042382650077342900000000,-0.022227024659514400000000,0.010394367389380900000000,-0.028993882238864800000000,0.036842741072177800000000,0.039031587541103300000000,-0.026728233322501100000000,-0.031763318926095900000000,0.043515369296073900000000,0.036713194102048800000000,-0.036487583070993400000000,-0.027076059952378200000000,-0.031541485339403100000000,0.018280303105711900000000,-0.046316199004650100000000,0.033730439841747200000000,0.025748519226908600000000,0.025703672319650600000000,0.046408116817474300000000,0.039329193532466800000000,0.028609773144125900000000,-0.032975841313600500000000,-0.014343138784170100000000,0.032638646662235200000000,-0.037615176290273600000000,0.034831378608942000000000,0.029230725020170200000000,0.033735498785972500000000,-0.010242141783237400000000,-0.026075715199112800000000,0.036638379096984800000000,-0.015688318759202900000000,0.035707458853721600000000,-0.034773360937833700000000,0.045949086546897800000000,0.032968599349260300000000,0.034687668085098200000000,-0.034931194037199000000000,0.028726782649755400000000,0.013428660109639100000000,0.036397416144609400000000,-0.015506386756896900000000,-0.044273667037487000000000,-0.035456340759992500000000,0.024233911186456600000000,0.035763211548328300000000,0.031535260379314400000000,0.020198933780193300000000,0.027615888044238000000000,-0.010103269480168800000000,-0.039956048130989000000000,0.016171505674719800000000,-0.034697011113166800000000,0.033469915390014600000000,0.045439675450325000000000,0.011950002051889800000000,-0.035327289253473200000000,-0.027826221659779500000000,0.036947913467884000000000,-0.027493130415678000000000,-0.025464778766036000000000,0.017402108758687900000000,-0.022535737603902800000000,0.013706973753869500000000,0.041529204696416800000000,0.040847573429346000000000,-0.040729038417339300000000,-0.036949496716260900000000,-0.029930988326668700000000,0.038275998085737200000000,0.030298607423901500000000,-0.018613884225487700000000,0.018268428742885500000000,-0.026664085686206800000000,-0.041970234364271100000000,-0.012806625105440600000000,0.044556699693202900000000,0.035414345562458000000000,0.012177578173577700000000,-0.040709767490625300000000,0.025369208306074100000000,-0.041068106889724700000000,0.017331415787339200000000,0.044686716049909500000000,-0.038531977683305700000000,0.011231671087443800000000,-0.045450937002897200000000,0.035132475197315200000000,0.032582528889179200000000,-0.030760865658521600000000,0.037500679492950400000000,0.029933884739875700000000,-0.011366752907633700000000,-0.016852701082825600000000,-0.013415147550404000000000,-0.021374259144067700000000,-0.032616537064313800000000,-0.031642682850360800000000,0.011736177839338700000000,-0.016391064971685400000000,0.015578744001686500000000,0.019152747467160200000000,0.023793619126081400000000,-0.023048436269164000000000,-0.017008267343044200000000,-0.010690710507333200000000,-0.014131483621895300000000,-0.036735456436872400000000,0.044835355132818200000000,0.022568803280591900000000,-0.039218295365571900000000,0.032844826579093900000000,0.015404802747070700000000,-0.038228675723075800000000,-0.022751187905669200000000,-0.035511992871761300000000,-0.045805089175701100000000,-0.025089014321565600000000,-0.034205067902803400000000,0.033354651182889900000000,0.030302027240395500000000,0.034590177237987500000000,-0.035634767264127700000000,-0.025295160710811600000000,0.037100877612829200000000,0.029431521892547600000000,-0.011898312717676100000000,0.022049011662602400000000,0.017557965591549800000000,-0.019273456186056100000000,-0.022003246471285800000000,-0.017275689169764500000000,-0.031215278431773100000000,0.041531577706336900000000,0.024242142215371100000000,-0.034675948321819300000000,0.013523881323635500000000,0.022128399461507700000000,0.037888020277023300000000,-0.025529177859425500000000,0.026352345943450900000000,-0.023877317085862100000000,-0.027409723028540600000000,0.022968633100390400000000,0.029757671058177900000000,-0.015297431498765900000000,0.015706839039921700000000,0.024647284299135200000000,0.032573610544204700000000,-0.044495452195405900000000,0.013714076019823500000000,0.030409434810280700000000,-0.034591134637594200000000,0.028324993327260000000000,-0.024145534262061100000000,-0.044600442051887500000000,-0.031482379883527700000000,-0.025405175983905700000000,-0.037630099803209300000000,0.040149766951799300000000,-0.024517338722944200000000,-0.045484140515327400000000,-0.045405205339193300000000,0.000908249989151954000000,-0.045922651886940000000000,-0.021882869303226400000000,0.039392594248056400000000,-0.016560181975364600000000,0.046072185039520200000000,0.013968762010335900000000,-0.029251445084810200000000,-0.044747702777385700000000,-0.023702254518866500000000,0.013665202073752800000000,-0.015204727649688700000000,0.025406908243894500000000,-0.046820275485515500000000,-0.045356441289186400000000,0.013676046393811700000000,-0.038060095161199500000000,-0.011373104527592600000000,0.028640039265155700000000,-0.031029704958200400000000,0.045385621488094300000000,0.014493996277451500000000,-0.040778268128633400000000,0.007981269620358940000000,0.040476039052009500000000,-0.038593418896198200000000,-0.017414515838027000000000,0.026329593732953000000000,-0.025086924433708100000000,0.018611863255500700000000,0.016885815188288600000000,-0.036216009408235500000000,0.011502454988658400000000,-0.020847341045737200000000,-0.034452959895133900000000,0.029869260266423200000000,-0.011935411952435900000000,0.046588845551013900000000,-0.040643051266670200000000,0.027681687846779800000000,0.037966489791870100000000,0.036202140152454300000000,0.014314041472971400000000,0.039879821240901900000000,0.034303732216358100000000,0.019730094820261000000000,-0.034217424690723400000000,-0.046474091708660100000000,-0.018904404714703500000000,0.016730461269617000000000,0.011301135644316600000000,0.038592752069234800000000,0.018405918031930900000000,-0.031054466962814300000000,-0.036789283156394900000000,0.046713512390851900000000,-0.036574482917785600000000,-0.020749920979142100000000,-0.022547652944922400000000,0.013194858096539900000000,-0.045729584991931900000000,-0.035085484385490400000000,-0.015210554003715500000000,-0.031098127365112300000000,-0.031161710619926400000000,0.045087132602930000000000,0.024563247337937300000000,-0.021083131432533200000000,-0.019897449761629100000000,0.020890932530164700000000,-0.031831994652748100000000,0.018441539257764800000000,0.030882040038704800000000,0.030614038929343200000000,-0.032575324177742000000000,0.026537517085671400000000,-0.024218754842877300000000,-0.016057208180427500000000,0.010943880304694100000000,0.033668033778667400000000,0.034108061343431400000000,-0.019597711041569700000000,0.028728162869811000000000,0.027346955612301800000000,-0.018747679889202100000000,0.021679464727640100000000,0.046777889132499600000000,-0.027325488626956900000000,-0.044654116034507700000000,0.035874202847480700000000,-0.022526431828737200000000,-0.030916765332221900000000,0.021612416952848400000000,0.020588019862771000000000,0.014086121693253500000000,0.026921920478343900000000,0.040620930492877900000000,-0.039174687117338100000000,-0.035485871136188500000000,-0.012931427918374500000000,-0.027254583314061100000000,0.031554348766803700000000,-0.044097833335399600000000,-0.009968763217329970000000,0.040118712931871400000000,0.031729649752378400000000,0.019870959222316700000000,0.023141955956816600000000,-0.016540732234716400000000,0.010701630264520600000000,-0.036711852997541400000000,-0.033461846411228100000000,0.021641701459884600000000,0.028519444167613900000000,-0.029846012592315600000000,0.031777005642652500000000,0.029062287881970400000000,0.041210900992155000000000,-0.043935313820838900000000,-0.011505198664963200000000,0.022421479225158600000000,0.025125769898295400000000,0.011558723635971500000000,-0.026995822787284800000000,0.040038608014583500000000,-0.035342041403055100000000,0.031202131882309900000000,0.012316124513745300000000,-0.025772403925657200000000,-0.034578982740640600000000,-0.038157079368829700000000,-0.019023176282644200000000,0.045501295477151800000000,-0.039149716496467500000000,0.032941609621047900000000,-0.041591800749301900000000,-0.024407178163528400000000,0.025057887658476800000000,-0.046076875180006000000000,0.026614736765623000000000,0.023845730349421500000000,-0.017467353492975200000000,-0.025540255010128000000000,0.013794612139463400000000,0.018616721034049900000000,-0.039290778338909100000000,0.032862592488527200000000,-0.032281208783388100000000,0.041892562061548200000000,0.016016734763979900000000,-0.027005577459931300000000,-0.039940427988767600000000,0.019862048327922800000000,-0.041926015168428400000000,-0.040309324860572800000000,-0.012569063343107700000000,0.021687943488359400000000,0.037216331809759100000000,-0.028241910040378500000000,-0.021967554464936200000000,0.021176174283027600000000,-0.015687644481658900000000,0.032572526484727800000000,-0.041161391884088500000000,0.024720823392271900000000,0.029066581279039300000000,-0.040299743413925100000000,0.012890252284705600000000,0.014894169755280000000000,0.034324515610933300000000,-0.033552989363670300000000,-0.031230907887220300000000,-0.016405927017331100000000,-0.034381601959466900000000,-0.010790323838591500000000,0.014312466606497700000000,0.011963167227804600000000,0.017361987382173500000000,-0.013311758637428200000000,-0.044565219432115500000000,-0.011470808647572900000000,0.030069438740611000000000,0.008753135800361630000000,0.022575573995709400000000,-0.036990538239479000000000,0.031189251691102900000000,-0.023616429418325400000000,-0.022694354876875800000000,0.035563100129365900000000,0.036316722631454400000000,0.032974403351545300000000,0.040865898132324200000000,0.022360518574714600000000,0.012496783398091700000000,-0.015463607385754500000000,-0.015503979288041500000000,0.030914349481463400000000,0.044069115072488700000000,0.030241787433624200000000,0.016718162223696700000000,0.033026568591594600000000,0.042287498712539600000000,0.010900172404944800000000,0.038069836795330000000000,-0.017744669690728100000000,-0.037808060646057100000000,0.009738242253661150000000,-0.023208636790513900000000,-0.035418465733528100000000,-0.012661122716963200000000,-0.025877673178911200000000,-0.024038840085268000000000,0.020872907713055600000000,0.024796642363071400000000,0.016165103763341900000000,-0.010548396967351400000000,-0.020191982388496300000000,0.031186606734991000000000,0.036120660603046400000000,-0.021000394597649500000000,0.010939393192529600000000,-0.033440258353948500000000,0.041030950844287800000000,0.022478019818663500000000,0.021710818633437100000000,0.028765918686985900000000,0.027201330289244600000000,0.027517806738615000000000,-0.026162022724747600000000,0.008914820849895470000000,0.022578720003366400000000,0.036304309964179900000000,0.022266365587711300000000,-0.032865963876247400000000,0.014648566953837800000000,-0.030826997011899900000000,0.039737001061439500000000,-0.014908998273313000000000,0.045173700898885700000000,0.033559687435626900000000,0.017896365374326700000000,0.029617127031087800000000,-0.028196783736348100000000,0.013241381384432300000000,0.013081820681691100000000,0.014177699573338000000000,0.021490262821316700000000,-0.027929907664656600000000,-0.009514762088656420000000,0.042257200926542200000000,-0.037186037749052000000000,-0.020409706979990000000000,0.025435682386159800000000,-0.040175411850214000000000,-0.032552950084209400000000,-0.032514609396457600000000,0.023760084062814700000000,-0.039788071066141100000000,-0.027344480156898400000000,0.013242865912616200000000,-0.019066944718360900000000,-0.025646654888987500000000,0.015886647626757600000000,0.034773860126733700000000,-0.014656293205916800000000,0.044858064502477600000000,0.017359916120767500000000,0.036183785647153800000000,0.012682793661952000000000,-0.029754171147942500000000,-0.041100859642028800000000,0.024311073124408700000000,0.016434228047728500000000,-0.039874993264675100000000,-0.027577364817261600000000,-0.026181958615779800000000,-0.045726515352725900000000,-0.012411379255354400000000,-0.017541864886879900000000,-0.012933859601616800000000,0.035756591707468000000000,0.015361290425062100000000,0.030751951038837400000000,0.035189401358366000000000,-0.021482896059751500000000,0.026373645290732300000000,-0.035672836005687700000000,-0.036532931029796600000000,0.022304531186819000000000,-0.021620035171508700000000,0.013103671371936700000000,0.042234964668750700000000,0.037153430283069600000000,-0.031705088913440700000000,0.014016298577189400000000,-0.018653672188520400000000,-0.033931665122509000000000,-0.044862430542707400000000,-0.013346133753657300000000,0.039323519915342300000000,0.014748448505997600000000,-0.040749505162239000000000,-0.041624117642641000000000,-0.015038845129311000000000,0.047582205384969700000000,0.034325368702411600000000,-0.037236642092466300000000,-0.036079905927181200000000,-0.034239009022712700000000,-0.036645669490098900000000,0.011059504933655200000000,-0.025076808407902700000000,0.042860031127929600000000,0.021514667198061900000000,-0.028240412473678500000000,0.032591588795185000000000,-0.018217207863926800000000,-0.019516054540872500000000,-0.036543946713209100000000,-0.012000436894595600000000,0.011390602216124500000000,0.010531268082559100000000,0.011987444013357100000000,0.032133195549249600000000,-0.042925544083118400000000,0.021526137366890900000000,-0.039499457925558000000000,-0.046508219093084300000000,0.015827955678105300000000,0.045224983245134300000000,-0.025211211293935700000000,0.011198018677532600000000,-0.021860960870981200000000,0.021387936547398500000000,-0.030561026185750900000000,-0.017592523247003500000000,-0.011145896278321700000000,-0.034837499260902400000000,0.020635874941945000000000,-0.022252129390835700000000,0.036585357040166800000000,0.016465727239847100000000,0.040476869791746100000000,-0.027298139408230700000000,0.021846776828169800000000,-0.045335073024034500000000,0.026921711862087200000000,0.033312905579805300000000,0.035035807639360400000000,0.018233401700854300000000,-0.042182486504316300000000,0.038979824632406200000000,-0.042754460126161500000000,-0.037332147359848000000000,-0.041134122759103700000000,-0.030894743278622600000000,0.016173575073480600000000,0.022362476214766500000000,0.022915437817573500000000,-0.018235700204968400000000,-0.021886292845010700000000,-0.012698718346655300000000,-0.029210537672042800000000,-0.040365643799304900000000,-0.026987276971340100000000,-0.034178793430328300000000,-0.027774762362241700000000,0.015588633716106400000000,-0.011402902193367400000000,0.021643733605742400000000,0.042552467435598300000000,0.037145577371120400000000,-0.034789294004440300000000,0.029492158442735600000000,0.034691084176301900000000,-0.017744040116667700000000,0.016219180077314300000000,0.016787163913249900000000,0.013528773561120000000000,0.012718746438622400000000,-0.046601049602031700000000,-0.023247228935360900000000,-0.027548409998416900000000,0.029757814481854400000000,0.024605384096503200000000,0.033436354249715800000000,0.026059152558445900000000,0.018982173874974200000000,0.042320959270000400000000,-0.034108489751815700000000,-0.037396933883428500000000,0.030522998422384200000000,0.021773520857095700000000,-0.020328978076577100000000,0.043791275471448800000000,0.040223669260740200000000,-0.016016431152820500000000,0.022877005860209400000000,0.019739661365747400000000,-0.045002993196249000000000,0.013110708445310500000000,0.027845267206430400000000,0.026645330712199200000000,0.032915927469730300000000,-0.033261891454458200000000,-0.026798015460371900000000,-0.035593580454587900000000,-0.014581177383661200000000,-0.041085038334131200000000,0.018589604645967400000000,-0.019634811207652000000000,-0.032966699451208100000000,-0.018289845436811400000000,0.030848056077957100000000,-0.026960626244544900000000,-0.026065662503242400000000,0.012714191339910000000000,-0.010980614461004700000000,-0.038458116352558100000000,0.016034225001931100000000,-0.034213919192552500000000,0.018311101943254400000000,-0.030152287334203700000000,-0.038827270269393900000000,-0.026933373883366500000000,-0.044246371835470100000000,0.041347656399011600000000,-0.029665822163224200000000,0.036177013069391200000000,0.022926513105630800000000,-0.015139254741370600000000,-0.037550043314695300000000,0.015932105481624600000000,-0.028552185744047100000000,0.028230406343936900000000,0.024196341633796600000000,0.027037518098950300000000,0.042200595140457100000000,0.020893713459372500000000,0.025166200473904600000000,0.036443382501602100000000,-0.024839522317051800000000,0.010332122445106500000000,-0.020780909806489900000000,-0.030731355771422300000000,-0.029666271060705100000000,0.045143511146306900000000,0.018346110358834200000000,0.025429736822843500000000,0.039180971682071600000000,-0.012367943301796900000000,0.020211128517985300000000,-0.018493805080652200000000,0.012065836228430200000000,0.027400331571698100000000,-0.017880521714687300000000,0.042819101363420400000000,0.035467445850372300000000,0.031367115676403000000000,0.039016198366880400000000,-0.035931080579757600000000,-0.045798931270837700000000,-0.032646428793668700000000,0.022081097587943000000000,-0.025817021727561900000000,-0.011369120329618400000000,-0.036506246775388700000000,0.037655480206012700000000,-0.022660972550511300000000,0.017625724896788500000000,0.038594793528318400000000,-0.020517122000455800000000,-0.043897394090890800000000,0.045824721455574000000000,-0.021549541503190900000000,0.039668980985879800000000,-0.036886069923639200000000,-0.023386344313621500000000,-0.046165686100721300000000,0.011679302901029500000000,0.030090458691120100000000,-0.027721136808395300000000,-0.023304710164666100000000,-0.011722276918590000000000,0.039530206471681500000000,-0.011985083110630500000000,-0.015024626627564400000000,0.027051979675889000000000,-0.035152476280927600000000,0.010333601385354900000000,0.009985068812966340000000,0.029239699244499200000000,-0.012241951189935200000000,-0.044500544667243900000000,0.014744030311703600000000,0.039404887706041300000000,-0.037038821727037400000000,0.044147156178951200000000,0.024411886930465600000000,0.027276018634438500000000,0.030109345912933300000000,0.045285735279321600000000,0.012943416833877500000000,-0.015047073364257800000000,-0.024965208023786500000000,0.042252022773027400000000,0.038109622895717600000000,-0.036115963011980000000000,-0.032222308218479100000000,-0.022980185225605900000000,-0.009780036285519590000000,0.017961554229259400000000,0.042684841901063900000000,-0.013688044622540400000000,-0.017574697732925400000000,0.036435287445783600000000,0.030946545302867800000000,0.024055326357483800000000,-0.016910970211029000000000,0.045565459877252500000000,-0.020765606313943800000000,0.036336425691843000000000,-0.033229626715183200000000,0.017004637047648400000000,-0.010797780938446500000000,0.026114331558346700000000,-0.019837858155369700000000,-0.010418600402772400000000,-0.040508005768060600000000,-0.029045153409242600000000,0.025804359465837400000000,-0.012931223958730600000000,0.035213746130466400000000,0.032521609216928400000000,-0.014958070591092100000000,0.037123959511518400000000,-0.018880309537053100000000,-0.039480701088905300000000,-0.039131380617618500000000,0.012163218110799700000000,-0.013202985748648600000000,0.043850656598806300000000,0.013265592977404500000000,0.012308366596698700000000,-0.016361847519874500000000,-0.020377244800329200000000,-0.030372535809874500000000,0.041851539164781500000000,0.021260570734739300000000,-0.016266889870166700000000,0.014498589560389500000000,0.028478063642978600000000,0.024769181385636300000000,-0.034089218825101800000000,0.038404963910579600000000,-0.042608581483364100000000,-0.016934430226683600000000,0.026852203533053300000000,-0.040943048894405300000000,0.011658368632197300000000,0.044128380715847000000000,0.018286060541868200000000,-0.011960753239691200000000,0.022580903023481300000000,0.026023965328931800000000,-0.043213747441768600000000,0.038991205394268000000000,0.022805456072092000000000,0.019396904855966500000000,-0.038175363093614500000000,-0.013245335780084100000000,-0.020980253815650900000000,0.031903836876153900000000,-0.041801024228334400000000,-0.038802996277809100000000,0.036947712302207900000000,-0.010049253702163600000000,0.045302007347345300000000,0.018357280641794200000000,-0.033110912889242100000000,0.011902636848390100000000,-0.016793541610240900000000,0.028579890727996800000000,-0.014637486077845000000000,-0.015391037799417900000000,0.025161389261484100000000,0.012670285068452300000000,0.040066942572593600000000,-0.017691811546683300000000,-0.023413667455315500000000,-0.021298134699463800000000,0.025414792820811200000000,0.016270117834210300000000,0.038708366453647600000000,-0.011045974679291200000000,-0.035708747804164800000000,-0.024819783866405400000000,-0.031612157821655200000000,-0.033277288079261700000000,0.045783977955579700000000,0.025206545367836900000000,-0.025641849264502500000000,-0.014157366007566400000000,0.022687425836920700000000,0.028081316500902100000000,-0.022642653435468600000000,-0.015806129202246600000000,0.012305879965424500000000,-0.039313815534114800000000,-0.045723009854555100000000,0.025334589183330500000000,-0.016130583360791200000000,-0.022932821884751300000000,0.045722723007202100000000,0.020540308207273400000000,-0.036740265786647700000000,-0.040363539010286300000000,0.025097003206610600000000,-0.028862385079264600000000,-0.024681555107235900000000,0.011051729321479700000000,-0.045648932456970200000000,0.035407762974500600000000,-0.034134879708290100000000,0.020136684179306000000000,-0.026104182004928500000000,0.027207393199205300000000,-0.039093393832445100000000,0.013806970790028500000000,0.036239009350538200000000,-0.043965086340904200000000,-0.043524473905563300000000,0.010946322232484800000000,-0.036043219268321900000000,0.027033580467104900000000,-0.017829585820436400000000,-0.012073371559381400000000,0.023507816717028600000000,-0.021736122667789400000000,-0.045798588544130300000000,-0.028284460306167600000000,0.035555627197027200000000,-0.033994402736425300000000,0.040843624621629700000000,-0.045509535819292000000000,0.030094893649220400000000,-0.024542618542909600000000,-0.011826502159237800000000,-0.020966887474060000000000,0.038302030414342800000000,-0.039916060864925300000000,0.044617041945457400000000,0.023699028417468000000000,0.042250577360391600000000,0.036402784287929500000000,-0.036612130701541900000000,0.044701188802719100000000,-0.008036885410547250000000,0.030553929507732300000000,0.025865949690341900000000,-0.024367554113268800000000,-0.022791169583797400000000,-0.015882752835750500000000,-0.031830541789531700000000,0.024310944601893400000000,-0.017396237701177500000000,-0.032671023160219100000000,-0.014406673610210400000000,0.044262915849685600000000,-0.025170508772134700000000,-0.024327451363205900000000,0.024861657992005300000000,-0.021007614210247900000000,0.026710843667387900000000,0.026229172945022500000000,0.033532965928316100000000,-0.039977882057428300000000,0.044582702219486200000000,0.022163251414895000000000,-0.045991063117980900000000,0.037878870964050200000000,-0.025067921727895700000000,0.044608715921640300000000,-0.016553724184632300000000,0.012625801376998400000000,0.010501568205654600000000,0.027454152703285200000000,0.015687253326177500000000,-0.026067512109875600000000,-0.032565470784902500000000,0.025203824043273900000000,0.036300234496593400000000,-0.024302538484334900000000,-0.037683740258216800000000,0.031180636957287700000000,0.014378250576555700000000,-0.011704974807798800000000,0.028587451204657500000000,-0.044669006019830700000000,0.045508522540330800000000,-0.015842208638787200000000,-0.038330715149641000000000,-0.015146942809224100000000,0.040148690342903100000000,-0.028763236477971000000000,0.019857902079820600000000,0.037776865065097800000000,-0.015457666479051100000000,0.034004390239715500000000,-0.014717096462845800000000,0.022649504244327500000000,-0.018017400056123700000000,0.038910720497369700000000,0.040600631386041600000000,-0.038405343890190100000000,-0.010085325688123700000000,0.041999489068984900000000,0.036722946912050200000000,0.041873995214700600000000,-0.022315856069326400000000,0.028161102905869400000000,-0.013187473639845800000000,0.016406435519456800000000,0.033303558826446500000000,0.034042589366436000000000,-0.026913074776530200000000,0.025450887158513000000000,0.036294046789407700000000,-0.019573910161852800000000,0.026937643066048600000000,-0.009132663719356060000000,0.032971423119306500000000,0.023507108911871900000000,0.013631401583552300000000,0.041912000626325600000000,-0.038941361010074600000000,0.035056471824645900000000,-0.042137615382671300000000,-0.033361833542585300000000,-0.023072129115462300000000,0.027750801295042000000000,0.021958889439702000000000,0.037796474993228900000000,-0.019362475723028100000000,-0.020888797938823600000000,0.040206935256719500000000,-0.022942449897527600000000,-0.019951241090893700000000,-0.013324894942343200000000,0.035594049841165500000000,-0.018578987568616800000000,0.044568210840225200000000,-0.038951605558395300000000,0.028957193717360400000000,0.040206301957368800000000,0.043052349239587700000000,-0.037493128329515400000000,0.017978047952055900000000,0.042920287698507300000000,-0.009908003732562060000000,0.024540573358535700000000,-0.036945000290870600000000,0.033534277230501100000000,0.027770716696977600000000,-0.012393360957503300000000,0.022669680416584000000000,0.011952295899391100000000,-0.039551753550767800000000,0.017936823889613100000000,0.041014157235622400000000,-0.038715440779924300000000,-0.040329493582248600000000,0.045743290334939900000000,0.012961458414793000000000,-0.017186626791954000000000,0.042784683406352900000000,-0.040734313428401900000000,-0.019675461575388900000000,0.042282447218894900000000,-0.040051303803920700000000,-0.041067775338888100000000,-0.021437074989080400000000,0.030197856947779600000000,0.012727380730211700000000,-0.022000364959239900000000,-0.040158681571483600000000,-0.016712116077542300000000,-0.024645805358886700000000,0.034913599491119300000000,-0.041956566274166100000000,-0.033304128795862100000000,0.018637746572494500000000,0.021958751603960900000000,-0.035870466381311400000000,-0.043683081865310600000000,0.017264345660805700000000,-0.036847162991762100000000,0.012006578966975200000000,0.014218430034816200000000,0.041448578238487200000000,0.019683947786688800000000,-0.042549129575490900000000,-0.018106920644640900000000,0.017533238977193800000000,0.040444277226924800000000,-0.038050815463066100000000,-0.029961839318275400000000,-0.027871346101164800000000,-0.037407819181680600000000,-0.022248255088925300000000,-0.037004508078098200000000,-0.039472203701734500000000,0.010703892447054300000000,0.010583018884062700000000,-0.019155431538820200000000,-0.013508890755474500000000,0.018896998837590200000000,-0.029359592124819700000000,0.044117402285337400000000,-0.031603313982486700000000,-0.036065474152565000000000,0.027793150395154900000000,-0.026458229869604100000000,0.036908365786075500000000,0.020933710038661900000000,0.016905287280678700000000,-0.037995900958776400000000,-0.022927884012460700000000,-0.006432721856981510000000,0.026161169633269300000000,0.032321728765964500000000,-0.023132467642426400000000,0.016998166218400000000000,-0.030319020152091900000000,-0.021296009421348500000000,0.019237847998738200000000,-0.042216639965772600000000,-0.013224004767835100000000,-0.038849130272865200000000,0.017940010875463400000000,-0.041242748498916600000000,-0.032023917883634500000000,0.039800759404897600000000,0.019149547442793800000000,0.039268966764211600000000,0.010882677510380700000000,0.024716319516301100000000,-0.041410636156797400000000,0.033393237739801400000000,-0.011946855112910200000000,0.033249381929636000000000,-0.031937818974256500000000,-0.027119526639580700000000,-0.009835660457611080000000,0.011713104322552600000000,0.014734758995473300000000,-0.023141821846365900000000,0.027561888098716700000000,0.019491521641612000000000,-0.026412293314933700000000,-0.029312398284673600000000,-0.025123514235019600000000,-0.027911487966775800000000,-0.032518904656171700000000,-0.036350365728139800000000,-0.043523870408535000000000,-0.035221584141254400000000,-0.023578397929668400000000,0.032000090926885600000000,0.023567449301481200000000,-0.031396247446537000000000,0.022007808089256200000000,0.044466875493526400000000,-0.015410928986966600000000,0.034211207181215200000000,-0.014292393811047000000000,0.020247727632522500000000,0.035125061869621200000000,0.014688029885292000000000,-0.023762498050928100000000,0.017772551625967000000000,0.046709049493074400000000,-0.038789663463830900000000,-0.011236037127673600000000,-0.017554242163896500000000,-0.028303328901529300000000,0.036176979541778500000000,0.033349532634019800000000,-0.012203602120280200000000,0.015843898057937600000000,-0.030123295262455900000000,0.030441517010331100000000,0.025120195001363700000000,-0.046249393373727700000000,0.016353955492377200000000,0.012893126346170900000000,0.034922916442155800000000,-0.013526576571166500000000,-0.012197300791740400000000,-0.041565340012311900000000,0.035858668386936100000000,-0.032541710883378900000000,-0.041035659611225100000000,-0.025495184585452000000000,-0.018657481297850600000000,-0.034144952893257100000000,0.039720982313156100000000,0.012478493154048900000000,0.034304056316614100000000,-0.040823303163051600000000,0.024504670873284300000000,-0.044482197612524000000000,-0.034650523215532300000000,-0.040640357881784400000000,0.011149877682328200000000,0.032360088080167700000000,0.013475489802658500000000,0.044500008225440900000000,-0.027431465685367500000000,-0.024241657927632300000000,0.013532808050513200000000,0.017005065456032700000000,0.044260039925575200000000,-0.034029543399810700000000,0.033458214253187100000000,-0.012234830297529600000000,-0.044190879911184300000000,0.036574617028236300000000,0.011049681343138200000000,-0.011064101941883500000000,-0.031349666416645000000000,0.018706029281020100000000,-0.014354169368743800000000,0.012554121203720500000000,-0.029349964112043300000000,0.028282506391406000000000,0.033112291246652600000000,0.041578564792871400000000,0.035908363759517600000000,-0.021842256188392600000000,0.010964681394398200000000,-0.011688789352774600000000,0.026461409404873800000000,0.009217500686645500000000,-0.039331201463937700000000,-0.018645947799086500000000,-0.018404575064778300000000,0.017804825678467700000000,0.026337124407291400000000,0.018846796825528100000000,0.011422241106629300000000,0.044188946485519400000000,0.021517822518944700000000,-0.021276373416185300000000,0.024402732029557200000000,-0.033573087304830500000000,-0.039026442915201100000000,-0.032324265688657700000000,0.015821078792214300000000,-0.041452419012784900000000,0.025614380836486800000000,-0.011953500099480100000000,0.044279329478740600000000,-0.025719540193676900000000,0.026472251862287500000000,0.013781284913420600000000,-0.027825979515910100000000,0.036438096314668600000000,-0.023585200309753400000000,0.015249072574079000000000,0.011159772984683500000000,0.039762809872627200000000,0.038852021098136900000000,-0.040139634162187500000000,-0.045526739209890300000000,0.017517862841486900000000,-0.023951085284352300000000,0.008975941687822340000000,-0.020275363698601700000000,0.032953649759292600000000,0.011697357520461000000000,0.040509384125471100000000,0.031189940869808100000000,-0.017182204872369700000000,-0.026895500719547200000000,0.011899989098310400000000,0.046005032956600100000000,0.042575038969516700000000,0.022503215819597200000000,0.036331020295619900000000,-0.012212073430418900000000,0.016438566148281000000000,0.011567079462110900000000,-0.036040533334016700000000,0.032845642417669200000000,-0.014090561307966700000000,-0.019057426601648300000000,0.047237951308488800000000,-0.022655624896287900000000,-0.035593945533037100000000,-0.020726887509226700000000,-0.029996234923601100000000,0.036217540502548200000000,0.039463926106691300000000,-0.040960103273391700000000,0.015292211435735200000000,-0.034431379288434900000000,-0.027069138363003700000000,0.014492537826299600000000,0.009865808300673960000000,0.023107675835490200000000,0.022198203951120300000000,0.017117436975240700000000,-0.026205953210592200000000,-0.018537521362304600000000,0.024777814745903000000000,0.028096418827772100000000,-0.034800928086042400000000,0.022026341408491100000000,0.045536242425441700000000,0.015614471398293900000000,-0.034233152866363500000000,-0.017517842352390200000000,0.035150032490491800000000,0.025619182735681500000000,0.025742029771208700000000,0.024747505784034700000000,-0.018657933920621800000000,0.028998348861932700000000,0.042176719754934300000000,-0.028997242450714100000000,0.041496969759464200000000,-0.033254127949476200000000,0.027941139414906500000000,0.043683234602212900000000,-0.019503017887473100000000,-0.011153927072882600000000,0.012320997193455600000000,-0.028895033523440300000000,-0.011525860056281000000000,0.024831306189298600000000,-0.015839643776416700000000,-0.023565206676721500000000,0.027689058333635300000000,-0.022258855402469600000000,-0.033155236393213200000000,-0.043968174606561600000000,-0.021490259096026400000000,-0.045056693255901300000000,-0.013570661656558500000000,0.018165547400712900000000,0.028373684734106000000000,-0.015217822045087800000000,0.037718061357736500000000,0.012988516129553300000000,-0.045332655310630700000000,0.013957280665636000000000,0.028779540210962200000000,0.045850459486246100000000,0.025718331336975000000000,-0.040463652461767100000000,0.028031060472130700000000,0.014430914074182500000000,0.043590929359197600000000,0.036542080342769600000000,0.036513131111860200000000,0.018961824476718900000000,0.015450798906385800000000,0.016174741089344000000000,0.011640151962637900000000,-0.015220127999782500000000,0.041350334882736200000000,-0.045660637319087900000000,0.014895776286721200000000,-0.034279942512512200000000,0.011783477850258300000000,0.018505115061998300000000,0.034133385866880400000000,-0.040885858237743300000000,0.015155719593167300000000,-0.015364974737167300000000,-0.034595802426338100000000,0.032322734594345000000000,-0.028391735628247200000000,-0.032887697219848600000000,-0.012091144919395400000000,-0.046038620173931100000000,-0.033018860965967100000000,0.029859520494937800000000,0.038341216742992400000000,-0.036316774785518600000000,-0.039931103587150500000000,-0.027733333408832500000000,0.013210115022957300000000,-0.015903580933809200000000,-0.017045859247446000000000,-0.019251329824328400000000,0.010915590450167600000000,-0.015077371150255200000000,0.040168508887290900000000,-0.035801567137241300000000,-0.022241491824388500000000,-0.035662926733493800000000,-0.021255973726511000000000,-0.010460776276886400000000,0.026234354823827700000000,0.025923183187842300000000,-0.016377797350287400000000,-0.033163111656904200000000,0.030405292287468900000000,0.032294146716594600000000,-0.021538967266678800000000,-0.029962986707687300000000,0.028705611824989300000000,0.029862591996788900000000,0.013974084518849800000000,-0.029112908989191000000000,-0.028333364054560600000000,-0.026658637449145300000000,-0.028303584083914700000000,0.041877467185258800000000,0.023429855704307500000000,0.022570082917809400000000,-0.044717464596033000000000,-0.014431144110858400000000,0.012814409099519200000000,-0.037564691156148900000000,0.045493729412555600000000,0.044177141040563500000000,-0.019219197332859000000000,0.037928476929664600000000,-0.034576952457427900000000,0.019446132704615500000000,0.036802504211664100000000,0.028779951855540200000000,0.045583650469779900000000,-0.020256100222468300000000,-0.031802099198102900000000,0.010897495783865400000000,0.016281411051750100000000,-0.040050022304058000000000,0.033043526113033200000000,-0.019971827045083000000000,-0.028838153928518200000000,-0.026272904127836200000000,-0.030292566865682600000000,0.017530467361211700000000,-0.035977952182292900000000,-0.029591105878353100000000,0.031690161675214700000000,-0.037733055651187800000000,0.044053860008716500000000,-0.039933040738105700000000,0.036379024386405900000000,0.037163216620683600000000,0.019149081781506500000000,-0.035932678729295700000000,-0.019670855253934800000000,-0.029291275888681400000000,0.016642943024635300000000,0.022894477471709200000000,0.023588623851537700000000,0.028191143646836200000000,-0.026685889810323700000000,-0.042568221688270500000000,0.020708806812763200000000,-0.040092948824167200000000,-0.020585294812917700000000,0.016252031549811300000000,-0.011006894521415200000000,-0.045330692082643500000000,-0.024897200986742900000000,0.011559636332094600000000,-0.029716014862060500000000,-0.034010682255029600000000,-0.036926757544279000000000,0.040319837629795000000000,-0.016476904973387700000000,-0.011366162449121400000000,-0.033927641808986600000000,-0.014140113256871700000000,0.039445333182811700000000,-0.018089469522237700000000,0.031545478850603100000000,-0.034353889524936600000000,-0.043317619711160600000000,0.013844400644302300000000,-0.036301624029874800000000,0.036402650177478700000000,0.011878930963575800000000,0.035628676414489700000000,-0.044756226241588500000000,-0.020087279379367800000000,-0.035818729549646300000000,-0.010303288698196400000000,0.032870139926671900000000,-0.028057137504220000000000,-0.028721349313855100000000,0.021272959187626800000000,-0.017627770081162400000000,-0.045463327318429900000000,-0.023987248539924600000000,0.036667060106992700000000,-0.026200497522950100000000,-0.025805512443184800000000,0.035696499049663500000000,0.037914339452981900000000,0.013552033342421000000000,0.046084858477115600000000,-0.009479010477662080000000,0.044568069279193800000000,0.045320712029933900000000,-0.014866994693875300000000,-0.012942374683916500000000,-0.019247572869062400000000,0.032220534980297000000000,0.044186007231473900000000,-0.023053068667650200000000,-0.037305187433958000000000,-0.010114731267094600000000,-0.043104100972414000000000,0.011089224368333800000000,-0.041624858975410400000000,0.016323314979672400000000,-0.017254030331969200000000,0.013300667516887100000000,0.029853230342268900000000,-0.027001840993762000000000,0.022405767813324900000000,0.041711680591106400000000,-0.022612424567341800000000,-0.013200625777244500000000,0.027440581470727900000000,-0.023148801177740000000000,-0.041172359138727100000000,-0.022118028253316800000000,0.011228818446397700000000,-0.016437873244285500000000,-0.025076061487197800000000,0.043452415615320200000000,0.035307008773088400000000,-0.034970801323652200000000,-0.015234800986945600000000,0.046855229884386000000000,0.043895453214645300000000,-0.038219418376684100000000,0.027304502204060500000000,-0.021943520754575700000000,-0.027679147198796200000000,-0.028216132894158300000000,-0.043154817074537200000000,0.018626624718308400000000,-0.033735055476427000000000,0.045657515525817800000000,-0.039963200688362100000000,-0.013891456648707300000000,-0.022872574627399400000000,-0.036275427788496000000000,0.029630010947585100000000,-0.024055832996964400000000,-0.023621616885066000000000,-0.042138323187828000000000,-0.022073397412896100000000,0.016953956335783000000000,-0.027092276141047400000000,-0.034907571971416400000000,0.026243127882480600000000,0.013312520459294300000000,0.020237442106008500000000,-0.020020360127091400000000,0.022237287834286600000000,0.028327185660600600000000,-0.031767841428518200000000,0.040023453533649400000000,-0.023360712453722900000000,-0.017076402902603100000000,-0.015105774626135800000000,-0.011551509611308500000000,-0.037408601492643300000000,-0.045527245849370900000000,0.015104042366147000000000,-0.011258007027208800000000,-0.026634696871042200000000,-0.014087523333728300000000,-0.032944008708000100000000,-0.011827681213617300000000,-0.019891006872057900000000,-0.030105112120509100000000,-0.026762237772345500000000,-0.032280378043651500000000,-0.025825155898928600000000,-0.017194693908095300000000,0.016117440536618200000000,0.013812812976539100000000,0.016925219446420600000000,0.032950721681118000000000,-0.019937058910727500000000,-0.015520811080932600000000,0.038718950003385500000000,0.044801693409681300000000,-0.017977179959416300000000,-0.043728463351726500000000,-0.024116642773151300000000,-0.017701553180813700000000,0.018347227945923800000000,-0.017002163454890200000000,0.042213477194309200000000,-0.040831778198480600000000,0.016329856589436500000000,0.018874807283282200000000,-0.020000230520963600000000,0.045946948230266500000000,-0.032573211938142700000000,0.012328246608376500000000,0.033458042889833400000000,0.018991297110915100000000,-0.023531369864940600000000,0.027663493528962100000000,0.033704347908496800000000,0.045430421829223600000000,0.038289956748485500000000,0.010530691593885400000000,-0.044767681509256300000000,0.020160069689154600000000,0.020018877461552600000000,0.043498501181602400000000,0.024146649986505500000000,0.016009390354156400000000,0.024424746632575900000000,-0.019922178238630200000000,0.034043636173009800000000,-0.027709847316145800000000,-0.032835919409990300000000,0.015430057421326600000000,0.028071839362382800000000,0.020925194025039600000000,0.036962807178497300000000,-0.038533195853233300000000,-0.033143069595098400000000,-0.009665664285421370000000,-0.018858207389712300000000,0.020589027553796700000000,0.018255593255162200000000,0.035776540637016200000000,-0.034368637949228200000000,0.013731726445257600000000,0.035501502454280800000000,